index,weight0,weight1,weight2,weight3,weight4,weight5,weight6,weight7,weight8,weight9,
0,0.1074308052649695,-0.2882728059445451,-0.0792320211329452,-0.9129219411710808,0.6115196446689659,0.1534275589144449,0.3436548125943965,0.0409808989240083,0.641572680251866,-0.5592569099294993,
1,-0.5778328072134324,0.2043154107696194,-0.8358033920865665,0.322830570138884,0.2636075527063355,-0.8210276756140386,-0.8259834188890345,-0.7701724863420601,0.8699679530827689,-0.3954833929172473,
2,-0.2693343228977636,-0.0041499794490283,0.4391339959921274,-0.223311261487962,-0.7932425854466423,0.9766141023474442,0.8927214239493309,-0.679907743555237,0.8061482189438423,0.582626603091096,
3,0.1545884756223106,0.0749616623375224,-0.1381132544684425,-0.3642569956384729,0.307455965143129,-0.400548186884503,0.7331567011765932,-0.8088011726329692,-0.9072611810739206,0.4288277384933621,
4,0.1695806266980712,0.5995381941847617,0.9778321003798802,0.7587199727939646,-0.076286225573242,0.4411692405022518,0.4174646972831035,0.701397778161641,-0.1654679458468627,-0.2756719960894263,
5,-0.5537120800824594,-0.1747881816127743,-0.9211762635795812,-0.3365985111081507,-0.3225946172875485,-0.370073450134433,-0.953889494377727,0.6159504707684966,0.8635135496767208,0.87863556277247,
6,0.855753768332302,0.0872311810018715,0.8939185164171843,-0.3245372135994259,0.3845162213322532,-0.6723090092449363,0.843876563680541,0.5937507659418875,0.6511042018199364,0.45955701622189,
7,-0.5871704346279933,-0.2281389814492189,-0.4773405850074906,-0.5977167106569852,0.0298273299478941,-0.9140813902150116,0.4303017003061631,0.0572311698687071,0.8415765639955157,0.3957237174861427,
8,-0.2686922221849847,-0.3411100276192343,0.0230217213786965,0.1352094089200226,0.032529159841802,-0.7176089947754329,0.8542121634979563,0.9677527835113444,-0.5449284802539078,-0.5506660667363629,
9,-0.6877562772903864,-0.1854729543521199,0.4573186143927106,-0.6650295853551222,-0.836435232575127,0.1664031411685433,-0.3906491366491944,0.8298847721899965,-0.278141020070369,-0.7561996843336947,
10,0.8507928481809748,-0.5219231793383816,-0.656473279886536,-0.1037522710551336,0.4823852416247061,-0.8170193163796978,-0.3396828233234181,-0.2913167982509773,-0.1599752366313669,0.8113480718290806,
11,0.0076597675155638,-0.8031671625142824,-0.7036905216475626,0.7942006650891189,0.8872454661004536,-0.2041985515533658,-0.8652827377864157,-0.7325713257526099,0.0257181601479872,-0.2568877515347345,
12,-0.8545463292344093,0.10582420953737,-0.1926099125277991,-0.9194366510129875,-0.007015713771194,-0.9198127326296708,-0.6755415323185163,0.5860670149409819,-0.2473199581276244,-0.3146910564703224,
13,-0.5949416718548306,-0.2358977280193823,-0.8285747171565491,0.4617277990150572,0.2174025964218082,-0.3566733164389256,-0.7207214753092721,0.1029433680333877,-0.9123890383476544,0.8227735858434526,
14,0.7239023735167656,0.8132405302143446,0.6886288140315604,-0.2932811808662355,0.7157956699420027,0.5008765216495621,-0.5233396310275831,0.670887952872576,-0.6510947552586163,-0.8271362242021159,
15,0.1000570877953535,-0.876424487755472,0.7915428588359654,0.1407567950488735,0.2395500566547013,-0.7424556635645793,0.5565959894316519,-0.7634820545926866,0.8078598873235834,0.5849122426440119,
16,-0.2015248428386701,-0.9669524639895444,-0.3465051319298164,0.2889906226427949,0.3547970399305122,0.5626016634787012,0.020504527525635,0.685272571808665,0.1122372631652397,-0.1442329554669635,
17,0.5317458982509478,-0.6301756128436542,-0.3460154019099642,0.9182030184935046,-0.3848209289750298,-0.5416325564478507,0.8828153711666546,0.0931875856377559,-0.8146725979114584,-0.8341713624781046,
18,0.6939161552471114,-0.5484772637396416,-0.3774838689412352,0.7931477245658531,-0.8562371382608482,0.3705531958232795,0.3818353291815566,-0.3021201211446658,-0.7776241479839212,0.5106881679299193,
19,-0.6288140901536572,0.4820871244338056,-0.1456342298549187,0.2431479423260663,-0.6558702155135123,-0.770691157197388,0.7616331406391461,-0.433075350695922,-0.901013383638964,0.6705988163239676,
20,-0.267087575454337,-0.4793925139452382,0.3957037461247594,-0.4196288750674114,-0.091246810050684,-0.2288401371235005,-0.4714376326190744,-0.9143879484779436,0.5333082069449191,0.8116412783170375,
21,0.5608864632842412,0.2297945565960031,-0.3455659776442075,0.5705615243608189,-0.4187172574785595,0.5291898505116615,-0.913946101505664,0.0959814191831898,-0.6416604626369469,-0.0205801385004456,
22,0.4266381540763042,0.1650119499598383,-0.4189087517553069,0.6503313812337279,0.8584008272974026,0.6781400312249133,0.5019900219521571,0.3711739415053092,-0.0991947029347932,-0.4172664972268469,
23,0.7855026550926514,-0.1785355845892364,-0.2834677154989952,0.9747652536817744,-0.939016006550666,-0.5828981693650722,0.0207858980990289,-0.1608345022278815,0.0277466087568674,0.7044305557733361,
24,0.3710069488203626,-0.2624201724775357,0.6934498804395197,-0.3144449831152606,0.0605304100583834,-0.6931219595811577,-0.7827768952870222,0.9375213919753318,-0.5265434270244433,0.7115468451721068,
25,0.8915694134770491,0.6149489311618332,-0.9104752091650374,-0.8020672233950172,0.4295554943505117,0.6558478805948948,0.0491307025252443,0.2450846514837099,-0.2842992781199408,0.6136030503612482,
26,0.7179919512439559,0.1975762975743615,-0.2102626848408573,-0.4804225068460764,0.1017826362591614,-0.6128524127021054,-0.602343739755355,-0.2591914484309301,-0.3291001195151851,-0.7081444959545795,
27,0.1150000046592272,0.5543994799853587,-0.0405830254361669,0.4228749533023819,-0.4272103366709012,0.3774909954453078,-0.01362844839179,-0.637927887717799,-0.0467868112646557,0.1888270722407745,
28,-0.1630208310968415,0.1548308487273262,0.6239811270301883,0.704192560443885,-0.3671674577900151,-0.5224154550114481,0.1723122782381927,0.0356727944348822,-0.7136017783228987,-0.0062313758582868,
29,0.5302286705003869,0.1464501255033949,0.9367410722366448,-0.89667214276632,0.6421346727887067,0.041866875503989,-0.5167352292453549,0.1580373906095626,-0.3028691943164699,0.3517571679983677,
30,-0.1352663175935456,0.0900140572431467,-0.974505838696706,-0.3139086985203151,0.6869484196084061,0.2013672632167045,-0.6478302284293125,-0.8956920555884044,0.594398151170775,0.8699322841898867,
31,0.0430888400711515,0.5595639124908172,-0.3552736328356716,-0.0751201827565374,-0.8788980614900984,0.4581487132259465,0.1671757319871767,-0.2082520460803498,0.5289520623706045,-0.7913748238399484,
32,-0.6124370026832047,0.9005274292520313,-0.0581250717856596,-0.5323270313088022,-0.1230917600441259,0.4656472527545681,-0.2724080001659559,0.1063804839838862,0.4420230790661597,-0.21987437262448,
33,0.694580382362356,0.4116574917959323,-0.3284130272721135,-0.9501236658965,-0.6819697517150644,0.7589400106168254,0.0553736509375966,-0.5526650199727985,-0.045646156892889,-0.254948881287196,
34,0.4950880283778762,0.6869405070997141,-0.8746167519419223,0.3118772010379382,0.466702921450882,-0.9119714901889908,0.594195631719322,0.6829581054717138,0.2365569914516032,0.2191913092987649,
35,-0.6032221229701632,0.1552780588405093,-0.5991087499568765,-0.4436869277372032,0.5983101817394461,-0.8631433493790782,-0.2280248083764252,0.5297090119845658,0.2402674185631772,0.8076588504839874,
36,-0.0002805932928355,-0.5472299463027548,0.8894611794943115,0.8683606549731098,0.6934816614931663,-0.072632631413378,0.4943526015222443,0.6228816573763583,0.4045899721127892,0.5582066139754387,
37,-0.8004957540231594,0.1773576937179297,-0.0181678672819614,0.7624176849135136,-0.1894098170485091,0.9031881043337358,0.5333867964620795,0.2817595031797233,-0.6669375799175119,0.6470680800530537,
38,0.4907009875209904,-0.4494626987640652,0.8463845305365063,0.8783620921507658,0.3196302480409068,0.6009670314895337,0.4826226322788147,-0.0450109728592121,-0.5459401372735826,0.3796930767324658,
39,0.6588645519868956,-0.5805405451494101,-0.2259904077219042,-0.5004920978278833,-0.0509880234497311,0.8824300152343689,-0.8226953333462131,0.0349269293830587,-0.0816917557144499,-0.8955255856561786,
40,-0.6874066150792604,0.4626632787059317,-0.9630185621137736,0.0117740927006109,-0.6456694305041192,-0.0194734943038464,-0.8258578013037638,-0.6424261765879382,0.9712939316691864,0.4817038635987416,
41,0.8446969903666361,-0.8622988729129849,0.460330245783737,0.8498229057775757,0.8814288143092144,0.3442546572751199,0.3211289326379591,0.5917358441314371,0.1765735947744544,0.0993235076358671,
42,-0.4095516892166679,0.6437766945785894,-0.2596841960237319,0.7510144059497359,0.4784119727246649,-0.6495318510241536,0.3094792999107094,0.6697296746851353,0.7128320460337201,-0.6160923555950293,
43,-0.0552388002053162,-0.4493492482936675,0.9552366424416988,-0.627851532720906,-0.285025431244071,-0.3586355692911409,-0.2899164451214354,0.5025046329843399,0.086790976218444,-0.1712043014524137,
44,-0.0298978448797514,0.56574577768704,-0.3428678656215217,0.7263888039469277,-0.7461965661905283,0.4810638665468303,0.2899767465554426,0.4385274510178332,-0.0701103068568315,-0.658652514061568,
45,-0.0349626579559313,0.9567349709670931,-0.5256732912208688,0.0272164818044684,0.7137114400582918,0.2589594501867718,-0.3209964472781788,-0.3817614799547917,-0.3993190844773299,-0.351873577993007,
46,0.0380707356324023,-0.5397971805776538,-0.674442578509327,0.5432680874213456,-0.3411172200769838,0.9770714142045748,-0.2666907026160519,-0.0859650737178839,-0.4459055892668152,-0.0601724181362778,
47,-0.5339555709364063,0.6211925945616819,-0.1029568851189332,0.1209753570099239,0.7753589314584666,0.5100974388089217,-0.199569390357306,0.3597966002120432,0.3879517869811812,-0.829439241980841,
48,-0.6611858494817429,0.8360299719906554,0.5039349292108108,-0.3545927114736132,0.2846502294809216,-0.9247896775811382,0.5623051532293883,0.9398655474960738,0.2583775382811724,-0.184965868901915,
49,0.3687076332578509,-0.5615495310443245,0.4101145345677466,-0.7818645529957275,0.6027477720513457,-0.9249653283106292,-0.3135746911956029,0.6059689428645316,-0.1623974177761994,0.3524668992563609,
50,0.5431539306560478,-0.912917570221592,0.7142176082060996,-0.762411882292106,0.533209943858882,-0.4085568003816244,0.2898422660394366,0.9205390336033364,-0.6990710922409122,0.4922043479160141,
51,0.3415893345687324,0.6656629374585945,0.6658222697390874,0.4405727543632449,0.1139595963266526,0.568274695908999,-0.7783381214824194,-0.0476227499998761,-0.3352485107215494,0.3048749892545674,
52,0.0592597234648406,-0.2859950933996483,0.7661838938821388,0.9249774866068924,0.0749846262358098,-0.8658835503719742,-0.6110910866026119,-0.187985776693194,0.6603277483450789,0.734925971288197,
53,0.6428699052364006,0.1771753926890347,0.2838586999268864,0.2472781707606066,-0.8478463503183689,-0.6708720205072329,-0.6049934975786346,-0.2907436834022361,0.054373038228928,0.8566453872150286,
54,-0.4287564949897592,-0.0427996393852597,0.8090840000466135,-0.9775270237234468,-0.7435002041244697,0.0981602008236355,-0.9075381426801152,-0.8232102332943186,0.6242706459954528,-0.959432282598135,
55,0.8063866354759306,0.4726872810657201,0.905258969737056,0.4781614722745062,0.1662214210700441,-0.3555600531678364,-0.1387784515180447,0.7553960457125422,0.1834092433440834,0.8081117500014943,
56,-0.9189994328982936,-0.0604068542627442,-0.4081550904039466,0.468254565000699,0.3992390384575963,-0.91530707935334,0.3685539939981639,0.9159461436047354,-0.0927048111839079,0.0960918713846614,
57,0.1761340093380938,0.5841598815164502,-0.4451101117250976,-0.2372203030623479,-0.8482954607910339,0.2868718910563264,0.0666013974564136,0.5404631613686803,0.1527310179655108,-0.2141283032799198,
58,-0.6201251125058513,-0.8885594766830874,-0.804528825674834,-0.1999224298264781,-0.7562867945468252,0.4079714495285895,0.5469682721678659,-0.4394599414846644,0.3207307965555483,-0.6143276993194062,
59,-0.623232465140924,0.2944179492572158,-0.6984588967026817,0.5299929080512202,-0.9188934377207718,0.1797767135010977,-0.8914140092187136,0.2375811496357545,-0.877257285611901,-0.9028646760862826,
60,-0.8076008695438326,-0.2128674041121394,0.560821661462001,0.643694391477234,0.0046094228099461,-0.0838443033473682,-0.4065747197179253,-0.4541469344335231,0.1354871381895828,-0.7509380860610164,
61,-0.2563688473627071,-0.717836184077853,-0.4915800560398252,0.6049398980082283,-0.1908483836847494,-0.9213234190271096,-0.4249311951618612,-0.5589089895495031,-0.0722400023751311,-0.771410070196108,
62,0.8638252908858304,-0.3820442547526428,-0.2038969057864601,0.5583782016372583,0.846749278375948,-0.6585567067868094,0.0517080164681642,-0.8942434516007589,0.3430141346939828,-0.8923857528460548,
63,-0.1840534454731434,-0.0918708366411211,-0.900586744277767,0.3567410484354392,-0.9577887448596122,-0.5857627426983276,-0.2366588095304682,-0.9689496352169282,0.1617681610070513,0.7894236203388614,
64,-0.3787822959455036,-0.0657247261633029,-0.2905776123341089,-0.3386755341908405,0.1530095707696557,-0.1692752046641824,0.0586248539580642,-0.5775453683945574,-0.2584709642931445,0.9159798058214714,
65,0.5262009138978769,-0.0326467329000905,-0.4451293764327882,-0.714767140529428,-0.2341731456786446,-0.7045515676417523,0.9322750364460232,0.7511876939823547,-0.5269227099876668,0.9251549485518598,
66,0.7959551886439105,-0.1728424371827567,0.9388834825987178,0.3317657978355808,0.8768080963343281,-0.1087633052478964,0.5045859059378446,-0.5760554416545378,0.9586946043576884,0.8450454163849157,
67,0.6052994973882684,0.7199413997738124,0.075300224111972,0.2815897878586944,0.9544071604817852,0.348031223038487,0.5663496966603421,0.2999169800050159,-0.3585258153436903,-0.1265765759105623,
68,0.6247174029309188,-0.7874146911973879,-0.8225673995206869,-0.6458665258448715,-0.37402625641895,-0.6429018950887414,0.9040301448288,0.3776869309836053,-0.3875793444727821,0.2396996204934018,
69,-0.2595924594956386,0.7266239833944694,-0.3268897945927403,-0.4783299799567457,-0.8151728088702832,-0.2725668628979968,-0.3756755211949562,0.511623427151999,-0.2712677892025407,-0.5913923856398996,
70,0.1671193224035265,0.574089800110801,-0.5350374396977076,-0.6387807413371817,-0.9836787471980176,0.3007919775898873,0.3284251882556743,-0.9815297526584064,0.7663464292335869,0.3915254880154875,
71,0.1429379548130867,-0.0697577483423222,0.1607202979652005,-0.6579052770011686,0.9329310008145264,-0.5070976708515346,-0.2876510327689429,-0.7280339700263799,0.6198239093887821,0.8179048842493026,
72,-0.0828854092881283,0.974771334222546,0.1899465111556664,0.8545363485337316,-0.306180071359446,0.8059454009022424,-0.4788039662359432,-0.3476641868758129,-0.9752314840642572,0.2464577713707574,
73,-0.6719225144028832,-0.9357862957189776,-0.0692296138351948,-0.5705637439449808,-0.7792918719781952,0.662526497691597,0.2445737239949359,0.959566644662935,0.8312129459259991,0.8319021668770918,
74,0.4363938256461686,0.7777104946870215,0.9451820218370508,-0.733586296337831,-0.6873072849673474,-0.2224391608610523,0.2286979315646744,0.2657505614173154,-0.6377006994776411,-0.5312972408241798,
75,-0.0990442351358741,-0.263772657231558,0.0611832585241352,-0.1404923608681808,-0.8695051601513202,0.9596412626313846,0.8342671414397405,0.1832129213863875,0.1215459707110688,0.725832495194592,
76,0.9577901125349564,-0.6771395622761336,0.3244307785245817,0.9404568994171104,-0.0744138931544082,0.8542342126341245,0.2667523398946263,0.6071257606394811,-0.5020839913344477,-0.2130170284428106,
77,0.6817453569489866,0.7819592456825306,0.1508951528992586,-0.892259280043356,0.0347118568048028,0.0955615504331517,-0.0558337505557551,-0.0638736867817628,-0.5909676065234116,0.3379183280279014,
78,0.6576443331189479,-0.3907079988677525,0.0691696292212828,0.2281300079240995,-0.2423532861119128,0.6196081993955953,-0.9766734261068658,0.6675655034673689,0.1656346465668485,-0.201999404383125,
79,-0.5888758536331805,-0.7041338575973077,-0.2422196806215981,0.7059232004046001,0.1784230032219431,-0.8761359447106011,0.0663671077773828,0.3039592957345502,0.8991730786788972,-0.8841255105187428,
80,0.4253030480547117,0.8045031181137741,-0.1210620533394737,-0.1930220368516835,-0.0805809252061071,0.1242972545091025,-0.2817451561980268,0.5512712282243186,-0.3638358978808426,-0.5012782480714417,
81,-0.507748827117469,0.1279154389320458,-0.2783678264468836,0.41009304679681,-0.0518401397392976,0.0188640654884588,-0.8707396833846782,-0.3436981507346085,0.9661197218507688,-0.7580612307012901,
82,-0.3382127434151881,-0.6256590412236049,0.2015439728280375,-0.4293035750214988,-0.1237429099688988,-0.7935539979556285,-0.8587432945963536,-0.2876127539042247,-0.01679224007967,0.6925620784782942,
83,-0.6331998461154421,0.7155043145594111,0.1963583463077918,-0.1898714837513939,0.3497732546994632,-0.0982696269437888,-0.0508130166930881,0.9886071130780189,-0.4958467548610545,0.8615780255717358,
84,0.8523532582950049,0.1589192808413237,0.6019437738990276,0.408322778608571,-0.3834178486418836,0.4881459375590087,-0.9697396573448211,0.4346097667688144,0.225134882134486,0.9450699489767362,
85,0.2263466676095733,-0.9429496960600436,0.1032479153070804,-0.2353453527473286,-0.6498965824553656,0.1991328367237366,0.8188990530596574,-0.2135893410112601,0.205585808099302,-0.2705884935112802,
86,0.8736967143807632,0.494918493396389,0.5761055487595761,0.410453053270164,0.881258163225406,0.9098691735225396,0.2551443397008102,0.255230175427807,-0.6807739921398058,-0.7147615740795797,
87,0.2534553369044272,0.7031649351280471,-0.2930396625970345,-0.4813207932709238,-0.168748170694161,0.1335503960529525,0.0812057306223474,0.5842101795855656,-0.7117035980668498,-0.238844992124083,
88,0.3407592147041587,0.7129991229342645,0.6184483969696923,0.7144913370298307,-0.064102665742544,-0.0251266343052959,-0.3618566001802245,0.3369891191133287,-0.7199580637378076,0.6850394690800092,
89,0.8228133659843226,-0.7797719744267821,0.0397050972388237,0.989275039133974,0.3237346024761398,0.4903291338080702,-0.2495099270392172,-0.7733076273820284,-0.9613406838194548,-0.2867156378477886,
90,0.2936663569802296,-0.5749032178723528,-0.8183940846077326,-0.3677530042404241,-0.6538050643523757,0.959003383253766,-0.8404273111352751,0.194900972009242,-0.6071663805863069,0.9237717255064816,
91,0.512588250561423,0.3527525150666935,-0.0676472121603615,-0.0647141504977999,-0.79328027227032,-0.9397261550614988,-0.5117312320539763,-0.4360687875667443,-0.6155768638385861,-0.2444733396930433,
92,0.5125932590485518,0.9340991024241024,0.8612752172890423,0.0947166697800567,0.4630920091692543,0.3645817673501774,0.6900982688670985,-0.0579364375557933,-0.2711216474954243,-0.9161135799653732,
93,-0.0957922712412927,0.8376437583752403,-0.3616612527677832,0.6451712691553695,-0.7165755208880662,-0.4390616475308023,-0.9473748663462432,0.581312409785645,-0.8818995072553537,0.767054183719365,
94,-0.6645771730180368,-0.9072324708460856,-0.7875990962541065,0.2239349280306473,0.8283900640180912,0.4606522502080596,-0.8305738503121325,0.6222924294427377,-0.5126363651012991,-0.3512416556799835,
95,0.0398280053342441,-0.5463682992905677,0.4993774066604739,0.4030590038680386,-0.3220216857906558,-0.7033849802599159,-0.4349044380122597,0.395720571839566,-0.6554581269111331,0.2191010373880546,
96,-0.4800333008160126,0.305130586945449,-0.8313989138520802,0.2209996656177979,-0.0360190414696547,-0.1100195485196575,0.953915555871682,0.5530505105102301,-0.1939512693048846,0.5136138252860205,
97,0.3820428228821371,0.5028257853894442,0.6388413436940563,-0.0538105332579155,-0.2597801833889988,0.147932165628857,0.148710894835123,0.953498318453314,-0.3060201911397365,0.6084677791540734,
98,-0.5222674547338215,-0.7414981951788306,0.3628697622503924,0.9372348856940776,-0.9695912700871598,0.2014728352985253,0.936973761985238,0.254569761374132,-0.0537742342821877,0.8434591373617375,
99,-0.9578788936942338,0.2616217741270197,0.8954524495349854,0.8199388656427697,-0.8761724496476799,0.9535664342245942,0.3111641504987135,-0.7825734719747508,0.6217611824798457,0.8026558480255472,
100,-0.563440231114193,-0.5709688709445659,0.0645454356357819,-0.5192603983970282,-0.528716751172327,-0.7853100364828328,0.1407574698634586,0.3749983667284657,0.1645090085887235,0.1057551396668186,
101,-0.0510439436508625,-0.7887251758227155,0.8290553029924379,-0.6123317188887032,-0.4458676847645061,-0.5920478269306007,-0.4441798982869556,0.414838669182054,0.6245928795041567,0.0684539974666911,
102,-0.3015351210784969,-0.9244727138983104,-0.0603612258430704,0.9485580994485469,-0.068101169091255,0.7458436248630291,-0.8620817914965411,-0.6731321825029339,0.0676347286043563,-0.4604726613188092,
103,0.9863520324620292,-0.3137713617121633,0.3690562123408816,0.5083469896542829,-0.6422248110535761,0.6651874261853044,-0.6592651303469451,0.8357397832839586,0.1613273468600478,0.5634820375839129,
104,-0.0811137881062569,-0.4863235140659437,-0.0481364416064824,-0.5206730966147597,0.0868164785397207,-0.2886090547553336,-0.5440848439405659,-0.296654336041989,0.9717654335971192,-0.0985570383133206,
105,0.8091286191037705,-0.768785147352673,0.2114317681897817,-0.3548034636698652,-0.9233901530351646,0.5384929779732903,0.9355797400300948,-0.943818248642464,-0.9229001352642788,-0.948587386721266,
106,0.3023386952936595,0.6488362257061393,-0.3837343552669715,0.1903167215506576,-0.35462048939401,-0.111321363200931,-0.7109557600605626,-0.8117975284277822,-0.8718658018708926,-0.0677467005212666,
107,0.6074051147695005,-0.4675512453727293,0.6818608670894786,-0.0033182187168948,-0.8057445399545514,0.7847247514490401,0.7756867925045456,0.278936876915967,-0.2711176240009717,0.3209737525981939,
108,-0.8889769467553442,0.6871694940583291,-0.7101277775584306,-0.7740984780697078,-0.777177934506571,0.2877298513811051,-0.9534690980306176,-0.0036901233353775,-0.1593570319566287,0.7814408856657433,
109,0.802621902434834,0.7089702360700836,0.7434232004477466,-0.3890904049030018,-0.4413164572520861,-0.1205682904900671,-0.413576480662703,0.6406893208077524,-0.0248718349207246,0.2273791712815822,
110,0.970832850491631,0.9693292287831544,0.7152541368077112,-0.1351174916268939,0.5117648343902927,0.6046737324730471,0.6301331505628844,-0.3595412471547313,0.5519902481404515,-0.960842552116285,
111,0.2600779105961208,-0.0516147412162368,0.9481353266527206,0.462641171120816,0.9391581580432028,0.7806942484955537,0.2972558230673834,-0.3154267547059807,-0.8373698910211367,-0.9559840480470618,
112,-0.3543126573966331,-0.2580060965017038,-0.8899282254965774,-0.3111481062867904,0.7157830620119765,0.5191357758174204,-0.6785784686254899,0.5959437792973785,0.7951356932438229,0.7098121911929198,
113,-0.4765824859698037,0.5480793194644524,0.0700732249354885,-0.6862684613602843,-0.1541271934584193,-0.6114465787709219,-0.7896789618999726,0.8106769030792618,0.3976655165631888,-0.8078011008334293,
114,-0.3015148791580183,-0.0920949122085879,0.2784113015621192,-0.8070750878417354,0.3365527018751229,-0.1497887841311944,0.5226291145109445,0.7956948831112052,-0.8498819722529077,0.9506858811176164,
115,-0.1303712509483978,-0.0954534315229543,-0.4010112931296141,-0.4446235071810677,0.7482748704388653,0.1212878053092503,-0.2246776868415304,0.3405446689992422,-0.2545034041707623,-0.3049349528365248,
116,0.5925614360509348,0.493294183564037,-0.3335056479097129,-0.4313215039963407,0.8943724284178827,-0.2226216201007762,0.0233720952457039,0.8416256708808929,-0.7727615278938811,0.6181873240319982,
117,-0.1930262157320615,-0.2652100388444994,0.1263302761975262,-0.2651072226703206,-0.9482274916373672,-0.6553127433243919,0.8946053341701601,-0.6929113611250257,-0.0061152364708673,-0.4532856332054902,
118,-0.6986533102637751,-0.4333936876519298,-0.9180306279710548,0.7444623179398566,0.0404633578859656,0.7341919562548438,-0.6571249588184904,0.7788029447540084,-0.4411344428966163,-0.2420927676208626,
119,-0.0141387934698535,0.6922816608440472,0.8665344097879075,-0.8506489561214359,0.5887079104456407,-0.5008841834284647,0.4825829559345067,0.7286309958033468,-0.6093109550635185,0.4731744800886914,
120,0.6857122631736698,-0.2013048099648537,0.6953256958855769,-0.4639630644930052,0.2541451630860625,-0.4458769490645197,0.1032613858146838,0.844647916100123,-0.5382647425122642,-0.7975248565133133,
121,0.5706066391065288,-0.3280871509697837,-0.4387225718130537,-0.7862880633435543,0.9803693679486404,-0.5971145197933265,-0.1202725870248295,0.404495223266901,0.0880287683438374,0.7445351911838376,
122,0.1035393406302751,-0.1590266449827517,0.0689992786559989,-0.9712598525027274,-0.7782032684713596,0.6692678996743344,0.3130587165855474,-0.2445909797916687,0.5559023421823999,-0.5583590080688361,
123,-0.8418820305891114,-0.7701269753068674,0.9328855705819196,0.3539284494958372,-0.0059454723733407,-0.0867498701330874,-0.8814201017037459,0.6430209232675035,-0.9542605787206998,-0.8350914654865306,
124,0.1760451953836737,-0.4492335988335261,0.8014129834861916,0.4303473868201641,0.8639036544012704,0.5746775358955987,-0.7268271743543011,0.3689655268300793,-0.0794141108704855,0.6685231356217805,
125,0.1933997259304558,0.0449126662775003,0.9706290746629984,0.0951793583485347,0.1008622889942396,-0.4443326996675563,-0.6420529431195467,-0.0170883120097363,-0.1825260040168005,0.4487399104694589,
126,0.263895993075548,-0.4258054898298979,0.5911590186416049,0.8325387021729822,0.1250976640400023,-0.1087499012036995,-0.9363861092136576,-0.9519780724709198,-0.9452569455304626,0.345178792922258,
127,0.4304638943461003,0.9150248260375256,-0.1685524133095844,-0.1312825691289606,0.3038284055060114,0.2667099766330378,-0.1822600889129113,0.6112759010950044,0.8042482804147142,-0.2760801345325776,
128,0.5363020444660371,0.5621732299682576,-0.4843237772893874,-0.4524738705819653,-0.7073841183594047,-0.7027209333428416,0.9275169631979898,0.653043747839555,0.5277070255475944,-0.9105228830532126,
129,0.668921181614748,-0.5109638133164442,-0.4190867554652288,-0.188669562702648,-0.2979076029926527,-0.3166241937072983,0.2990900844441568,0.1988811741214509,-0.3953032250135651,0.5557379525826569,
130,-0.9083961736553062,0.6796001822275091,0.5444598329803785,-0.7317012205793214,0.3911705355579957,-0.906299024571966,0.7731175456634678,-0.0910361143015427,-0.0594874904450545,0.3367630018033152,
131,-0.387171647119894,-0.1401760469751916,-0.8013807686320145,0.1024871796473061,-0.231413870487863,-0.4009650839127291,0.7862347934692033,-0.9406202576441915,0.4370370434514539,0.0618658858678069,
132,-0.8503506793732711,0.8154216509787522,0.3695000862817694,0.7595768834365333,0.344240869082919,-0.0321721934229032,0.770540311128181,-0.5142003418644945,-0.6161872447551825,-0.3155253772028779,
133,0.0179270593592073,-0.0247792439116736,0.3879433139832116,-0.0677895963681353,0.2186377618628414,0.7119365317086068,-0.8996272534544875,-0.7558167376697418,0.8910322163387638,-0.8741310900512744,
134,-0.5046091464051901,0.2140640439857082,-0.1722576507330486,0.8347818803402516,0.6969450984051233,0.0579706724219779,-0.3991152248217793,-0.2530065107227937,-0.5291276198899664,0.9539982514047564,
135,-0.4013433400611254,0.3063414527856387,0.5091234105890345,0.5595272199155799,0.2469753556023202,-0.3287578603872986,-0.907247068312316,-0.1393449735182542,0.8162307016506203,-0.150556633681424,
136,-0.7157530746889144,0.9835842644017778,0.798763377924383,0.5212627379455546,0.3050325973103704,0.8786442538121393,-0.60157955151176,-0.4074872275789541,0.5974193182312895,-0.3795061908530279,
137,0.4317903115473225,-0.873296868461662,-0.6823149671951902,0.7024268138191478,-0.2736788001324522,-0.6999885923222993,-0.7535060481215696,-0.2810034742777276,0.5064779225187426,-0.774762715049337,
138,-0.1627931212324566,0.7009333419644252,0.0333875299306554,0.8487540397651459,0.6850028434458613,0.4787688233295308,-0.8687065243224541,-0.0942573931542244,-0.6781629207189953,-0.6952839916160924,
139,0.8711981425487063,0.0366089419328379,0.6901218938876363,0.0416335394404894,0.7471580746543278,0.0438585516239133,0.4009391674182325,-0.1997124607134617,0.8157661823536679,-0.7523190346149362,
140,-0.743193355366611,-0.9517878993194818,-0.0448962179477098,-0.4521909067935263,0.6911095599632227,-0.9858217375162268,0.0572502319378021,0.8208996570635894,-0.8498354981543679,0.8145102549154923,
141,-0.6333211781579366,0.3657376481597305,0.6285175425360965,0.943248049821362,-0.2230640867203619,0.973268397387725,0.3175558214761684,0.2802662765888026,-0.0902724325780622,0.4635818117550951,
142,-0.3143812210715501,0.6897981134786018,0.5933717757235939,0.600283878071084,0.0530135056669951,0.1232857197806858,-0.545365226650451,-0.6730122348536876,0.0968725272678805,0.8218665212242231,
143,0.2846647393339439,0.1669222248844482,-0.425663602803525,0.5557278207808733,-0.2951094500393603,-0.4477284268585568,0.1376819091518915,0.3121471539181815,0.0773694618933786,0.2084886218748818,
144,0.5124144729896445,-0.5417565411004429,0.6118728269476905,-0.2789655399504887,0.6141047336961849,-0.4438611152595918,-0.5241273967566257,0.5836358636622752,-0.4969360012573765,-0.979534246825262,
145,0.081806165030247,0.3189422442933867,0.2662484396447588,-0.1532752488951662,-0.5712091993890056,-0.299278213442921,0.1934068290861141,-0.8227815766351956,-0.2730648903961877,-0.0754634928586256,
146,-0.5553069408219264,-0.6581609628430029,-0.1438118931104749,0.3663290093709428,-0.2310588699559574,0.7973355029688052,-0.1229533932788446,-0.8167911377969026,-0.4932238600126443,-0.9524098793559378,
147,0.5882613582125082,-0.0580454782778462,0.63354830299087,0.7796778134350206,-0.9789565867669544,0.5295636041943221,0.2226265752595089,-0.4829560724364562,-0.2997768963552549,-0.533411330106385,
148,-0.7744153629585087,0.3175629615862738,0.9461202363389838,0.2175523279965607,0.0454650115774473,-0.9351736728072508,0.5444020686488569,0.7512319298504799,-0.5052144166224986,-0.8254501063196125,
149,0.4197206651173677,-0.7245864672972195,0.8417874470408744,-0.9094378792209944,-0.8613485249186247,-0.2445807589866976,0.4748023349263019,0.2072447837144579,-0.2930868086285091,-0.2651759038179969,
150,-0.3308522458701748,0.93341818519567,-0.3341140195677047,0.182120329638737,-0.5852126608021914,-0.5997701461077876,-0.6686156440552291,-0.3955579896310274,-0.3362340148321624,0.8820528523822118,
151,-0.0477610871884057,0.2876959578052278,-0.325615783698595,-0.492463340166357,0.6893212705514573,-0.4740332820155144,-0.7411448392196875,0.7373645090244192,0.1865742832021337,0.2338445936683073,
152,-0.1282065792928791,-0.6451742604387267,0.295806055308546,0.4108311005087182,-0.5528193251028348,0.4692597114914361,-0.790567917014696,0.8439334663261246,0.1317143613537741,0.8603778423253994,
153,0.7458174888801843,0.6673560716832077,-0.6903430304809449,-0.0556025566083736,-0.602135181092389,0.4627332221167917,0.5964394286402548,0.8369650434625902,0.660998867246444,0.0821474393403427,
154,-0.79469443028879,0.0636228954068178,-0.9539808667504266,-0.4200212640494462,-0.3015264003920495,-0.7948025180975111,-0.4616143612467354,-0.668776605980877,-0.5182179447102486,0.1087090606791356,
155,-0.9886919460051364,-0.3472092195813659,-0.898333828451193,-0.3587148638685355,0.2174949184349184,-0.609343543482421,0.3453326287868383,-0.750711854142423,0.8991018549170424,0.4016029229615063,
156,0.3300139072695565,-0.3808100546126186,-0.0418622887487363,0.2659756607666224,0.3619802935843492,0.5013675410938689,0.3138563169007258,0.5427267576641828,0.3735547710800702,0.4569676698674763,
157,-0.4114989639462642,-0.2233968870650693,0.3818476271402109,-0.0615457141634867,0.1882516102887377,-0.7142034548126258,0.2185298033077272,0.8772714253095673,0.1930087334810535,0.6204266490683663,
158,-0.7480632987947882,0.0194964300151725,0.8667799298959189,-0.2912777056194313,-0.0463839410004339,0.5589524787714057,-0.2362526111390573,0.3650569517171993,0.5991495678922949,-0.4128131574710301,
159,0.4446390934940165,-0.3984800266702804,-0.1133098419092407,-0.514471493103848,0.921567854129554,0.0789343928287187,-0.6392032335498748,-0.4448439791378923,0.4850449950365019,0.5632472360887681,
160,-0.2752646045614401,-0.9685176403236702,-0.2628566917487375,0.1455351026562326,-0.7544997351048066,0.6529519439276423,0.0086835613014323,0.9432960303538284,0.0403733108165027,0.6830763958163426,
161,0.6179014362946198,0.1322600333290937,-0.6656228289035923,0.6590837990402294,-0.8197320519830281,0.1574333261847482,-0.3506722757059374,0.1376896973403811,0.9595676948934676,-0.897748930284071,
162,0.0302705102329092,0.25699725699975,-0.1775879498232581,0.0448883865717912,-0.2062659014906265,-0.0591786276932568,-0.1552274047031081,-0.1500328912573291,0.2005173550026011,0.4572183776363741,
163,-0.9232237100183855,-0.3187562406744817,-0.8401353693843998,0.5043654785526162,0.6640158314983333,-0.4819971666035553,0.7402837263727058,-0.7094127096546127,-0.8026960606593889,0.3379725307915862,
164,-0.2205653019772133,-0.5510940119100489,-0.1586185963530823,-0.5177294865814468,-0.8086390820208952,0.0090926781432896,0.0920814823718918,-0.0465657243664412,-0.4910233584370667,0.7104889559161487,
165,-0.0940904840592872,0.716866996912076,0.6452785772348257,0.5882685481017726,0.3215357962382783,-0.193167073443345,-0.0363486782454557,0.2675092006706698,0.8033083233268867,-0.1739764816864951,
166,0.4849707115436441,-0.9442418640149371,-0.0594626494835432,0.3054219306631156,0.1821463193223234,-0.917744863675506,0.4507180767219716,-0.7192223589184317,-0.2620711789992077,0.9498112327234852,
167,0.13627798270556,0.0923720085219197,0.1900867603347613,0.4827299738136406,-0.8428643003898435,0.7219864542307635,-0.8463325991750908,0.0731084272744861,0.2267470395712225,0.4984282549107459,
168,0.5725988880876369,0.6258594230798822,0.02082980637924,0.0522326700829605,0.8930199917361887,-0.0692480067217102,-0.3396589039897135,-0.2261101217946791,-0.291012599221858,0.758248871238488,
169,-0.3524289291763007,0.5056727091066824,0.4848735919915938,-0.3054602643282949,-0.231625240410577,0.0423128591209909,0.5574211970699972,-0.5833560058955686,-0.0180523100369772,0.4525981726617556,
170,-0.4838136152605321,0.9754972357247929,-0.8702067860484425,-0.3435842396877585,0.7478094809095672,-0.3494400483511999,0.2752325752551297,-0.2403261007474378,0.8370695728651838,-0.1356116409549786,
171,-0.7445758324898724,0.1661930183731914,0.8552601121498229,-0.2069656704420455,0.5553431575888521,0.4388320469125737,-0.5875677139393305,-0.0262292037692566,-0.6188210314286609,0.8088873911930459,
172,0.6941883206703656,0.3523351257521119,-0.8563470750299871,0.3900886415136058,0.0369993780300224,0.568028817392251,-0.8688241250330996,0.5246461935248852,-0.2117422067810043,0.6578065370373358,
173,0.3065440354682993,-0.4068758067294951,0.8969410944792242,0.053615319472406,-0.2466506457607575,0.8345153967482917,-0.5638290499331466,0.1035414174634044,-0.7493576192450248,0.7731633148950097,
174,-0.6153105506872909,0.3088822928834518,-0.6884093822708814,0.0691825063585627,-0.0350851016210992,-0.163620805136373,-0.1510024888436162,0.8065650934397433,-0.0791384958432473,0.7901168164284884,
175,-0.443911762716265,-0.7384068973426436,0.3590150326648198,-0.2099915121423002,0.9780026249913304,-0.3534272859446205,-0.7212523495137304,0.702995841693637,-0.1151611518442492,0.0860799323723502,
176,-0.104143032106469,-0.1908849583608778,-0.9130985278843669,-0.3753015808514006,-0.6782991806154677,-0.3277191271178151,-0.7689965868895476,-0.761033462672992,-0.9222114193002616,-0.7180973577193684,
177,0.5284866732275688,0.9863404901384604,0.9370379362403228,-0.6226560370958294,-0.4434494565284641,0.867534104590131,-0.0219183238284093,0.1572598286314868,-0.0121124976160592,-0.8707888337316746,
178,0.5769880199642141,0.8878925676861518,0.4825917074363848,0.5909457699364966,0.7759120780926017,0.4995021840106384,-0.158615897509786,0.0724726611879038,-0.673915950468257,-0.7525670328719838,
179,-0.0054757215617758,0.8029676350279198,0.5618302916850897,-0.2886372210122605,-0.6184876371091315,0.8019229280986055,-0.1803043724331661,-0.5762206019007533,-0.805095349775081,-0.290174326574702,
180,0.8741292617955281,-0.8627015629857686,0.5057566883169964,-0.3112659044966197,0.0655464921850776,0.0234267495552804,0.2835521246818899,0.3847755178495797,0.2463237074834998,0.9500288275171564,
181,-0.0094275244603475,0.8433109015120834,0.2981173225631417,-0.1522233573205016,-0.8788831535399269,0.3210042270337645,0.1211034000767909,0.6901415572664378,0.6378087423266618,-0.1598611528941975,
182,-0.168231749428137,-0.0200367714412822,-0.176577908836902,0.8290850069746154,0.0742753872552419,-0.7879872411624401,0.5379468826429548,-0.1521815128603881,-0.9111992515622656,0.9504813094399884,
183,0.3266920160449786,-0.1085240432822187,0.436740659982471,0.6698025005215558,0.4685882580199885,0.3441996858418652,0.2884099906030957,-0.3274319348356727,-0.7495990551437652,0.0785338483304531,
184,0.0390731088407594,-0.272814708891215,0.4257149619762828,-0.1406075975366931,0.50456042264558,0.6031227864837851,-0.350351547185088,0.4891810477187852,-0.0678672004360445,-0.1509204071089714,
185,0.5065646068623231,0.5235387959277942,-0.6251393612786773,-0.9155020848340364,-0.8888826488554672,-0.8016591265745101,0.7434517309372877,0.5816809805938943,-0.0132300399566069,0.3672579732367209,
186,-0.2083421446013192,0.520929107355282,-0.7589968038587813,-0.0331462483971408,-0.3867615138038581,-0.9671021014016828,-0.8689868394165595,-0.7763798514905985,-0.5514188575592512,0.822161058173539,
187,0.5758500873414962,0.9735462254377428,0.668446174496635,-0.61824710793502,0.7855120877706847,-0.8092649491752582,0.5809912524573537,-0.5708213491151002,-0.3385010813378465,0.0470920982336833,
188,0.0982309311891547,0.4333425920522464,-0.5853439838796013,-0.4552078718387942,-0.4432645153400215,-0.7994367331621577,0.0245690387597203,0.0061782299609698,0.1340717985533113,-0.2619420177930827,
189,0.7214388950957691,0.4952414850146138,-0.4874768575063639,0.8819057732558979,-0.5966679171255233,0.1852359267718784,0.6037717549360448,0.8621460408931318,0.7722776029866638,0.1264311415640284,
190,0.6580854077668472,0.711981446631671,-0.2574813978856832,0.0209403408399866,-0.065486572104787,-0.859249758276807,0.7040782301034758,-0.3702669755706156,-0.53352673962116,0.1022724106259598,
191,-0.0225164467597358,-0.769275216605525,0.1838724586739841,-0.0141138560136366,-0.7381327105229424,-0.1215240999223181,-0.3618576467494701,-0.335054612127719,0.2470414447870152,0.3704154515818199,
192,0.966950987432076,0.2905048431754276,-0.2005233056032679,0.4357917589811482,0.9642502430024092,-0.4382246101823207,-0.2690522015048,-0.8026520047996551,0.2690770556573316,-0.4280399857628885,
193,0.8513395659102045,-0.0677130484176314,-0.1424357158937917,0.2158869618891896,-0.3922957996446845,0.1782958979406601,0.4456053685239183,-0.54877445612975,-0.3843956177435803,0.6984307779191239,
194,-0.248265770529075,-0.2983729911666888,0.7180373273700642,-0.689889368350397,0.4844636081419502,0.0085153587972532,-0.9572888336916778,0.1780857635759294,-0.2162281944332506,-0.7350949285626507,
195,0.6083907525115031,-0.9419261375627872,0.0391153435558679,0.3423435658950464,0.1338758157357944,-0.1598926172810815,0.1349414842600702,0.848647603444191,-0.26865320733283,-0.3072828413716238,
196,-0.9290494713326292,0.6694142283301241,0.5489149360931396,-0.1040458134140295,-0.9018781669876086,-0.9259245113259248,-0.6257281943284317,0.1372590631768133,0.1224674680409354,0.2706285276780675,
197,0.6249724854628718,-0.2014641038111398,-0.4517705351487452,-0.8245683575170749,-0.30281410259541,0.4581675345262972,0.0068699863330116,0.7166425715452709,-0.8233442031630305,0.3578747687146597,
198,0.7745684905248098,0.2012191286718467,-0.3005724883980848,-0.8301278979856559,0.2681810959809916,-0.9021490703099974,0.3658462344212807,-0.7607368963592291,0.0020851908978681,-0.541322519235071,
199,0.1479477327721168,0.2889046008260989,0.1414565447871818,0.5872297721472031,-0.7439378159860714,0.0039762964923678,0.5597656822852151,-0.532427641978524,0.6275437080542043,0.0222133973149167,
200,-0.0263185460243576,-0.1472212519080797,-0.120587991629958,0.2077966543478979,-0.2224986035649115,0.4345054885873238,-0.5748161609852873,-0.094588196184288,-0.6876463001129511,0.8768755649777704,
201,-0.8214873451368605,-0.484196996313096,-0.921408310696379,-0.2784190620958164,-0.5263363617333346,0.2203085879131459,0.8830248549514597,0.2914639379780439,0.8393240072540171,-0.2755425161468231,
202,-0.3782797361318614,0.1648550027741171,-0.5232322711999122,-0.7161752592181952,0.3805151861497304,-0.4403499460278606,0.0081279333932824,0.4744806840366213,0.0519446919391253,0.3535524563602339,
203,0.4557833333573893,-0.9443978463791782,-0.0057518258973348,0.862764452216016,0.4388210589195853,0.5406230931421891,0.0480014403544026,0.3076959107299934,0.8846849612083547,0.8531035415816604,
204,-0.2108022471968156,0.7330779325655923,-0.0206793826234124,0.0076261827291714,-0.6032755854543342,0.4925561107516858,0.6076875167692675,-0.034108976506927,0.8738663045899977,0.6957425482526132,
205,-0.9266998355808296,-0.5615715445522508,-0.183310324717546,0.4430865077569024,0.0847227316000729,0.7428529139613638,0.1106376348607696,0.133560881206002,-0.6590594645790633,0.9414684362799806,
206,-0.423786189550862,0.7394165340203307,0.273468236577989,0.2969822183201178,-0.7196437697336799,-0.2242741670260657,-0.258002407807312,-0.0693984403159988,0.0293287020165173,0.0259320928321464,
207,-0.3257296002326957,-0.9198201930149156,-0.4616476831308944,0.5158747928139329,0.085465550149071,0.4003882495091002,-0.1536743091239668,0.8282044486014843,0.7397763495527134,-0.4727894136431948,
208,0.0706300920372737,-0.4034084773214336,0.0143819549498596,-0.3712254908158291,0.1629501057899738,-0.2349242635147388,-0.4924050350038652,0.0348117146273576,-0.3869694365611337,0.4586499724418469,
209,-0.1453162599365829,-0.5674674259695067,0.1323620049635228,-0.8939601987461159,0.6477161680195505,-0.5789847295960917,-0.8275189183713314,0.278856710876421,-0.8035813932462419,-0.0146032917821347,
210,-0.981378167382948,-0.0117998087148987,0.5251558637875551,0.6539476514321405,-0.420981908721614,-0.7755192002072304,-0.6501730815328745,0.9290277837704356,-0.6015290584193107,-0.552994135872032,
211,-0.3646829244961613,0.4313780140811969,-0.1283836300050106,0.2597649860807405,-0.3398142275344681,0.2094826585018772,0.431793656275488,-0.6224736666700514,0.2282493276523276,0.139595593853488,
212,0.5992875620253537,0.5381071833929909,0.1798059621836212,0.8800393231549108,0.0707861692786284,-0.1966462075175135,0.3823785513470961,-0.3517452336349368,0.2523644114348766,-0.8286978775450865,
213,0.0357358607113007,0.8435830249591998,-0.6747957874145734,0.4494039228162898,0.3767762493104101,0.2658675409177149,-0.2912010083419893,-0.015755378672878,0.7193300250564922,-0.0508401881468474,
214,-0.1329483560494934,0.9698543892231192,0.3075629569652818,-0.7602728860934436,-0.2276043945178514,0.945956493689551,0.8743537070171508,-0.8167408407231598,0.6349557930297827,0.5218369836333878,
215,0.6052553552506652,0.5004700346194124,-0.4404352632519608,0.6857878759121288,-0.1127033200118077,-0.9718539400588124,-0.8870228769601072,0.6035922333362844,-0.7977204757744424,0.6324596997976581,
216,0.8714341185909398,-0.3872779922459993,0.4061684293587049,-0.4608679407493757,-0.2140270169727687,-0.626970301293186,-0.1342330900359554,-0.2925385194916106,-0.4557449967854582,-0.4119558644411247,
217,0.5707021648926593,-0.8544183806535983,0.4001280838093826,-0.3051252084818256,-0.4840570480309816,-0.4426468002754861,-0.3934352444709109,0.9677825624596614,0.9198948974025531,0.507090935205456,
218,0.4327548969284083,0.6424645693402578,0.3326004360730212,-0.3701008755189012,-0.6096267726039045,0.6228965577247905,0.634557932490367,0.7106446040512666,-0.6690480958127349,0.8014844689629705,
219,0.5001940077225213,0.7005746806573669,-0.9721591053755052,-0.6079963103672008,-0.0856303650047174,-0.400242948633389,-0.6452685152520852,0.8126850524695615,0.041949403281037,0.5545172547515937,
220,0.1633541187931293,0.0971882046529106,-0.2923346601021795,0.1997152701500286,0.9401859486701608,-0.530536836025133,0.8939399171732088,-0.1836250993682077,0.282918080916835,0.5137668454283559,
221,-0.7106477600000702,-0.554059751182617,-0.6079406488467353,0.0293054192150905,0.8401592887505513,0.8834527930899134,-0.1099589774655968,0.3212362297170377,-0.7922978909949786,0.3578242858912468,
222,-0.5480440199798049,-0.5245137052675248,0.2271811223044675,0.8088143033858379,0.0006823254721382,0.9227077790996274,0.4430795716905666,-0.0232230075915832,0.4225307522012771,-0.2526904350044427,
223,0.3271417821295197,-0.0164123600318049,-0.4461307028560796,0.0868211635529196,-0.5291168481156647,0.8223763475372372,-0.8189744263482308,-0.0263395738917059,0.6566979073199593,0.2385764491103679,
224,-0.5111156423841507,-0.6273018666682673,-0.9704268992469584,0.1000790410313463,-0.8472763631011768,-0.744753839823459,-0.8955866206163798,-0.4126047138352513,-0.6183823078611499,0.964114717828157,
225,0.75200070563278,-0.9882256929229288,-0.1702755877627209,-0.0962816705164862,-0.4022709476920308,-0.2196550131645663,0.4465998565777331,0.6698465053493556,-0.5769978880696469,-0.9826611640747386,
226,0.5195894117350195,-0.3099233173850327,0.5658905069923703,-0.2339174020122294,-0.2529979252561112,0.213845508558258,0.6246754661883376,-0.5736693391768195,-0.6971389682688947,0.7987041590941246,
227,-0.0262699783605256,0.1518597451809378,0.8604569530981909,-0.2131231659725981,-0.8985626194566265,0.5565159475304344,0.2412753575471158,0.1473290482874178,0.0509881687806044,-0.9139038998604124,
228,0.4388947940279619,0.71570255889453,-0.7223742921356946,-0.6555705772017775,-0.1462312546103219,-0.5396033150192789,0.4374071203148417,0.5885533041998148,0.9377864160500518,0.1499775153890681,
229,-0.639841353870521,0.1313651945822829,0.4030499192938159,0.0131413536828821,0.4627864853098427,0.7979817483005529,0.1137865702209999,-0.147036846582254,0.2691107968693598,0.8494631291750858,
230,-0.6006321521481606,0.9369422433161672,0.7336086553448014,-0.857969692870407,-0.0778336355381751,-0.6962086306245878,0.0229360459296821,0.2977750853200294,0.2956764360236115,0.3456124455411957,
231,0.1245316888865319,0.23054567538209,-0.9266906774214752,-0.8528269574678693,-0.773715111220773,0.594880839459448,0.9824692734547557,0.4730388001907306,-0.637494730493816,-0.5353571257123615,
232,-0.263204781583834,-0.2575022046089824,-0.0086538956130099,0.1242284560994397,0.2390567464352071,0.4927683130390625,0.1335364715965972,-0.6342880465600111,-0.199141437475765,-0.2264505833388007,
233,0.4391599549433558,-0.2529189407377422,0.4259710559851402,-0.6044917318859933,0.9167959408494916,-0.906887146447056,-0.5691680983849536,-0.9883359002356396,-0.7983737860053264,-0.6462289845612808,
234,0.5524508239737047,-0.5623886375804552,0.9368335601243568,-0.5363253719022785,-0.9224109532596942,-0.4292261474403749,0.1659272307274759,-0.872418091671118,0.9281891140933498,0.9759013944980736,
235,0.1517934011272994,-0.7512565457572112,-0.4692479079120022,0.1214190066968494,-0.1384712481353126,-0.7283730907566279,0.8873977020087793,-0.563200129390032,0.3756855495529827,-0.917927991959157,
236,-0.7669441667794132,-0.2294618092493084,-0.6565405719067207,0.1211450450651261,0.6591908816094194,0.1041447616368724,-0.0489587805355818,0.5009979259837163,-0.5378554618793623,-0.1435843016294352,
237,-0.953400934183092,-0.0896652133340075,-0.0203392044387155,0.20158763167694,0.868116245949156,0.6995192318619823,-0.1644392695160937,-0.6420494357176775,-0.9678828496221928,0.1897470975517616,
238,0.2265228409305379,-0.6242419267785085,-0.463130848710359,-0.8529397327685294,0.9635257320088806,-0.9888505746713796,0.2999083820504571,-0.3239522477839689,0.8717328792247157,0.1548592872001437,
239,0.5952266201931549,0.8193365668770998,0.7198774144632565,-0.4625744035046181,0.4500830928529458,-0.9868119855640336,0.0836261676415057,0.033708303859647,-0.8326783550290672,-0.0323168899850369,
240,-0.7186031186547688,0.4352252062574853,-0.0656441816377142,0.3620320430416543,-0.9618709510257916,-0.3105481258648424,-0.9104515643468408,-0.4737189723579315,0.2301111249486274,-0.3245876968210244,
241,-0.1223714562580948,-0.2538624665420981,-0.2326363512585739,0.3124359900422651,0.8380702455367541,0.1071793195807653,-0.6673800754958595,0.8382149707198177,-0.8151424758187424,-0.7109395564361887,
242,-0.0939287965892265,-0.4074763730295111,0.3668255903848298,0.7166309064793279,0.882996762352851,-0.9227759425275892,-0.8978643141796291,-0.3308679359666575,-0.1052771657729479,-0.6242231586698728,
243,-0.5589505143542417,-0.8201456980038073,-0.1625809852868093,-0.3993447632195434,0.5192345084258638,-0.0274344392004338,0.3805891151179079,-0.8471118922056382,-0.8412617110785041,-0.7375142277514779,
244,-0.8149815124772518,0.7350483297321779,0.060093945260329,-0.5209974810946687,0.05715406383235,0.1443584064984087,0.3654391468164288,0.4845219697361993,-0.2421460486750041,-0.8224990904454559,
245,-0.4439049289682811,-0.6084648135728494,-0.7559994298547594,-0.0865862364160319,-0.1917835048468186,-0.585123354020429,-0.9827789254033494,0.8165945803370289,-0.8397870617400401,-0.4197371528634237,
246,-0.8753513402658868,-0.6390812399200303,0.0091047689560438,-0.7067703270379738,-0.416902854141013,0.3279327232177589,-0.5598481845024444,-0.5246589569694718,0.9142765418291888,0.5298906110390993,
247,0.1975829891310641,-0.5329570314953131,0.8844351503137744,-0.8224778570858791,0.717831261252289,-0.5092138775352548,-0.28221498620614,-0.9342163477063824,-0.6130145895824357,-0.1905458116872139,
248,-0.4238988518475516,0.1377781282681449,0.8789075066939891,0.0923003884945381,-0.7529758948297836,0.7414390017446775,0.0565237957009756,-0.5622833914507105,-0.6353744856012817,0.9764998683437908,
249,0.6449611131703743,-0.134447175509724,-0.0031463316097287,0.2826053355471183,-0.4694021125931799,0.6807143790359029,0.6464291393831816,-0.8257499614688115,-0.2747784116314351,-0.3025931598937451,
250,-0.1684929680978697,0.6071476788834149,0.4719097325302874,-0.9782975986825444,-0.7029713641308449,-0.5934926279137172,-0.8127816911555614,-0.4743392335294135,-0.8499204244996875,-0.0952020876049901,
251,0.8401152718268023,0.1802740739076564,-0.7950837591695523,-0.4438678761047387,0.4196094009839661,0.6353597537093063,0.1228548082535641,0.637481042692241,-0.792503605926709,-0.470936632318001,
252,0.3311644987388804,0.019032299359587,0.4406424189031011,0.22997072069821,-0.5137618740535241,0.3691242950500411,-0.2415890321590009,0.7735903923559244,0.2876509535206728,0.3373586544000935,
253,0.4183078193749048,0.7440128892963631,-0.9807419252395826,0.4824181393823983,0.579063382213981,0.8425101943565316,-0.7756306237492014,-0.2296441909885455,-0.8715352653520833,-0.68658281901459,
254,0.689632825920427,0.9306788489111686,-0.8703789133090503,0.4179559983391401,-0.2297152787073891,-0.763740598065159,0.036043489279675,-0.4078053827311504,-0.8866147829047493,-0.7626242750351403,
255,-0.3997288137787746,-0.4810587152268593,0.3898647920821296,-0.0492683566472683,0.2012126287529116,-0.1533519908491347,0.0180136670835318,-0.1106308486948935,0.2003326242561922,0.3761509547307065,
256,-0.5605936411337378,0.5625988797218591,-0.0474496094214845,0.0388339819402512,0.9690610468811776,-0.0890694164571508,0.686759473771257,-0.793317336001522,-0.7270260007601039,0.6445092966461237,
257,0.8967129923469341,-0.0677992486078283,-0.4425868533595329,-0.2977309381065504,0.1109993811424432,-0.783617869483849,-0.332178780309787,-0.1557427549032757,0.7942962496198906,-0.4689189622257586,
258,-0.5043089551550677,0.0674403329681943,0.6848533730466657,-0.9504283719224468,-0.6175605153376913,-0.902925324549155,-0.6698542104035116,0.6216727653909531,-0.5582376608361576,-0.626365012687311,
259,0.1670776027200871,-0.6016549817423482,0.532523086145489,0.6582028945504725,0.5380973189069254,-0.7591124716853017,-0.34634764401876,-0.7453178411027547,0.5478838715400385,0.5230863167654123,
260,0.1998102452729147,-0.2842247922306331,-0.6072282787861656,-0.8883134206340503,0.229945289924131,0.2205320407251967,-0.7061501092316673,-0.4871919563148285,0.1496042631766683,0.042748876199679,
261,-0.5317222473015255,0.7221181922820135,-0.5472031850607184,-0.5553291967877136,0.1268617344069142,0.4182589482991967,0.7893003062405037,-0.043857108235506,0.5402670982177038,0.1470615878261081,
262,0.576812653631499,0.1268852013741574,-0.624971462453313,-0.4909227828090852,0.357470312064752,-0.3068656958940251,-0.217312183019555,-0.1647315899786824,0.0666709055447443,-0.7396006662945027,
263,-0.0039471926739094,0.0073508301133863,-0.1324802041530748,-0.0614118061407494,-0.4238028930764308,0.0671208601564241,0.0436926433618427,-0.6874356690370889,-0.1691202090541456,-0.5356015429311176,
264,-0.655952283237402,0.6581887684880747,0.5778098166380357,0.0643228178652643,-0.4115891830574216,0.6375516862018891,-0.9783877861181014,0.2278872240247866,0.2692440798956526,-0.0473127581168465,
265,0.6527659085141784,-0.6788003836231878,-0.8103765846972373,-0.555994871809767,-0.1343619182825103,0.7779524448590796,0.5779731135087964,-0.588394536761293,0.8891932028246845,0.3170464664569363,
266,-0.5620397137948506,0.7935113137233738,0.7021052453817078,0.6019255165657191,0.0162625069818915,-0.1214568081078421,-0.6276986864270269,0.0805492533382368,-0.9393512324826526,-0.6740827021367475,
267,0.1675708506896238,-0.5479594205299883,-0.0427758892383171,-0.3613697737774257,-0.4822084445790296,0.668536423357101,-0.1397115413110706,0.7109150836230131,0.6860614730225849,0.5470597848412901,
268,-0.7315634097632924,-0.9195642552032188,-0.4763157856012971,0.9599234021319656,0.4188731044529421,0.1632592727891193,0.4669783219257768,0.0697406228737227,0.591003068136082,0.26683766465517,
269,-0.7337010389638379,-0.8302797675658393,0.2253682473862288,-0.5198810392624306,-0.798290807895474,-0.8855115875366594,0.1290209333139544,-0.8643581950090566,-0.7955261543660564,-0.766770347900901,
270,-0.9513679526939848,0.9017981662725028,0.2136662981637989,-0.7867200618582608,0.065838105630533,-0.2880190005891794,0.485429522809685,-0.4666022822112814,-0.4118866155124673,-0.7870049466570599,
271,0.398112480201364,0.1377917249185876,0.2313153175353564,0.91362124160651,0.4983855239359047,-0.330564330360535,-0.1697571005121061,0.1792632998726853,0.258679403118931,-0.6960278185335471,
272,-0.3424517674265478,0.3566171034450791,-0.5240652471968359,0.6494680716144354,0.4485767907829019,0.611972391333383,-0.8531406951150471,0.3538198733911626,-0.9393474476113778,-0.07806462589095,
273,-0.135889145556054,-0.508976659792532,0.5735693572052614,0.599036555855363,-0.7033272372813151,0.6041707271765513,0.1042922952465004,0.9060244245570817,-0.5815614208667252,-0.923052236289512,
274,-0.1241843290066213,-0.4971311520456259,-0.385066900265958,0.3550628204438064,0.6453001372299307,-0.4263499387082948,0.2823427956403721,0.3111046763450631,0.3906685139438479,-0.4873592325561856,
275,0.9207073618678818,-0.2284875490505244,0.808923790438814,0.8907566632484507,-0.5745565258929415,0.9089187980282822,0.3182434743603706,-0.6978755432408295,0.4636669796598716,0.7000186998240914,
276,0.1322525336443822,0.9888966973801712,0.9315130504399152,0.0385408886768585,0.3375525948221931,0.2895602636608307,0.4279744542315027,0.8580803714086742,0.5228041231856839,-0.5112817536620394,
277,-0.3111228216153225,-0.5932763996292347,0.7722997227612114,0.3996511867606902,0.2207900625801553,-0.7942101781088514,-0.5216319874115973,-0.0929231413367591,-0.4072616027112572,0.1090196277795889,
278,-0.5110394799229157,-0.4700811137418221,-0.3014709090056796,-0.0627748862714738,0.0114745757240266,0.7621954532654616,0.2364375599777863,0.4488696681656534,-0.7039119621048744,0.5342545901149416,
279,0.4093793096321194,-0.3559971864495967,-0.962148663374638,-0.4334024006813425,-0.0957706250406705,-0.7236239436915056,-0.7174079939279221,0.5265295974485891,0.7028749316736715,0.5231681530363939,
280,-0.7210405907786905,0.7791712560239505,-0.6329484776179672,0.8440802253605946,-0.72664675162924,-0.2146248703826349,-0.2430860287890229,-0.4753966605543718,-0.6912125585969591,0.0375002018098482,
281,-0.3451548146152644,0.4538922949923734,-0.5414868262922361,-0.1244691047345583,-0.2658987127044379,-0.5294913996671595,-0.7230946779313511,0.2649686171758543,0.1329630277540772,0.8648050598920589,
282,0.164401259690935,-0.7312214356572299,-0.848589052237588,-0.7849975861738059,-0.1991646682988386,0.4280264163695551,-0.6900328428671085,-0.9825772993366174,0.9512146961429466,-0.5563649550642646,
283,-0.7269488675832037,0.2305805391154449,-0.3659233209725618,0.8060229117648177,0.8952163753804101,0.4306736471269456,-0.6460706341942013,0.2825224234000114,0.7453984450691082,-0.2766810564052375,
284,0.4250958071284454,-0.1920009783240488,-0.6029054379726926,-0.8286809057573575,0.7067494748228584,0.9153791138099524,-0.4010590104641217,0.2055083387470997,-0.39616539892943,-0.914557811147414,
285,-0.8384506746802414,0.5036235217933969,0.7016726867552989,-0.4289876507154174,0.676365061973625,0.9579528317423172,-0.1710821598575337,-0.7273576176350867,-0.6518842925112214,-0.2336889014065533,
286,-0.1988862600765173,0.0982181436063465,0.7430316557055967,-0.0085965794462645,-0.3122104694303743,0.4621452705392757,0.7312208246761271,-0.6477870463852713,0.7262526046105533,0.0234305841899722,
287,0.0636603801140638,-0.2507318924565693,0.4431351722903807,0.6428212959842254,-0.3794433295148537,0.3375009623864375,0.833296181294159,0.686302671667296,0.260050228781133,-0.7516229831449892,
288,-0.5138242507452282,0.141265895024478,0.1604508683170908,-0.2252610967965266,0.9081518686539956,0.1095694577114287,-0.2160268735047795,0.1330671502101972,-0.5545393008685284,0.0687403661914669,
289,0.5947142341799161,-0.4359909641268065,0.917129117622848,0.1141318299307581,-0.0209226968669415,-0.6543491578064421,0.6435882522497507,0.7871066703251424,0.6669294167715594,-0.9187337590718478,
290,-0.3536251257496662,-0.531085184900895,0.2326618067874546,0.9090980800329757,0.9222893377940145,0.6696768605313599,-0.1227507129618927,0.864467428338265,0.0786359232509108,0.386429702633106,
291,-0.5531671415138975,0.2102079592402645,-0.7675809585700806,-0.4735107263490821,-0.9164707743663308,0.2377457496381425,0.1261432413680983,0.3319713577802523,-0.422283720035183,-0.1659340054972242,
292,0.2496228892045318,0.712516255320478,0.1541320006511859,-0.4353472890033401,-0.6957553052061929,0.1201302083591762,-0.2776683886122619,0.5789271802161664,0.7821874844569989,0.9874599392042333,
293,-0.8036164651966656,0.503180618079877,0.9089476058624756,0.8345456475473694,-0.3027721158016301,0.1606705832118657,0.1402103617574441,0.4108548876723841,0.2908461998665572,-0.813896724009488,
294,0.76288391505824,-0.0628322744120118,0.385460986074158,0.6453681008407743,-0.521294262177077,-0.9667120529004656,0.6748834275062932,0.5842978893861057,-0.4175331474542402,-0.00409880281961,
295,0.8303990035013253,-0.1515608566019166,0.5815005795801622,-0.6789249412609741,-0.1205216968596785,0.4028866370234507,-0.0299452262898788,0.0876191907139074,0.6049471484803695,0.3986398141389757,
296,-0.6078670593419062,-0.3697027828635605,0.5850393123337505,-0.4397880610753945,0.6487134726075736,0.3054277563443406,-0.0359696078829954,-0.6229231000342568,-0.2972841509259672,0.415065819729822,
297,-0.020223138112814,-0.5189923048095515,-0.3246054402773126,-0.8850213498439818,-0.2835590643328342,0.0146754578096841,0.6340447238511469,-0.5094574811035808,-0.2358541496110781,0.0618189716323744,
298,-0.7215407241818856,0.4659677152082713,-0.4493783908210075,-0.1266402842215871,-0.6886208200421642,-0.960268387568284,0.0921488473318317,0.6434195739483346,0.6824362434442772,-0.4913328562536514,
299,0.44795400450874,-0.7163919903429582,-0.0283880408363225,0.0872265571412105,-0.8596804245800806,-0.4820980762194744,0.7973718220877193,-0.0737222121924734,-0.5703439323586679,0.2874816429389655,
300,0.6991980014555583,0.117455545670617,0.3870067988216628,-0.6828788519729332,-0.0253378129734224,0.3010007963811609,-0.1849090594115833,0.1217369057490718,-0.8884760882933281,-0.0050869962531697,
301,0.8194877727649417,0.1316831049104707,-0.7094254654669565,-0.7718217623197731,0.5443576819837772,0.6551066497341012,-0.3532545514443003,0.0747945459303585,-0.72145119739032,0.3374520383412531,
302,0.9006166613923388,-0.4001078889245703,0.805044751852158,-0.1597287174169859,-0.0914430479094817,0.8583848919744901,0.3895716769372266,-0.1338985250972431,-0.3766669026282587,0.5878819120817984,
303,0.5190387592960222,-0.6684966695251089,0.8583216269729401,-0.206715432798215,-0.0311408461045413,0.0318679614110066,-0.4170956755685426,0.9298349369170168,0.8343764566265957,0.0651672278030552,
304,0.4122203965074649,-0.2065174978667866,-0.6266908709248646,-0.0230591804602702,-0.2527592118004625,-0.2544430593983493,-0.6479691505294141,0.8259249627633081,0.3316633901908326,0.2592789175004071,
305,-0.9621990688102487,0.5594349960721248,-0.2710670910460442,-0.1380686012049914,0.9845939687197568,-0.2897399773061506,-0.9889136257151327,-0.579656380103849,-0.2620050983677988,0.2192435163891661,
306,0.3411295624831079,0.2956849591643065,0.4108078710695388,0.9501856812939168,-0.7423185579795785,0.4211804887216153,0.4718551172733816,0.6637088157135427,-0.948165676168828,0.279894679156174,
307,0.927588959342047,0.3928282420124442,0.8163630816574021,0.8997917282604813,-0.23810444237559,-0.5631405077928383,0.6448738817454396,-0.9326570838186146,-0.5583984362244516,0.610032347675644,
308,0.669470079617323,0.2492205603947603,0.3067863035416371,0.5677242247250984,0.1656807848079413,-0.4005454662483987,-0.0181172368533807,-0.590381403965139,0.4923630507659837,-0.0526049252233818,
309,0.4388221701165475,-0.829963813476271,-0.981577209692721,-0.7653364567611204,0.8961969261177463,-0.2837417979138823,0.1040890532611915,0.4646601684850659,0.8758979875552304,0.7684192308014135,
310,0.163885174577874,0.2342444313995038,0.281541504834192,-0.497297639344751,-0.1060299735590507,0.0992285013261682,-0.7883445825409631,0.8409433332081353,0.6528807255670048,-0.4969311714429534,
311,0.692674336476921,-0.8773918129882055,-0.4225790374888603,-0.0578846627444096,0.0359257411805054,-0.4379224618035893,-0.2814451228870138,0.7068257078403717,-0.0865323657403582,0.8548299655141203,
312,0.4933843332729808,-0.026716090740353,0.8833679676821229,0.2452425691294821,0.9272732420560844,0.3048465001008269,-0.2630416161288188,0.6269727016618836,0.6878702999862105,0.7438408398594163,
313,-0.6226423292765709,-0.7917238641304798,0.7796850920007705,0.0074556830863335,0.0690234514502323,-0.7662746081361803,0.6446168710018951,-0.9240449024686218,-0.0687655695093647,-0.8412684639682798,
314,0.6518210456952904,-0.38448880027068,-0.0898708053596279,0.1600936594293567,-0.3472406186000375,-0.8333214859121959,0.7058163388944407,0.4233006482657828,-0.0667367454637472,-0.2034878056067027,
315,-0.6404754960174419,-0.2878763960004455,0.4119063216271081,0.3960383936685314,-0.202525383242879,-0.3360255401304286,-0.9032635698487432,0.2594378997439934,-0.7753652519485577,-0.0445622722541199,
316,-0.6023006399753892,0.1012339650128524,0.9689258482808848,-0.9558387678219707,-0.678073532176673,0.8267998065994853,-0.1218492937218136,0.8270419648211318,-0.5953746110610629,0.7684690848998532,
317,0.1914823569329482,-0.1685992574255831,0.1012140126427141,0.1187239726097104,-0.3961943929040674,0.8358777273515765,0.3748058586262826,-0.530785001927109,0.4386327851918425,0.8749017986321646,
318,-0.8357580125646893,0.6420903043407717,-0.4405940194489182,-0.9827580907258296,-0.5749899320548273,-0.2460158283905628,-0.2496086104793419,-0.6407498173243789,-0.7931947158219925,0.9049122629892824,
319,-0.3112930843120147,0.9197439140930744,0.1170641985277451,-0.7828294298397914,-0.4604255652601944,-0.9356855478358724,0.3545074105126558,0.0314558403532698,-0.4749269926975525,0.8750368860010882,
320,-0.4635114045701782,-0.9739205899546098,-0.1675566386807239,0.3295221806995632,0.5149405941793774,0.641399960195483,0.9322049767691736,-0.2308936332688921,-0.9110022136430154,-0.4845719563020495,
321,-0.0094355083534901,0.775516490995142,-0.6584360035980621,-0.4146884209567705,0.2969789788974093,0.6144075124254977,0.3685753643197311,0.6149894431129126,-0.7142459929046818,0.2190405691190182,
322,0.2060074492519108,-0.5927608714877426,0.8592114865830802,-0.8259039254219646,0.7817980374309892,-0.5334922817153556,0.1461111441391192,0.198595329562019,-0.188644670270787,0.3193532773888241,
323,0.5687570082130358,0.0701319745854602,0.6187241654380062,0.0874330648044463,-0.6986864731055156,-0.439837841837043,0.145647455249019,-0.5533337393135218,0.7878770789981719,-0.8957930312106879,
324,-0.0257963006364321,0.2038335967969686,0.9333508646733946,0.4671178150465629,0.1764687085088061,0.6824943211588408,-0.2712996965716413,0.8136252879075527,0.1141556044636282,-0.3082708452042119,
325,0.3222224395115283,-0.2376532732488676,-0.1008753355228032,0.7372098703151384,0.60984183937858,0.1548937467442737,0.0321111594590162,0.1074364321563647,-0.0723782410941544,-0.439870312628456,
326,-0.4077359361657703,-0.947549766079281,-0.0859252061206483,-0.4498263286224274,-0.0079251461786149,-0.5840110128568881,0.3843391296106071,0.2745996939425565,-0.9550253232043162,0.951910966505594,
327,0.8615157518291965,0.0479847294789577,-0.7281992056349724,-0.6229947495682402,0.0927313076467686,0.795249350870858,0.4135559538064821,0.4336441931199077,0.9834783738463692,-0.0985169953611103,
328,0.5475421442751556,0.0634111531846441,0.9160142530302432,0.7205599863378158,-0.9387621008221678,0.2775809838011911,-0.7458434704145318,0.4907274983247545,-0.8275371105761672,-0.0128369076224826,
329,-0.1405369432904033,-0.8362685010284165,-0.2727677650115362,0.3451911887664451,-0.1393574605373866,-0.0648082441406417,0.3814458330308421,0.477220253898857,-0.6752411574791595,-0.5827213788108159,
330,-0.518973805388575,-0.2333215113537835,-0.3873193303559754,0.1065151035478615,-0.554187785505408,-0.2097024334017326,-0.3385198191981831,0.659333620740487,-0.4844112116483228,-0.4201608107988285,
331,-0.4028929904435726,-0.2960338674571477,0.6602605781592712,0.6956759386815992,0.6822096353335774,-0.1513158023497314,-0.4816437919995034,0.920439138016115,0.3267839600351305,0.0807248446728019,
332,0.0670628882300821,-0.3581331825343163,-0.3234909069106949,-0.7822471346082058,-0.4057897901539148,-0.0382208520300139,-0.7865692795257254,0.8279835133630484,0.5075381097021303,0.0872443244085039,
333,0.2039535193700414,0.38484629016414,0.0898271805649422,0.4401554240259497,0.766911495546593,0.4423243276726274,0.0147231978727491,-0.4065945264087109,-0.3738611671422115,-0.5091816068721441,
334,-0.3628940876136803,0.0797394850836679,0.0344573482872445,-0.734743277985725,0.7072143640406274,0.5490277334445721,0.8626376111451854,0.8349611308008105,0.3775632720768209,0.8882290219193052,
335,-0.4988088907378085,-0.8526437133805679,0.1092783100559553,0.7106832747907625,0.6791565552898016,-0.0017876731941115,-0.3440224333581683,-0.7351405988035795,0.0162852933346291,0.1851395316237858,
336,-0.9177785324259468,0.0425507015774697,-0.8991159952684203,-0.3084765954234802,0.153951303714521,-0.7616141689339676,0.2988499676652456,-0.825310056440391,0.9018151712566846,-0.0871365945736607,
337,-0.5233390329959489,0.1614838804393692,-0.9347606414247996,-0.7628336999288468,0.9479443425677184,-0.2376308886728841,0.2594770825240837,0.4299649591045276,-0.3177125018398554,-0.9193590761406736,
338,0.671301080181343,0.7438462915219981,-0.4972419747755713,0.2489200221436096,-0.1758058640430857,-0.1598109986904917,-0.4981517309982752,-0.8546781487078606,0.1807800977516191,-0.8743203156403481,
339,-0.4095433254127527,-0.9577054782234034,-0.1962429714341682,0.7350227710873285,0.0840154370372288,0.3539250586915394,-0.2393076003971423,-0.5583093691227345,-0.6899041960293665,-0.1795414937565037,
340,-0.7087746563404163,-0.8046134020896719,0.713191908911025,0.6028550909969446,-0.6109561131254913,-0.0311711185357034,0.7066844628454123,-0.9056417956445756,-0.5496381163709756,0.946078724309524,
341,0.2521475561464774,0.6074886516112148,-0.5015693329232319,-0.8499212149285025,0.8873093026480239,-0.8294082167793702,0.96034122732345,-0.768254181373634,-0.7896149532778779,0.3109843542350705,
342,-0.0520473644492245,0.3223772754667184,0.3849731875194502,0.5256741671078113,0.4084441748020346,-0.983121115331505,-0.4650630393498353,-0.3112676728976551,-0.768695838493966,-0.1630327823820566,
343,-0.1624743594477387,-0.6780550415775934,-0.0225048831555572,0.3288003705862077,0.8587074173085889,0.1333802803356372,0.8476655277424625,0.5362643079005891,0.7510515017650363,0.5565464029639129,
344,0.2463909096725249,0.7448358567178217,0.9824874630095184,0.6826947822792295,-0.525109304613152,-0.5241616437516601,-0.8069219209884073,-0.3402026424701544,0.875011765905523,-0.3892705155868967,
345,-0.8720045983944041,0.5317734771940652,-0.7007282896589563,0.4379914215021308,0.7866535702896325,0.8835515356452652,-0.4102609726536005,0.4464911151370689,0.8530166015078036,0.0286974583857591,
346,-0.6537398258946203,0.4925676194469377,-0.3612325490989611,0.5086183214904862,0.6764626453264129,0.5028317920439924,-0.2936882637262245,-0.9738489371335148,0.4301859202178617,-0.7576126322546866,
347,0.9504503920772808,-0.4645072618150198,0.1799013978593762,-0.8376888215322749,-0.244158855590273,-0.1407068768929483,0.73478180884727,-0.3719737676714186,0.7674934066834989,-0.3265390765898981,
348,0.9485919696589656,0.4751349234822128,-0.3807896957244078,-0.7790284617896752,-0.4631399761419359,-0.6550291619718038,-0.54893734949045,-0.6782274358600097,-0.4414733798388922,0.1875253121957287,
349,-0.551200931162924,-0.9577046658537476,0.05397475176964,-0.3798904788926213,0.9053371864844016,-0.488520089865623,0.1138774323104672,-0.4976334493581971,-0.6352723305076979,0.8651763919251745,
350,0.4177256372885198,-0.3281843485907717,0.6990241037428571,0.3325549577843742,-0.4179686915175247,-0.956411973133523,-0.4691040129213116,-0.9458438149150264,0.4206006344225765,-0.4913401967814081,
351,-0.8746507946171861,0.3371176992815925,-0.3373555680947607,0.1818466831528471,-0.2377753539946194,-0.1899206445341106,0.585557564278055,-0.2741889970624839,0.8902566452675706,-0.0894441288867129,
352,-0.7094157370104774,0.4832592790279864,-0.8968612213751528,-0.0469801128686635,-0.3083971470894376,0.92431633027731,0.6755860701441161,0.1663187463157218,-0.7116458318569229,0.248554199541422,
353,0.9521435780589612,0.1003109686646248,0.2880339491088526,-0.5511879902274699,0.3461647688146485,0.9474906321082188,0.6638242474899867,0.5714725021881806,-0.4366518281814887,-0.6179621816498264,
354,0.212984673346553,-0.8791366132709104,-0.9167310078988516,0.7123835496702449,-0.3409440460242406,0.245710019660253,0.1709230539279651,-0.951000102219988,-0.01424036952114,0.2892827285705193,
355,0.9262966875244614,-0.3700492646874387,0.0772529099066063,-0.8707743050843793,-0.7358632125406945,-0.185078783894806,0.0888790531462786,-0.4366243402482198,-0.0817804015475437,0.3217186685172502,
356,-0.9091761887836,-0.5620042594617201,0.9375592218933242,0.3980086970230345,0.9503470693404484,0.8712721168943325,-0.0765334147992762,-0.9010958200582936,0.7348692486599706,-0.8413142032762269,
357,0.0302033779817547,0.1645978859871653,0.7871640456123374,0.3957788077306849,0.9331282346470586,-0.0201334710033551,-0.9108483325469728,-0.8417609954956622,-0.6532954850165955,0.5635133675704551,
358,0.5755604205924498,0.5521740662856351,0.082019802172099,0.9832863695468947,0.3114343208257428,-0.1361993277607188,0.4782900221436739,0.1762569641292952,-0.9342321481856488,-0.5559711856025562,
359,-0.1503860429060655,-0.1373809471982137,0.4053671560601468,-0.108685043095932,-0.6348030343855002,0.3089321828701605,0.0607984871215452,0.2259719730154279,-0.942592681973471,0.1972029807650761,
360,0.2726160800654029,-0.4661783542219929,-0.6733155740262782,0.3239475723259857,-0.8157312712894722,0.2394528649449021,-0.0604201084269017,-0.0815621971727419,0.6452647092616046,0.9442857284004904,
361,-0.8399848983538547,-0.4737769919295148,0.5444515591147128,-0.9242541803322952,-0.6919001420785822,0.4200710769257416,0.6441453958886216,-0.3578427402408377,-0.0059928354261069,0.7223750128995463,
362,0.5943750699363126,-0.4700681748892086,-0.3640455718197395,-0.1412847864088658,-0.8728847730796762,0.7390883191270474,-0.079985179726451,0.054207049865278,-0.7729113379782979,-0.165068582119801,
363,-0.2145288155706186,0.8659131436542802,0.5487107961542603,-0.2677756043074402,-0.0219769881280141,0.7401596778444679,-0.792253834315612,0.5833981036888731,-0.2983176322907328,-0.2927755618946056,
364,-0.8083159226419183,-0.1014209668519896,-0.9727657890464624,0.4159760072582397,-0.92102662509336,-0.118634758815054,-0.1122948286435531,0.3900343068613403,-0.5356185589814257,-0.7662897714342222,
365,-0.8904587334585444,0.8303257027560162,0.4386483584569363,0.7806940126029689,0.697246014010511,-0.377984204825435,-0.8025272552430607,0.9028871526827962,0.0868761808800377,-0.1712845593352764,
366,0.4092220675217695,0.8408052266221329,0.4133863184856834,0.1877876208254998,0.8898180804640772,-0.6431643238791542,0.0147430659807994,0.2209623089624641,0.9338357269937534,0.09757817392565,
367,-0.3544170819816059,-0.3083325380652673,-0.0164079754140089,0.9822444311858558,-0.9482060038690104,-0.4543777067283649,-0.0695529794549645,-0.0751524525353523,0.2612343949261,-0.7105835501084226,
368,-0.3217968043326454,-0.3190528194530293,0.3807078830646502,-0.8024096166378062,-0.1899548707503746,0.0002307351266668,0.9148043532559884,0.5609445288543009,-0.5806024320051957,-0.5516653714830162,
369,-0.1569646895030328,-0.0958871419047506,0.4145962486944479,0.2562091468673884,-0.2680270605069479,-0.1909908767683453,0.8631223860082613,-0.1782693245055311,-0.750522288811931,0.7523684975963032,
370,0.4204386125226158,-0.3891741722664759,0.4400997254064323,0.9469595729392284,0.9741481007365882,0.5944214850144032,-0.4832934658985038,0.1112749298080229,0.2896891217221966,0.1337458704088274,
371,-0.5942921437254025,-0.5613566918862292,-0.1159927005593597,-0.9111966341188522,0.7828758749899447,2.826754069207293e-05,0.7671358129060539,0.5054909199959496,0.7172152041285602,0.7430232939881738,
372,-0.790148291160456,-0.6867560902624226,-0.1658019183673241,0.6672692712116786,-0.942986851419321,-0.9330920531743192,0.3766526569613357,0.5547434106842817,-0.8559513379885808,-0.6406866919306351,
373,0.8548808950596509,0.0029800623284497,-0.2690897407713476,-0.4175706524430599,0.318513073560335,-0.1840595878532425,0.0032560896097242,-0.0338035769202706,-0.2864979400062454,0.5962033855330398,
374,-0.2641844477051669,0.2176037128903958,0.8343215490475109,0.4288621046751819,-0.3016793203168887,-0.371141202072711,0.0604038038305791,-0.2060794810036804,-0.7177156628647303,-0.0988050195944887,
375,0.3471552295148294,0.2331202745702985,-0.7469107128625407,-0.4784055356971524,-0.9295768585402022,-0.0313590526561833,-0.0167682267946778,-0.2797688939350118,0.5317883363699945,0.740706258843977,
376,-0.6059800373578532,0.4774269263816126,-0.6045230373441102,0.345240649258717,0.6589955327213808,-0.5277626321470767,0.9321587531291272,0.6397693531453392,-0.9070116832321304,-0.4396786755584487,
377,0.9379457877180708,-0.1630863166687466,0.9082516625289272,-0.2554712881996157,0.0234678100915091,0.4314295897478117,0.1152653510038974,0.5093748979533361,-0.5135551259544029,-0.0077658468279638,
378,0.8213884658907169,-0.7136551625519845,0.0787632664172575,0.2118357014248475,-0.0409493935387672,0.0844901995491944,-0.4423526180204055,-0.9777294793378049,0.8839202375331818,0.9411374095713884,
379,0.0791850303105909,-0.1524639205065688,-0.6415841906747755,-0.4194018090317936,-0.513232263671796,0.2263207251482761,-0.2090186233812316,-0.2931656764417951,0.7236158949057563,-0.8871639923585992,
380,0.6991632899703804,0.1587586315342823,-0.7832412683200718,0.3544421744968691,-0.4974119023002512,-0.3145140850048419,-0.6038579369478378,-0.4908425951625131,-0.2460331077188023,-0.5167240211169808,
381,-0.1159846232539157,0.2044523191041432,-0.452298600934423,-0.9148427481433906,-0.0325465082663636,-0.0144213346232641,0.478430896069429,0.1265657105501441,-0.1364091378141365,-0.529601738969939,
382,0.9629766851332688,0.6792298300905588,0.3860687947333732,0.2742250958135521,-0.0975928229158633,-0.1362611472486883,-0.2363143344403594,-0.2302795412048071,0.4974464867315709,-0.4326435504287315,
383,0.5244249439025293,0.5260215496379113,-0.9889854565254016,0.1343614610668486,-0.0138322377288798,0.803371406189153,-0.7920542149467344,0.0355701605094034,-0.9016471858005016,0.6743436400962095,
384,0.0337404944227415,0.6638409200162125,0.0675138833265303,0.0972305313993384,-0.072502203887979,-0.5083046829020382,-0.6064218902012732,-0.334912099697502,0.808125348568008,0.0291491419535738,
385,-0.949975110238067,0.5999450178548058,-0.4264038670096454,-0.0695465284668033,-0.9421497904539234,-0.3067996305130269,-0.5228145498635748,-0.206241949223636,0.3671833527413224,0.846119072001724,
386,-0.9713226385157996,-0.8721869376863545,-0.9062596673388952,0.1842889999345949,-0.0211645235934528,-0.6585224246539931,0.982803270806676,0.7212847750173448,-0.4407087526475409,0.924115507923295,
387,-0.0414859501995694,0.4884464825665742,0.3305547326861597,0.4761660737385056,-0.4931211205049779,0.7606772026666742,0.4495614258659748,-0.7256736125151619,-0.6028815284701825,0.1551604093517407,
388,-0.5879701174159164,-0.0927266578762812,0.2489887799812769,-0.1121352874064918,-0.0412063179334886,0.1688242780583899,-0.0879363701201932,0.7453084012920839,-0.0134712437479652,-0.4398675688410002,
389,-0.8544113177077941,-0.0255433351936149,0.0795058404379704,-0.5278017975131407,-0.583937473521434,-0.9153639281169704,0.8183264912072412,0.6899018872834011,-0.0236359146550951,-0.0543601100409002,
390,0.2304483437407545,0.3079543751111602,-0.7877171989837799,0.2377706464066948,-0.2939595593004465,-0.5733745184737253,-0.460186087656783,-0.9188368434215102,-0.4871894540659613,0.7388532084225536,
391,-0.3460183630563198,0.9036087629844912,0.6425312195128288,-0.7586487033572586,-0.5629905152976884,0.3878361490956141,-0.2621492313928121,-0.1851442169213935,-0.8831080733735628,-0.9841916156538696,
392,-0.9350937776796076,-0.820846607352758,0.1485732899113523,-0.8577296920114044,-0.9535348879143978,-0.6288115665200115,-0.352634718466155,0.5021491069492057,-0.4960672365956217,0.4670616176827475,
393,-0.8218073300575506,0.5445641595522916,-0.0807735552743028,0.0761629597451647,0.19054939602379,0.661978467229827,0.4991856319089898,-0.1441559688661033,-0.7914638219682175,-0.3360869185643039,
394,0.8786461589090262,0.0856636586444492,0.5425491322407843,0.0643467204780399,0.8056954028158023,-0.8516385744422537,-0.0541268100611179,-0.3353177402538532,-0.0186416082225472,0.3712339174910937,
395,0.1776678351733245,0.399869451105914,0.7254020387650313,0.0266456332020557,-0.912753639266786,0.4211160220690533,-0.2827861790141983,-0.3046730596968432,-0.7242881668151787,-0.8097937100793928,
396,0.9487262889366604,0.0920351397511929,0.5754262749700696,-0.9685760888397028,0.4978869021671162,-0.2307210304009485,0.7868023177471912,-0.2823719009993569,-0.4837513105629278,-0.6552767413406351,
397,-0.5655377511641113,-0.0629089166352518,0.7905344805865073,0.1824420495772503,0.3560627094473718,-0.0248099450858035,0.943620945118384,-0.097795362131301,0.8789583925383038,0.3442979397351098,
398,0.3480550199849099,0.0388230671991693,0.4119870834241212,-0.2594339847380492,0.8138046103596257,-0.0234522685147945,-0.7751025558195744,0.3108611451780068,-0.1289423735813366,0.0584002342839253,
399,0.108466093098158,0.8905436283606423,-0.8061430955132952,0.371508927038648,0.1115546338390276,0.66326705632778,-0.8483822617648407,-0.2287172332965696,0.6497723489110476,-0.126443993389329,
400,-0.0452990899971801,-0.851537599570503,0.1941110354083204,0.0842469326120194,0.5739057216473671,-0.4612547640780986,-0.0932156483965364,0.4174272192813182,-0.8087882297871323,-0.983187871433276,
401,-0.8730132618266855,0.4217906510871483,-0.1174626071478788,-0.3653836906756517,0.3240797810488205,-0.8835820524352146,-0.8531402578708949,0.4953119932666565,0.7631899054828339,-0.7719282534392313,
402,-0.344790666695988,0.9822306589558254,0.2672959241683612,0.393653942518235,0.9812197631304772,-0.9533545494241676,0.6282251210824399,-0.1988264811100291,0.9687860781604952,-0.9246431711993728,
403,-0.9595510319394296,-0.1672472736995446,0.1374093908958455,-0.0443255340520133,-0.1817697061924827,0.5367555967148006,0.6929296307869164,0.0394842329701941,0.0258750133459355,-0.5373545445213663,
404,0.9781683003322664,0.5470073785189673,-0.4910900505632217,0.1935109509204609,0.7708751186201166,0.8669534270567962,-0.1391986148640255,-0.6635811860766726,-0.832622705278873,0.4369031882165346,
405,0.7368914795260595,0.9499261135661166,-0.3149630438484807,0.1941386924439618,0.5512884267608147,-0.4006842050324215,0.3499633909784356,0.6121178746127729,0.7555204680495131,-0.5238338966597456,
406,0.5159156519995061,-0.7185039569688976,0.1428616248694385,-0.0233299656607187,-0.5549977999753797,0.4081872940313156,0.5027009977109729,-0.0022446175578964,0.8071557928831505,0.0096852057715891,
407,0.8583949745964325,0.2867814111820888,-0.5472034183243208,-0.2194662924302634,0.3872124532794427,-0.8305351456419046,0.6103242056881157,0.2024878818229007,0.3533485523154498,-0.857440349160292,
408,0.8355983886781926,-0.3836069271633203,-0.5549774844334365,-0.8763427934275964,-0.7403916172119782,0.3918020900339727,-0.7936355353208373,0.0973464639718519,-0.3364108154723926,-0.7735816086366888,
409,0.2751107556824013,-0.5761249109779215,0.2750404644482029,-0.4000406923165385,-0.6280102238321054,-0.5346526993138909,-0.2468539722948429,-0.1519776105222359,0.8750924635098472,-0.2593277125627834,
410,-0.7502737368215826,0.3858053215006043,0.0298301430788994,-0.2357955452401541,0.0774578789827018,-0.3514911092656971,-0.708438857073104,-0.6457474072864391,0.23815613524508,-0.2932853922089374,
411,-0.1945153813148639,-0.0910028039102762,-0.7617638636334336,0.4442022593767925,0.1600142549553975,-0.06397539878751,0.586633645537723,-0.7264352802117489,0.6019115464724325,0.9661961352591169,
412,0.3564333462365503,0.5564105109578339,-0.3049640890232117,-0.4879099125106249,0.0714318270894898,-0.7667582797640886,0.9389943830824844,0.0696907875131367,0.4509284122248018,0.3721758523844098,
413,0.8109850842887771,-0.8883733604997482,0.7917617349724415,0.2728948690180721,0.1406773016206923,-0.8062202148432057,-0.6803438738521738,0.5998353196730837,-0.5944051308209194,-0.3728428307610414,
414,0.5737016084616715,0.3077234089245682,0.0288434755902877,-0.9047268345134468,0.9385594030619068,-0.9742089375837064,-0.347350857180056,-0.3480761468473297,-0.1712090816139683,-0.4883055412282813,
415,-0.0190653002522587,-0.6910737227806443,0.011562787903659,-0.8250681388316543,-0.2991099813781891,-0.6447088209256987,-0.7267853237700774,0.7267399465860165,0.0958229799641561,0.6294124672138144,
416,-0.957106017113186,-0.7241899048503746,0.3274518431580127,-0.6712956000322483,-0.5622433171991115,0.9543717723866318,0.0061695434331398,0.2004910581946777,0.6097124392965532,-0.0952552275517372,
417,0.2632753369676974,0.9821230140835486,0.7490576980667183,0.9450837098675602,-0.3274604889660707,0.1097890345323369,0.5182534259973406,0.3170072361168574,0.1149526776820302,-0.4905562205152569,
418,0.8952502224866992,-0.2829150835716097,-0.006771687892782,-0.4785382278876801,0.9301807881580196,-0.1335154162291597,0.3835063419813669,-0.3916145587356445,0.267064060820166,0.7217800111660819,
419,-0.4668600782381852,0.5782157523856937,-0.6500860802606063,-0.8020480289047885,-0.8009360053278112,0.6704627193288963,-0.1798556207294194,-0.9165016596348454,0.7016529415394173,0.8806796890202797,
420,0.0715747263381416,0.3879618268283544,0.8577681938818627,-0.863558581907224,-0.7617591292933735,0.034027219325168,0.6209636224469348,-0.7404029327845071,-0.8124484521296282,-0.5984813729728038,
421,0.5346611938878574,0.0157077626067418,-0.9746826128059412,0.5476008148016844,-0.7147737751339784,0.9457693521667832,0.0208396629158313,0.4217715339524139,0.0035077582153771,-0.8676335398260256,
422,0.2962418591250308,0.0681250281071599,-0.1911728050987886,-0.7108839579687053,-0.0137765575327954,-0.2850764303751411,-0.3056630065313129,-0.3941393212722218,0.695758405800146,-0.0588210463686287,
423,-0.1119281335958568,0.9063296282586012,-0.3354071547681395,0.2975326568502876,-0.3080117676759825,-0.5261911701127981,-0.2816198832489879,0.6850572773697892,-0.2166800053665972,0.3445453288307869,
424,-0.6937443178576645,0.0865668731936413,-0.394184801682522,-0.6961771899710711,0.4725619157041669,0.3197931636409903,-0.5897900620654364,0.9319757396604104,-0.2209152626827876,-0.6132455024519832,
425,-0.4365478790587276,0.8744432033648017,-0.7305900226232899,0.6634365474310484,0.9153693636256856,0.6874283268231032,-0.6527670122359572,0.1456502085278272,0.4587019549215698,0.1838807583824999,
426,0.6396283343154676,-0.6076931529608549,-0.1034253191423084,-0.5750539489688988,0.4131901541947342,0.2644920189334401,0.6451001733238919,-0.217236123466875,-0.5310569691828565,0.6289570310630326,
427,0.2183520810924721,0.3173379844852897,-0.4586291376485291,0.9401626178624852,-0.6744687306792867,-0.179094601854114,-0.9311765467249126,0.0209401991003117,-0.7239907028404623,0.2162059800668672,
428,0.5565267871885597,0.2173176709917175,0.9258768922982769,-0.4418441194065354,-0.0454636827764001,0.1824320633332201,0.6329944138031245,-0.1053677055468438,0.7921067056355011,-0.865462436365445,
429,-0.1880422105224458,0.185817286364315,0.8802271009063836,-0.6463090451582612,0.8455985155033323,0.6719203210208571,-0.0200927928886808,0.7738860211801935,-0.1094853856041333,-0.5788867930285452,
430,-0.2940339778354894,0.8849566018056982,-0.4597359866936116,-0.2667672486995087,0.7684526322009859,0.5057175381175931,0.6173973477553665,-0.1127319088184818,-0.5744408054208128,-0.9160462886746084,
431,-0.8692025104756134,-0.2380299080565289,0.7397143382547267,-0.9588172865027546,0.1400306678689438,-0.3493657610992886,-0.0852532255023605,0.8221645708409979,-0.4244234613473034,-0.7817486171505865,
432,0.5172933305713461,-0.3561151901659652,-0.9036944256895316,-0.6869576153409893,0.1386947916168688,0.4438152352353268,-0.5235859096936488,0.5071250435746602,0.9317783102997304,-0.6409338792028572,
433,-0.6682171555710391,0.821372512590415,-0.584509258014909,0.5995992190347321,-0.6238618533049316,-0.5615733557284417,-0.6584762191902886,0.4540332077975824,-0.3073697903006249,0.8265165549940581,
434,-0.4271178252676051,0.1556049815723312,-0.8079499187264956,-0.2397507954432015,-0.7532632539724093,0.3647541515530466,-0.8375403863353986,-0.8630101655116644,0.2570959622848698,0.0112958609147881,
435,-0.040910410278428,0.1539752501041782,0.7789317410847132,0.0194311171329704,-0.5296478397373467,-0.5696554155818526,-0.9112141617643252,-0.0240200200978056,-0.7497472753013952,0.2263044172220412,
436,0.8962136475608926,-0.5451012968995417,-0.6129318412208673,-0.6765801314344658,0.6719004830168094,0.9113020914470318,-0.5825191960952829,-0.185318294710079,-0.4501466039655585,-0.92819857849096,
437,0.7198069504666986,0.7511665488068355,-0.1246241494698126,-0.0244467166972979,-0.3648951825423508,-0.3965760756341084,0.1624130112443806,-0.6231815242431946,-0.910415818980738,0.8338852281562124,
438,0.3232957028844923,-0.1597586557264168,0.2372912733117196,-0.1283013839636715,0.2606125328245434,-0.3228060839338532,-0.2189407182917542,-0.2719473131362249,-0.9307852467340654,0.2438593900723866,
439,-0.1848556665673987,-0.2536105847218496,0.6428269581492454,-0.7380326804413033,0.8676104731318883,-0.1371815851971269,0.1217963587993642,0.8847722740263915,0.5516777805165993,-0.1263807193073417,
440,-0.0868591793725204,0.6445703089102108,-0.8103981341187525,0.243651981062076,-0.3327140792099223,0.6167475026863416,0.5959117647708361,0.2485955200304883,-0.2237838892254893,0.6259634754812673,
441,0.6556907425027945,0.0673414665347296,0.7234751141629328,0.0890466866664783,-0.905865491478782,-0.7253784204244054,0.7139847619546997,-0.7106979122945942,0.0671771781219345,0.3291274660558267,
442,0.5015050508085184,0.1453626583487568,-0.1684367389005823,0.0021953096271393,-0.8033291910776417,0.7976741679321322,-0.0207830463973369,0.0243155361609614,-0.8362521807116882,0.8148649354564965,
443,0.3865710869490029,-0.5214008852953279,0.7809519081059639,0.6983310524942627,-0.929780065688881,-0.2856999254161056,0.960348510763502,-0.7321302135226098,-0.0444521810219877,-0.1334474795105159,
444,0.0675207691269983,-0.1470274472027583,-0.2384040729335331,-0.3247743945702079,-0.3321949244857477,0.7670580927035866,-0.4478499513530536,-0.4770584149180781,-0.480426347691706,0.4269832823173658,
445,0.6246184893078184,-0.340963349272223,-0.1467669930990663,-0.9052029846328472,-0.968239049089914,0.2104557827741116,-0.4876867044011336,0.3074382367883281,-0.2450738168602553,-0.1386998664633649,
446,0.2401281749226165,0.5440387166130569,0.1764014633980282,-0.025503677897556,-0.8763019288984047,-0.4467302052640892,-0.189960986804326,-0.9248221810020502,0.9131621572250324,0.9252564903992926,
447,-0.8094778379784155,0.0870519329349792,-0.7365152781313654,0.7481422057697573,-0.1663051227972644,0.4070762204590039,-0.6888739279013745,0.7316151423674211,0.9078748797093016,0.3777466308075872,
448,0.2596726369109727,-0.3409101650516236,0.3206474414303566,-0.8359826309730957,0.339355853197598,-0.537444798054735,0.937626407556923,-0.5904370561250267,-0.3719121305920353,0.288774545281401,
449,-0.6186224603762108,0.1069172569557317,-0.6701926507316127,0.1134884547178267,-0.5670146400034373,-0.291926746416015,-0.8594132274096139,-0.9034617187977786,0.0091676765958329,-0.3196018312999004,
450,-0.4141764350513941,-0.20681887463427,0.5157703289732458,-0.5972069299237996,-0.8604415679865217,-0.2108163260415644,-0.9622631255014646,0.9256619163614196,-0.4871468077979117,-0.2038662154764169,
451,0.3127653512372055,-0.6396901608138967,0.8430517501996135,0.7491421425205784,0.0937835403298981,0.3585387709917076,0.735541819564379,-0.6161530748954983,0.6944881513145091,-0.4882706324874072,
452,-0.3013758333455759,0.7556603587489326,-0.2200902191503837,-0.4263340799229318,0.072788683311477,0.3280574336367621,0.9098210872225534,0.4063556861257889,0.7712170439747106,0.6218878514628365,
453,-0.7416916394006072,-0.6746400247398376,0.1178192714986818,0.5096870593089096,-0.912376324926076,-0.6151738938512807,-0.1252352374077205,0.8041273016288333,0.1196837811424658,0.3132441561296879,
454,-0.5898001205672918,0.9623351477563428,0.6513638716356196,0.2610228901004552,0.1691664656536158,-0.636961626942103,-0.6367944996345767,-0.9879552720266288,0.3168660206250149,0.7643837621312286,
455,-0.3228006376847301,0.749154778179578,0.221269173004142,-0.7138723372174813,0.8548515477292444,0.9777306596604008,0.5919049850646798,0.6596172789844112,-0.6186569759627648,-0.0331384457318739,
456,-0.8155420376994349,-0.1346154848927671,-0.2422404197065271,0.843112620466127,-0.5166796374719693,0.9776280942473844,0.6594308864862002,-0.2180761337973421,0.0327498820461664,0.7685817070554835,
457,-0.1177395252860215,-0.5161710790938423,-0.4918871785633171,0.4557045403992545,0.2712186930898785,0.356968848617532,0.1242974898481643,0.7493414703988996,-0.5380307915203079,0.633155257777638,
458,-0.7183186478155208,-0.8667303714812166,-0.0171656311568394,0.2454500808435675,0.5032573244539971,0.0497413267921516,-0.3406585635255978,0.7417576657677094,0.579619455300088,-0.0499094274626613,
459,0.5931126082537934,0.8627656120628981,0.9551250899541992,-0.236360523484764,0.8100700309558722,0.7041917300838492,-0.2792937092396023,0.7701124092647509,-0.1372979677235279,-0.4296150701247117,
460,-0.1321999675969531,-0.2085441112064864,0.1697909955701926,0.7739055418057663,0.1152200214739698,0.3373615047498517,-0.3734465379633476,0.0798689607943115,0.7587819013918553,-0.0968971061694768,
461,0.874957571462079,0.7208926767724391,-0.245565705526598,-0.6846931302635825,0.8960059184745044,-0.9415414972455556,-0.9549241215539084,-0.0148504144929733,-0.7909094007158892,-0.9679068462225504,
462,-0.7023868444788377,-0.3470011966093377,-0.7545834402136318,-0.9682455567384248,-0.3253550272229599,0.7633618538922549,0.8929135912657944,-0.3140376533076132,0.741806525170206,-0.4065287170248434,
463,0.1791565587747292,-0.5081736811907699,0.5183207125281961,-0.7051898093336169,-0.8749433694493092,-0.8246702915648914,-0.3118530747925464,-0.2909692564335421,-0.2563658564982534,-0.8767782474224106,
464,-0.0530326972802576,0.896390032488974,-0.6858195571578565,0.1338354627060531,-0.8722556114091475,0.2026329733825014,-0.1882297863475441,-0.4716923468379788,-0.3276967563859017,-0.3614661991247405,
465,-0.9603238244941448,-0.7571486590977097,0.3027116661409161,0.3660552151671579,0.6151882198770271,-0.1891609311702139,0.0881981060523739,0.4802395614811585,-0.2068804797220665,-0.6206306630402508,
466,-0.6008017490236177,-0.930851844669748,-0.464710166058338,-0.3228908856780984,0.9774421732124856,-0.2925426750669555,-0.6478892632118703,-0.0947775806981277,-0.3463849544522402,-0.7838461938905524,
467,-0.3223209461157451,-0.8398899428084581,-0.4864360866672349,-0.6511891696816592,0.0051226202874365,-0.5991865154674851,-0.3969638255287684,-0.4592188300860409,-0.0351349862957918,0.0390223740892132,
468,0.95975057886641,-0.8168918509304262,-0.1351620848390869,0.2618122598348842,0.8100011605437694,0.9312618163043136,0.6965609909402255,-0.600049039045186,-0.8358446691357744,-0.7670359871354767,
469,0.6131617640540903,0.1524031563359031,-0.7760935165506535,-0.224888191511993,-0.0425740077196742,-0.0592586761111751,-0.1313858707141234,-0.5066740163955221,-0.8401788620856836,-0.7231377986563097,
470,-0.4479988617375623,-0.0748527719177175,-0.3763224526489367,0.8405500973468378,0.6071343167235619,0.5669842429357201,0.4316967134655911,0.008905868456415,-0.3568394938237049,0.1395608003198591,
471,-0.0802277006899728,-0.9535491945578258,-0.7945013139630477,-0.1174136073924194,0.5432992587439875,-0.1735210830129452,-0.4729115587872587,-0.6738133212281638,0.8746260905347403,-0.1058303414382131,
472,-0.9741591578833104,0.1126820049948418,0.3529960807375001,-0.509641330050779,0.3863209839716939,0.0377874506544204,-0.9362046056769904,-0.0332621067876471,-0.4868074606009533,-0.8530894570638756,
473,-0.010421379005858,0.1871141558764697,0.5284420647244339,-0.288536646630003,-0.6792898229590614,-0.4101959548924737,-0.4470365055200379,0.0360179642767093,-0.5711464559382126,0.4195373690378681,
474,0.5776733125800986,-0.7004009171679098,0.7855687206516324,0.3685763658981706,-0.6425696017553967,0.9630868702447052,-0.3337998495690607,-0.682602433252553,-0.9358914088750896,-0.1994532193791313,
475,-0.308002974805688,0.5444926661689464,0.457179603712796,0.5122152812520195,-0.466830234721318,-0.3536420526293555,0.3092511516155574,0.712564526185701,0.833810317409992,0.0140224902370034,
476,-0.3429949796488046,-0.4891712172321576,-0.3162924973285458,-0.76457070276846,-0.6661854494357515,0.0734336958376224,0.6338748394419154,0.9413600495501906,-0.1339899282124678,0.5707108607351523,
477,-0.5015671244856383,0.3039494854676388,0.8452574799871684,-0.3127860533249404,-0.976873144862504,0.7640120044076555,-0.4955379075725604,-0.8590302137982968,0.4822013726651806,-0.2438597661048744,
478,0.7137446675158878,-0.0929123235131248,-0.9747207135416798,-0.2285228314300503,0.6819768418576262,0.923055598385208,0.6447701726389274,-0.3731391994839601,-0.4430909981909452,-0.827455694130159,
479,-0.798285559385555,0.2096712790660806,0.684425613707647,0.9164294827712258,-0.2218503419388365,0.5301206072189786,0.7365050359952912,0.1673330220821651,-0.64348091542266,0.3489259869514585,
480,0.8476526762406431,-0.1860896287615249,-0.3339471126530767,0.1237032681446179,0.7394202557234102,-0.6988653212638591,0.2687371108142742,0.7820589073099289,0.4057172096463717,0.8416731153517976,
481,0.1931113295208577,-0.6423526642865084,-0.6277065730142555,0.6214956465649417,-0.9242095851367512,0.6203866049794253,-0.9320965238700226,-0.5677614015907835,0.4914001281569593,0.4957201762622192,
482,0.8625330014449977,-0.5606870823570647,-0.126884459626331,-0.5033785315482064,-0.1741183101449054,0.2658287195030908,0.3938893709145141,0.3269676175432503,-0.5418316087470398,-0.2359342218623022,
483,0.1629727582633948,0.8277762248337712,-0.5025588831301407,-0.8409551223634526,-0.2758309329862524,-0.1857993429573458,-0.3654862074667329,0.1565321684838987,-0.3865185026909586,0.8177374424022976,
484,0.9744405335983576,-0.0164108966354092,0.6158442839169116,0.7935003959639064,0.93270043564283,-0.0657668717055879,0.2394547056205769,0.3550574396615609,0.5906813148742398,0.5398510236819385,
485,-0.3963611342819364,0.4849263692076859,0.0116846821664022,0.8146348487574286,-0.8744889827325057,-0.2954480824395289,0.1707755077129649,-0.4148205288814465,-0.4926480289099943,-0.812661216483156,
486,0.1631917956383983,-0.2426659644847263,0.2829792352737179,-0.019273007737364,-0.5005376626394618,-0.5798387876609237,0.0320690004891381,0.03815199172788,0.1103773527558626,-0.6058364366870801,
487,0.4329550425235586,0.7807160526438253,-0.5814964143854153,0.935476421812754,-0.2711950062816779,0.9720600750439164,-0.5607032180427848,0.6022942897100145,0.4423719924071834,-0.3443212273948607,
488,-0.8711579403484735,-0.4159008328946066,0.2774939971432597,0.857020808710053,0.3589243888648752,-0.566904909364462,0.4936836626112206,-0.9167251454768692,-0.5832011487344353,-0.0971900345684766,
489,0.8717312361247267,-0.6087793387489241,0.310822181944264,0.2136463613657098,-0.4349949388728034,0.6897201807118312,0.1874858905851053,-0.0791573267302153,-0.642830732541033,0.8787627644325469,
490,0.4943945600281101,-0.5316816567347243,0.9140504584504852,-0.40870018242826,0.8166203696709546,0.323199597291929,-0.5846207742218537,0.5275012747850654,-0.5643312809008626,0.7981328239159784,
491,0.914634955361428,0.5161430610525499,0.5803605143182147,0.2505749440993368,-0.7787481243377135,-0.0901827098533145,0.5669116954499613,0.7173192118853031,-0.881298936498537,-0.0041095531362135,
492,-0.0423028146882203,0.9112127929458812,0.8420949697055671,-0.0918609235550119,0.0758781620801014,0.0606848034683684,-0.6236032284442566,0.2552726337782112,0.6340430247194813,0.8358182531680913,
493,0.8494872466131647,-0.9631551337604356,0.2909226347255098,-0.4894907524305906,-0.4156105889590961,-0.0132002274040111,-0.0436062388492447,-0.1704888059391699,-0.327141096534676,0.3819792786030527,
494,-0.8271071995182255,0.0431281609005971,-0.9840228699463618,0.5244972850794729,0.8482645159597091,-0.4342286641569648,0.7316666659587419,0.1108277162614954,-0.2956971534249809,0.5723343410528814,
495,-0.4542360519019087,-0.3199919787189139,-0.1631340247658917,0.5932541833055343,-0.928347606678255,-0.2408253576249764,-0.6073520782548774,0.084029007110671,0.0842478723726496,0.1884862297260507,
496,-0.1183356757182944,-0.5316178501979623,-0.9788505049334864,-0.3854435504082468,-0.1396943901443591,-0.3654486740806529,0.1062601407764993,0.5523896929562053,-0.2721135985206238,-0.775872325250581,
497,-0.7197132495587641,0.0895655123533964,0.2155958992131514,0.4916652913949484,0.2838437267875719,0.7412662888824377,-0.4584786742504456,-0.5395663535393075,0.7624424585052305,-0.1247732245908913,
498,0.4600743085668188,0.8701174815685655,0.2473713012538667,0.5559334313186242,-0.5299408327788788,0.2112523781471464,0.9166628960377372,0.5050176606558721,-0.8656105707053965,0.5539813299349803,
499,0.3841745597823258,-0.0429972636272327,0.9130469346535772,-0.7479518805619907,0.0403680133676715,-0.0448880200523614,0.7305369332233476,0.5220326332673015,-0.5379772051648324,0.0094265135424161,
500,-0.5667211279284008,0.0434380535812122,0.2934905964523338,0.8811940904861664,0.3153663079820297,-0.9272837476098382,0.9616991270889734,-0.8235735609581825,0.8990842039714722,0.5788175311816182,
501,-0.071056788870438,0.6397041280320823,-0.4536755066434192,0.5476065545923059,0.7067791073687197,0.0696316366321889,0.6101637564258717,-0.7160335238091016,0.1832496168338757,-0.8572547033107649,
502,0.5661105693459167,0.1348736953387783,-0.3200183642022604,-0.1947725596261021,-0.3432100015571513,-0.2887625535489597,0.6432443584347247,-0.4386265398769762,-0.1272021268184304,-0.3843473555102699,
