-0.4258106595286164,-0.930058588048458,0.18465924753845386,-0.7602240642359128,-0.9465423598568683,-0.2192764417894223,0.7263428215954915,0.6682135157392313,-0.4354179160175726,-0.15126414045129888
0.7679891762247182,0.2773471092302231,0.4133443665924559,-0.33149283211376024,0.5599780569311033,-0.7513684416226196,0.3546970384331716,0.16491595068333775,0.279832052085504,-0.37324208813169746
0.48033051425511086,0.3861816778748517,-0.019235567235462714,-0.5605169637914851,0.8870991697539075,-0.385979331434403,-0.4807476385941406,-0.7218238875184213,-0.17132405231601566,0.2695353423875486
-0.13651716678016868,-0.7074807010573196,-0.04126783817340651,-0.4757920752043516,-0.6520107461952025,-0.8463127639803463,-0.758573075472337,-0.6041662203756923,0.2440004447147166,0.9399677867912724
0.9889423751787316,0.0033131094670657557,0.8837857909348512,-0.024372505134797495,0.7127155231178521,-0.5155131095616163,-0.257613807430513,0.6506870292209355,-0.574270928023102,0.3719765772309547
-0.905522369917835,0.35594074590150226,0.7679441650476373,-0.7308399676952122,-0.341810414730091,-0.5747266807230699,-0.09620566858565249,0.9367107013972902,-0.7793471779739334,0.32421963226469264
-0.6276570123395144,-0.630470987312082,0.06836231346177457,-0.9888377968503256,0.08160870173158585,0.40601825923471435,-0.22166217143788802,-0.22508799559008374,0.08115025875042914,-0.6137539782688164
-0.5865651823291078,0.7215128370646224,0.013977961284048268,0.5140795027659122,-0.9287304736632156,-0.19882581636342356,0.34664060941544084,0.7743838953940003,-0.18668510584861875,-0.5452067441574909
-0.7291646969046948,0.7353806859852061,0.8149417939563404,0.418471168442931,0.8368764374285511,-0.41773807726447654,-0.9769198765335961,-0.9286004896800104,0.34717329203406355,0.4031731444722484
-0.5285743884268511,0.1350977904506292,0.42183491785783,-0.5997923621616815,-0.8499694449543802,0.6990323978682225,-0.2016807894019449,-0.08392437099737149,0.34011515231073286,-0.2213368232245735
-0.5473800102920008,0.7623641347629562,-0.9895999307324858,-0.5133094948554429,-0.08741838622423359,0.20849278011750938,0.7222408127832316,0.028883168756047795,-0.21493266197146388,0.6488061883024752
0.03649684635557415,-0.029551018372280247,0.9112702983849255,0.179037068646269,0.9806263224994545,0.6021636867763958,-0.2840708683073373,-0.7863980821951206,0.5814710181654303,-0.3921986158451608
-0.5324996400388369,0.09122635609396057,-0.4903339045659532,-0.570602333794963,-0.1606482797775196,-0.753572439500743,-0.5642194884969014,0.44123212826388025,-0.19011077199774606,-0.6803099764161638
0.11105109122678325,-0.23182849898368618,0.8374039576488976,-0.8683814848325155,0.9506332884057926,-0.7703617468509618,-0.3843942407646743,0.7160445401187396,0.5256051270301749,0.4335410797374275
-0.8983148130815921,-0.41818097828951073,-0.2638703276404285,0.19699771416877443,-0.14547630544344192,0.1739820142374997,-0.005874573657710491,-0.1480941608497559,0.03314643991443278,0.2544526583464841
-0.08364644647510788,0.6500172774402067,0.7270830920085518,-0.8810259524959263,-0.16760885934677605,0.5910110081293769,-0.6097739325626456,0.8447311662605057,0.4847666590284532,-0.374109713664177
0.8902552696463049,0.5399596090437435,-0.9838027438949695,0.1504701486872606,0.05704027244854304,0.699049014631069,-0.24913660009049177,0.4205027457536341,-0.6145867432794775,0.8762828227956225
-0.8527158202410456,0.7534549921033904,-0.08712145865517706,0.49944807170030936,0.6747404935133765,-0.13177342872027176,0.6523824179485571,-0.6353971276593693,-0.9666073242403549,0.8644281986111404
0.7552986100152663,0.2319395997207323,0.27753849027772004,0.7115773282155915,-0.8429836595547813,-0.5247205659321008,-0.47207430632440905,0.34173290448134996,-0.8896897654790294,0.9279770467119255
-0.9895213308541307,0.2791761783119675,0.8767375012288618,0.45792474204948497,0.35966630838983416,-0.27454569952315544,0.5580530357321345,-0.5608518399280367,-0.6141431119003606,-0.7724589144123174
-0.06238216261793361,-0.04591593700092156,0.3069027600410765,-0.20198160730434733,0.6546286086836015,0.17045819507320337,-0.8221679269950017,-0.9882348435072997,-0.7011324637936293,-0.1238740429628068
-0.8600438646008041,0.2479208713890091,0.9730624240947181,0.5459552515823409,0.5748116729294992,-0.09319982265101334,0.23188201026017485,0.3807716279136437,-0.3161653692139941,0.9593972107573707
-0.8407529802744149,0.28919905695080605,0.9883948349513001,-0.3823239453968227,0.033392689453555224,0.8031513705600617,-0.4874376920695558,-0.12685143594502568,0.9220984714894971,-0.5701119052982392
-0.45861873726638613,-0.931936320875934,-0.6590003161692579,-0.8346768533086089,0.6440089327148613,0.5333464731401898,-0.832688957863602,-0.9344076754220633,-0.0181554083737705,-0.17953221786762286
-0.6980014737725768,-0.14567753754810742,0.6249825302500305,0.8241419459605996,0.20639294991893253,0.37220014928164513,-0.17372905738975497,-0.22546924531911028,0.7088372580241966,-0.3501059075305306
0.08177676608011963,0.11580636053353333,-0.9000459216240893,-0.12652798799636533,0.665194566132697,-0.07413856302334076,-0.12111536098612596,0.4301578672259212,0.23769360851774124,-0.1873252656129072
0.891210227947522,-0.3384635961436141,-0.975480036683687,0.7382776509583244,-0.740359313389753,0.14887998812092373,0.5741864631585976,-0.6855108659311752,-0.4284040118215128,0.9309496227030749
0.3393173906792064,0.4411285841357748,0.2449245384037957,-0.17213618775562056,-0.8118334429078102,-0.7037093658051065,0.015477064906499471,0.598527850802492,-0.5917386611566433,0.10351914237923299
-0.050880944998659805,-0.4136041319897529,-0.7805674068692338,0.45905887212193663,0.4314112585605585,-0.9589912240179533,-0.11460985008190316,0.16815653997226976,-0.6027123401446277,0.8350854204473341
0.37619591502927885,-0.4006647520379357,-0.7322441096646263,0.3959159474040761,0.6536439007553896,-0.41494116879445186,-0.4846906002927247,0.08899114389920437,0.6324330163096215,-0.6173219663516818
-0.6023853305626006,0.20763534097789504,-0.511690499523807,0.8043068071278108,0.07911731948465661,-0.5088715065289514,-0.7807276815112387,0.609425685774662,-0.8133290242727268,-0.22380558505505888
0.7513519261674892,0.6217080700193707,0.846283902892774,-0.8868895846646989,0.9537027902401469,-0.1647053642700268,0.6207392756642713,-0.5969073318695775,0.4599669965374171,-0.18021065339227993
0.11414408962539291,-0.435642580892143,0.5029684763257734,0.45218484599545095,-0.9307169374862272,0.4948349211858729,0.02120260634848181,0.450943088261466,0.9675952589859447,-0.5214756126352493
-0.5000149541774341,0.45896431027248097,-0.16361171526273122,0.24658029024597083,-0.25859768539879013,-0.8770004722124204,-0.5520395207920188,-0.796231705493117,0.40710602082622094,0.7317036154261998
0.26978524602025056,0.22105903879285504,-0.7681678744452308,0.9565206951877592,0.7819549650544688,-0.28832347734383357,0.8264126875512785,0.11634124672139268,0.6992276059765394,0.9556263040233042
0.3801361689683793,0.5422179532633107,0.9662230219036716,-0.0983109677167473,0.7481919819144145,-0.850582945889962,0.648239080358697,0.49656263614222507,0.7000572381361965,0.10740827620122695
-0.5322098319115343,-0.16407546009515517,0.14320322111561445,0.34009647593350234,0.7207265851262588,-0.9034974076032218,0.5452643244181057,-0.8867538564378765,-0.8408435227506429,-0.5321485950347671
0.05771997717917143,-0.46212829570512337,-0.664420249422528,-0.64919710176883,-0.4560590198966733,-0.7053765053263894,-0.020203367849616072,0.3829698009603455,0.24849707364285023,-0.46406195956018037
-0.18505838405416397,-0.27622722200812133,-0.5212455359649608,0.5791283895113057,-0.9793310582032886,-0.9532550485188659,-0.03815486907013177,0.12554112997901745,-0.2545427505904685,-0.8191570091610214
-0.019506003349340273,-0.28070085412412393,-0.7356346735885465,0.42904206147608503,0.37524563539435896,-0.8666669275967879,-0.8507657969579064,0.5618066596766775,-0.7670689144708989,-0.939742500729339
0.602467540899456,0.814343832812835,-0.37588237445179973,0.8774344110875929,0.5872794553526064,0.28399056322508165,0.4943009948425461,-0.8117822188422634,-0.6446049774411801,0.4919386441614606
0.09608118317456293,0.6059535149298114,-0.5045694471991066,-0.8066435335760084,0.790324364529408,0.36600827530940294,0.05528996773359607,0.8158049051849403,0.409492307973258,0.2941853113844508
0.3424490242615861,-0.367117532341123,0.8949280070571741,0.09983970591827118,0.25541079304262904,0.931639585437469,0.8328905519699839,-0.4806136071151995,0.6526547886705125,-0.9668395650625007
-0.8961759150321447,-0.2427607949387356,-0.24167595953441512,-0.5097589410693247,-0.24967693512466738,-0.8971639062683032,0.8653834930625952,-0.04554571362002102,0.48271537250438823,0.9759172263617397
-0.04039066815583292,0.1346279202266516,0.800326636576757,-0.7224494122303686,-0.39098634420781286,0.6189564883896455,-0.7223368770291394,0.15973578805702826,-0.37984528256149086,-0.45616171627709023
0.605565073439271,0.9023109428233442,-0.4448454339991773,0.7449549333752579,0.48206418682756214,0.7744948284966273,0.5557999671677201,-0.050469312037978886,-0.9830652822876399,0.8705783662154138
0.24347796343391592,0.7675320196292041,0.06519167648669955,-0.9410477096285014,0.27462737554990024,0.5250168849372892,0.06842240976997194,-0.285894628783699,-0.4874971566982389,-0.0256731320498631
0.18967131362536693,-0.5666798342736696,0.42709178914073576,0.7016744108579211,-0.5106323089447348,-0.1402102549609423,0.11704788464683902,0.07858776701687553,-0.8343739476494696,0.8983867632462383
0.3026539455086701,-0.18505779075317497,-0.3768358764027998,0.7775987342433917,-0.901733785773376,0.7925905724380833,0.4880469510168097,-0.911777645574981,-0.5074437782189443,-0.6113632233840782
-0.19468619411453603,-0.3516038020036295,-0.6600047151107511,0.2935211341205928,0.8030438439841496,-0.3946812244462734,0.832568359604543,0.7751449162896149,0.6273481950804793,-0.1364842857032279
0.9557315162829714,0.9870498733685515,0.17699991843655893,0.3273678337965009,0.7446080735227638,0.8950353404595093,-0.7260864629499177,-0.45684606968345476,0.05040816585829666,0.9513791252245514
0.014077596581530072,0.27734865252149987,0.8732317419648161,0.8276200040886301,-0.871619966740236,0.7614204620739189,-0.6623759810902881,0.07164286092485983,-0.5247516429062445,-0.3713377721581389
0.5871626485368917,0.659653082663727,-0.2774650749837093,0.9238208595095596,0.755071301670263,-0.4028953130466121,-0.48662094628484265,0.41940626721373775,-0.7201676541520645,0.41890282908392806
-0.3547087835422291,0.4514257650676139,0.2615041308282384,-0.8477328919115137,-0.43526125417986916,0.4199212534232648,-0.8193364602804681,0.849261269928201,0.7040863933328354,-0.4293758263580968
0.5854859795586529,0.3004992029276117,0.7431911900962611,0.6814190841443426,0.8805452467274366,-0.02830310511435108,0.9343261467110862,-0.04390555496645987,0.7025615954634301,0.3902497891802974
0.8788325743968983,-0.8331963690757597,-0.692920988178008,-0.43476175572456277,0.08918656310513384,0.7821256886127366,-0.9409840476475565,0.611376318144627,0.15596104689568646,-0.8503623856592484
-0.2815375630329605,0.9327070534875022,-0.7314043852679353,0.6191770491612212,-0.32923107107438176,0.3322446921840365,-0.26711701636271623,0.9605243296563424,-0.29054362153099467,0.5532702095716351
0.2719356676329552,0.9248689565252655,-0.9769935423738488,-0.8589405285678076,0.7124807138257576,0.19226289193783352,0.1852044578900922,0.30452399158448795,0.9250917126269471,-0.6434283755482065
0.45577553311908137,-0.7623862824334967,0.591694581313573,-0.3968394202805898,-0.19913476017193354,-0.2711698233348079,0.8987317467634099,0.7306631332117361,-0.8982029668449681,0.6643267612738437
-0.4877358016316422,0.9887589473867697,-0.8558861442650215,-0.6094319956367019,0.37179695817014613,-0.6453012361330488,0.6716249987823213,0.7836316123559106,-0.5538157014437328,0.12477765611888914
-0.729937524634148,-0.7465798054345827,-0.8708169676229617,0.7316219010849065,-0.9034798358239632,-0.029102512545277848,0.06905892557445736,0.43089940283167993,-0.5926581802971868,-0.7189175984575303
0.29520369148021564,0.07082576696751963,0.47009554218618965,0.8260270225140471,-0.1772285613489385,-0.7248133896183614,0.11296339912743747,-0.8197110509209358,0.12159641002419797,0.20143703487928755
-0.7941357451134168,0.1657332085864287,0.01866271178033707,0.17596381750871926,-0.5659223377563986,0.5769401341846832,-0.9774653759433152,-0.44985547657989033,0.6211430077186353,0.7253105035687661
-0.49443762582060397,0.9565732136792393,-0.8733074786167618,-0.06640470047531155,-0.8797486666579609,-0.1882940195965105,0.6625513068020774,0.3922936689309535,-0.18731629190060428,0.8340025068787476
0.9134105109175588,-0.9271274673635854,-0.8486532109185088,0.43203193033477083,0.5639106533950331,-0.12590401283518893,0.5128972142289467,-0.33249349243409576,0.1003109229000565,0.548167075196379
0.24264434322726336,-0.9144409878942216,-0.6619766430686096,0.5607364353229032,-0.14631937871280676,0.8270789234163607,-0.4085048885526896,0.22799327625636412,-0.7068123443961181,-0.5836063363272794
-0.40701126074176197,-0.20842810507003895,0.16356318976504491,-0.5166165864185562,-0.43225626670552986,-0.11885293919619477,-0.04460365628813212,-0.7749528810264645,0.577648808476817,-0.4934837191455794
0.15165433836148123,0.5669446035040655,-0.09889478709906552,-0.6717048483454935,-0.3240131087933462,0.7650525558900496,0.3011671914148524,0.815336319993617,-0.8192049890831921,-0.7882580773029819
-0.20863184483430175,0.021272393348539254,-0.12761698911027564,0.1521397557851223,0.7021429670643622,0.5185298581756417,-0.8467654331299905,-0.4549560266732591,0.08389695138774789,0.007055062070859486
-0.42561234929094105,-0.3321176582767227,-0.8483116338477819,0.5140181208537049,0.8013252714594112,0.6472893214590225,-0.3795093504265864,-0.6523253410707097,0.31306987622744864,0.10223408996888406
0.4863208907307044,0.29636251268569613,-0.7992178160818854,0.6891973409263736,-0.49450764945492237,-0.3669400321142756,-0.2964068065893871,-0.5188717631563939,0.17246701218823368,0.6795461289713425
0.32064942274617736,0.8763616056523251,0.8098296290585114,0.08918527957563271,0.8389790189235402,0.6153958872856033,0.5662506264653835,-0.32687674008545653,0.9886477022363007,0.38967534927228553
0.34103863304137483,-0.22906234054868413,-0.4700786726009688,-0.4667641782145491,0.2424637986224103,-0.598591760273165,0.25219982071355185,0.6082694129576298,-0.6443539193763003,0.8723556305483553
0.27676998482295234,0.5007623300732731,-0.8040558166380036,0.28285417292238524,0.540387578286093,0.6062022326612548,0.6804688753031465,-0.41891931040524855,-0.17667878236532553,0.7276801156253627
0.793361974031163,-0.3395536989260475,0.15445591109630108,-0.41360840289020595,0.6233393237413061,0.897781354917567,-0.8803764153057221,-0.8253070015533277,0.7209321269065727,-0.008918069394528105
-0.04754903099673946,-0.3596690890499341,0.4151842546326554,0.5200086478154091,0.8342647925671876,-0.22347640981906547,0.8753772329016201,0.2243301271809035,-0.3166872306691437,0.6401924503710958
-0.24847670485131856,-0.38851976708101266,-0.6532541011663312,0.8325638208381103,-0.6630585292393381,0.06575238119874816,-0.8419127287565831,-0.6261780196221294,0.1603314549638264,-0.5495058787312006
0.6328773694421819,0.7587901480516754,0.10180240042520494,0.5398816178446733,-0.8223517964160092,0.6238773495981131,0.2063569820578759,0.011328560260172038,-0.6614356776989052,-0.49127497001834103
-0.9363387105039345,0.30006907223148316,0.6687683761541379,-0.8069573231258383,-0.3567594698090846,0.22124965528916474,-0.9617356120653847,-0.24041922307386288,-0.18407277647770137,-0.8562672366370154
-0.2359809564934845,-0.8614401986179961,-0.9728450714949954,0.7209098227343749,0.13976319094752743,-0.7455437136356373,0.20188469771613904,0.04162545552754637,-0.19807691685473194,0.05827919855591501
-0.5800522794795895,0.6635688789485576,-0.9621535074453951,0.22026077344938155,0.3580396382415205,0.6557330568716073,-0.8355486463426535,-0.5747574164255207,0.06460760713727343,0.5869237486526004
-0.6162718379800483,-0.2943181244277763,0.9591902015737328,0.19378727276185614,-0.40958855891696677,-0.1907550734732144,0.8396218301424827,0.5472218696838491,0.625662971221639,0.610111071633443
0.6882849930890087,0.09536120919316193,0.7657642194454348,0.5465827409768438,0.7257449855609772,0.03298237473080534,0.9324116432159542,-0.7663008784597538,0.5992369592929851,0.6008030311873171
-0.15794075356297,0.1473088982662465,0.2764956263370184,0.05104602086910259,0.13438870880746756,0.28263591476634464,-0.29620320567177183,-0.2475176354357772,-0.9714137559015336,0.49120627869436584
0.2892376211289227,-0.6145314591393987,0.1456192021448619,0.8915538034479544,-0.7990814211268208,0.3513330887546031,-0.8688141698181593,0.5388023651113785,0.8125732097560734,0.18199032328435494
-0.4739382636021957,0.4072818574730521,-0.9151351371199168,-0.9827225827966557,0.9251246517902336,-0.904501485088819,-0.33202709830583244,-0.41939213291130395,-0.8153280914333899,-0.29024082178657185
0.2566390692144007,-0.2336347565538921,-0.37204000248330094,-0.901597215527403,0.95964766708169,0.38120919850637036,0.3194948763401697,-0.6629549632567611,0.33157290775351167,-0.06305225471526099
0.7668059003203427,0.4009608068389885,-0.23959892199759125,0.8976791722527442,-0.5492508485719239,0.902081253005061,-0.7334142468220199,0.48334610451171756,0.5964916519863139,-0.7928526272971312
-0.706966912447242,-0.3305794038606312,0.8198219951091152,0.13485542403311546,0.6999383731495119,-0.9775962546203363,-0.5240650242997125,0.431494235625524,-0.31417020411182717,0.48794287154091665
0.04980953206382477,0.9479581588256065,-0.6923466568912189,0.713685202532284,0.16772485770320467,-0.28773190075540933,-0.5428205422923319,0.40314090717505713,-0.9899697128078809,0.005441726867456809
-0.4856930854750706,-0.7142083787460444,-0.843702409878223,-0.28038311346165845,0.5755422698671062,-0.9417318296803374,-0.4544098167976641,-0.0414450124594945,0.35767319801222186,0.7863100532785043
0.9657041162955944,0.01354589309928067,0.07104811833553559,-0.2850684272578845,0.0682429000880207,-0.08917571207919683,-0.4086564247458525,-0.08273399156275807,0.9176310413127626,0.9619956352341998
0.06230089544308348,0.8923354950772042,-0.7427370339933937,-0.07041212279443587,0.7527919840947672,-0.034417150758872195,-0.18858569354110666,-0.2945876845490064,0.49260283167179186,-0.04125886472135665
0.8962875284771605,0.22449336556856014,0.4059118578775154,-0.7044231428137073,-0.19377639372183497,0.16312394461310809,0.26452391195158653,0.06702646244163213,-0.0053696010263107885,-0.020331325851226767
0.7036033533915576,-0.8295594447467005,0.45186978871131744,0.924358462787461,-0.9475038226994789,-0.7989395717743212,-0.23024613005141903,-0.5134606718637367,-0.8988577621883793,-0.5043370245302401
-0.6123082582934911,-0.9514364717781941,0.9750806910084835,0.11850178587482141,-0.9169570311279893,-0.5795139498076393,0.33127723292434963,-0.4315673361769047,0.6514075879369039,-0.09050047070232314
-0.9467835669874086,-0.5463898670090019,0.08218069547072071,-0.7883529757818486,-0.6316051625600156,-0.958502568260737,0.10092710280532247,-0.9166305194956103,-0.2886268905790377,0.0683943085788481
0.8796102318888348,-0.5647229741499251,0.1267841111874941,0.7402279801332301,0.8391766080404279,-0.5939127996128359,-0.9787122640890357,0.6367277091442622,-0.10355448534195244,0.6921562589557235
-0.4253676852684559,-0.2679801755688086,0.5333412712832308,0.3728989125200368,-0.2104550650383321,-0.545612454075677,-0.8031217771773218,0.2972229700268394,0.984252826617551,0.8688601770056483
0.9064959325876059,-0.5564561690683438,-0.475560083415987,0.4071184815609161,-0.5598617941654396,-0.4082154624104468,0.6302569696900979,-0.989100134175254,-0.4277252910701035,0.0695591235575228
0.41049555164442086,-0.8616665586146004,-0.23088097368933247,-0.1922596392312107,0.8680609766236378,0.6045454161821893,-0.7856303797373094,-0.8910802224288026,0.217526940748358,-0.6077837151231493
-0.23190023937600446,-0.8442554064310834,-0.03412712799069728,-0.631956617126832,-0.16655883454831277,0.18955370562230955,-0.8031183272479079,0.46766384780304104,-0.7799811336717642,-0.8393485295659989
0.1874679260845602,-0.20504027613947506,0.7353011486591148,0.6586208430505724,-0.185435499269068,0.6642272501766264,0.7012215753770905,0.5482615832291635,0.23436885739486968,-0.8963615763388382
-0.4026590232313728,-0.053472111588331206,-0.9574209734974676,-0.9572810561049921,0.7808085399960447,0.08228769627918164,-0.5969511027878944,-0.5262808693778206,-0.9765741767341825,0.9261355023412865
-0.18828066879737437,0.43661618234836297,0.23755467440239264,0.49385401149545705,-0.6597581852953105,0.24823606180293112,-0.6685745456181671,0.6407938217089193,-0.2986675333871325,-0.6045489674649924
0.2527523999121948,0.5126108218809251,-0.20081674896327484,0.1517567795033592,-0.5730835092256913,-0.35003656532826855,0.4346044646785969,-0.6902286765764714,0.8070687743124336,-0.45224188795199616
-0.1185114754417439,0.8777605568553408,-0.38359291708629906,0.3552848658482386,0.9167067290158686,0.24365015637497534,0.9167530647035365,0.06375115705639334,-0.10240441193224481,-0.8217253755010427
-0.9070539882920621,-0.5774472730858613,0.30702457848292286,0.5304157946613071,-0.5412456667092782,0.7594597214504959,0.1152496572638897,0.10895464845234626,-0.3050603524867276,0.40118494964749707
0.5281192505999508,0.49843104898161816,-0.2123289270716171,0.5977946364535602,0.7132258042871171,-0.6817705027799873,0.19120507854079705,-0.9671013607498524,0.2594539342063431,0.928148311136999
-0.4836146982948487,-0.9186414933342886,0.7926724119380866,-0.891345159332647,0.6759471665837256,0.6212396697296447,0.2761674042794049,0.41860544773178376,-0.08171530307100972,0.8927728876633259
0.1856135961742662,-0.44820545676658385,0.8315372232091733,-0.03950828545848073,-0.3493063183769435,0.4359893579895986,0.07200366542746606,-0.08026761616400202,-0.7694774141204137,-0.9141411862411039
-0.3707851539932079,-0.6827266753237529,-0.7436688678165657,-0.5959281550565163,-0.42002848911562585,0.4467225992098056,0.4028497933763975,-0.7074614304858482,-0.8165329949578284,0.510489334290996
0.2933244512049411,0.7688348678085757,0.3036154867661416,-0.22261790308932072,0.0672003135581527,0.5164298238669265,0.8857565845054354,-0.4878800711730109,0.9078042128683108,-0.09994145457156356
-0.5425044612318985,-0.7559146403746688,0.7092356615415798,-0.8269338940673102,-0.15001147701392203,0.8029660184435068,0.9883156843889227,-0.8994921363206094,-0.5500580834825493,-0.9521291640992817
-0.6222368701067846,-0.8386830396347722,0.25612295363856563,0.8698713027768339,-0.16747773591939286,0.3948830360800808,0.9869627898131987,0.3179708192703037,-0.24208046632917413,0.5330557177569084
-0.8677440370493095,-0.7524540775854309,0.5106469708516062,0.5871752232369261,-0.17732869389777306,-0.9671905594536473,-0.8932996324863395,0.48145707999383913,-0.4062407675569436,-0.7108065474248411
-0.40981730634135194,0.31062686709912124,0.8055602360385359,-0.10353808003664466,-0.273800142856212,-0.513372680760641,0.7007819475297523,0.6289413028117861,-0.6614863684699896,0.4485770573594603
-0.13204243650942782,-0.5293354720691984,0.4490389615578574,0.15989793460057933,0.10780041665237472,0.8612903421616473,-0.36175351913723675,0.005706394047976238,-0.9366193369896415,0.2797180356778317
-0.879797654517348,0.5672620782616622,-0.6887047643300619,0.695003036993701,0.9826905855837613,-0.2319475503079791,0.06360157326067983,-0.08243899855450276,-0.19476007073693924,-0.39122641265045965
0.036276552064224976,0.6604405916445986,0.9640499019477515,-0.28923566387558197,-0.7069792377167474,-0.24993878895033272,-0.757264428817485,-0.4154778109283892,-0.6253432391663731,-0.2124361709200948
0.2732811678697584,0.1769023031621202,-0.920607561126341,0.8476265836274073,0.11031229649845087,0.4622278162805764,0.14450497440361798,-0.23584629395181644,-0.9150561511680501,-0.800661873544242
0.5728076137367388,-0.1731625786034403,-0.2874514991229924,-0.8440550422929223,0.6212765555968172,0.12728826365701207,-0.3869495278091696,0.4236267665880029,-0.6623806416432422,0.8419832859071255
-0.8382259857686626,0.6510257173777629,-0.892724979544476,-0.2357757764151427,-0.28859024764855845,-0.47332101222863365,-0.7375197095143728,-0.8022762963538367,-0.6758958123925951,0.9061631629486373
0.5112849907981698,-0.5454724179617767,0.443676265251429,0.017414554743125032,-0.04693687560338988,0.40604236794339776,-0.02089613396724388,0.8386893062124219,-0.8856022005868793,-0.41963513147316933
0.8967627529506093,0.3771442246824541,0.034480449692070314,-0.06298638926982603,-0.8771643975478584,-0.8451829779943119,-0.11217955098358023,-0.6583451357609562,0.20426356150271086,0.684024246359574
-0.04658464442219312,0.2752040582824544,0.10052578643447929,-0.07079072731167868,0.5356005069630971,0.29373314138837925,-0.24934898878738854,-0.9215546425936594,-0.5549333391874774,0.3728369357477228
-0.061321008095318374,0.6440953618062493,0.6528076510157077,0.16941684355133102,0.7628889851596528,0.5217689431996935,0.31974684911516627,0.5954800889319487,-0.22736730309418773,-0.47465215410770045
-0.9480642730103235,-0.40607850198626605,0.5723552291401319,-0.5498094535847398,0.09906795496697707,0.6238353371404193,0.15252170585452984,-0.0027641471572441567,0.14752594456085077,-0.742333062085379
0.544145828466285,-0.22652951873056248,-0.7822904437915339,-0.0234433640984949,-0.8083435973135971,0.734503469601572,0.024837911569959514,0.5406397939743464,-0.6919587907533873,-0.6481742585629976
0.8970490509834801,-0.856291899824608,0.4163587989549762,0.6527889252941621,0.46752539571150975,-0.5208953682501478,-0.6646811184232106,-0.035280628050700424,0.2423629548720172,-0.8821187319731306
-0.6713975501299065,-0.7088475777409573,0.41057233965803075,0.5893981562206885,-0.2374030818701195,0.14436906334755317,-0.23431852435202727,-0.40139416635753145,-0.7440842579129066,0.7889873868725501
0.9152057129004358,0.2473558358546386,-0.6783986938021911,0.6148485406400448,-0.4956808037285639,0.6115854415163817,0.49569630763897776,0.5050207357590693,0.7668348634095072,-0.3051403819757794
0.5253330583940508,0.6033935137200326,-0.610528273279406,0.13355188600962897,-0.2495086054880723,-0.9762558071705083,0.5999382023986783,0.47414613783223336,-0.1204352633133613,0.38459151144642467
-0.6009282523198224,-0.9533414024267786,-0.1558840136587898,0.811804111948329,0.9878298079764676,0.42760690899018927,-0.5650812427908183,0.8153672082366916,-0.2870751254433279,-0.7230400776440621
-0.8834551942900586,-0.6773880308198482,0.26228639880744264,0.28941678839895757,0.40389723143515033,0.38138125609247453,-0.03019110972228556,-0.6833417934796177,0.17760222749945243,0.7186975267649054
0.26382200922085963,-0.2509212931966569,-0.07559318684268446,0.06390859988758235,0.395485665084397,-0.573532430093344,-0.23579763828638722,0.7989382545656538,0.918183952331411,0.10687889082990676
0.2878920874991724,-0.5639048127964392,-0.6064180807753841,0.7502509577918528,0.9079241509053801,0.6774488611596525,-0.5710207709152546,0.41337700264114385,-0.8552879355145442,-0.04123182192891761
0.09422632520109286,0.6126937648630579,-0.7576019726469618,0.589775182858475,0.6832638823779809,-0.8734047747070991,0.5183811507585749,0.5177045087729566,-0.5640476707430198,-0.7550530894196503
-0.2937222979130514,-0.6891906392224942,-0.21772565397756094,0.14087854634752528,-0.8692227102217478,0.209162574858891,0.46367534037363733,-0.1702497768986152,-0.03461520700543441,0.8999103077534936
-0.5544083250016365,-0.7516604864451556,0.3453803587309707,0.6995921994493461,0.4570168968341217,-0.6375635390774272,0.7371915426019566,-0.704858627051961,-0.673617009639937,0.6531387859219253
0.26815181556687917,-0.19345899599258232,-0.044807443333666375,-0.5946602950745303,-0.7009128785183327,0.7201458182919509,-0.3103130563936838,-0.2144497122003648,-0.16181921085178197,-0.10768773856528335
-0.7009719583894194,-0.6626220794327697,0.4492415693118734,-0.3914984381534369,-0.5917997749682069,-0.48955399346417783,0.8000844950776302,-0.7788726426098367,0.7757996796340865,0.6359889168406507
-0.9754313901410437,0.8245615618144482,-0.9575393047522369,-0.7537200312765013,0.6341395523639561,0.06773184697381618,-0.11503319310387616,-0.6385298137635411,-0.4040544131793724,0.9022161358465488
-0.02951824407580994,-0.47281279192680215,0.44680159347096016,0.16816113736765526,0.14545295026223792,-0.9668862699951299,-0.04835641313269068,-0.8793733641414665,0.06418919494303998,0.3718007415757856
-0.699086288483691,-0.8202453362040718,-0.8093464503210686,-0.35465652148121773,-0.3582609746372083,-0.5419345667381971,-0.11009616930621069,-0.23313998376724454,0.582778669783806,-0.8160259941359549
0.7334274772992968,0.7242977338657417,0.8571714776723631,0.26157600907009515,-0.3232489532767754,0.8938037426834113,0.6315524690529881,0.7081364046189491,0.35305366537574234,-0.029231817962072526
0.9463124995380496,0.039231156029776226,-0.9558906083441525,-0.68116714505399,-0.08269749110368352,-0.24527874119919724,0.22343874847709122,0.5303007137409188,-0.545998212351033,-0.5557064186874386
-0.1476975661896962,-0.8335487136023949,-0.1262974770037918,-0.6601572066590417,-0.06670776428023684,-0.2811518603587946,0.09733617595611799,-0.08450618602251403,0.7125404170401555,-0.033287138009064354
-0.7965316590415239,-0.9690740155072687,0.866756459958385,-0.3489152573943457,0.33572711205391204,-0.23730557694954513,0.9448351887219664,-0.5753843422626486,0.21014425061265052,0.8844294044417582
0.3577646851379672,0.8719364224882655,0.37926720806520353,-0.6746579950152134,0.37384297430407476,0.016730251043305167,-0.38820257999794106,-0.5870311311406805,-0.9314833150307802,-0.0410065901521538
0.8467831375037012,0.016129195069312097,-0.9070004543460778,-0.48784793026368445,-0.852047005966066,-0.3771076751207286,0.5191855216593966,0.7840258306024592,0.8633888446872409,-0.8471901898784273
-0.6718318955086473,0.28196603023024824,0.3034010037798469,-0.9115749526089577,-0.38265150277580073,-0.30029608247510564,-0.19911155920837353,0.7040417645381791,-0.5235180613992354,-0.00022672946290280827
0.39332166784256795,-0.8789950761551146,0.4250901886152756,-0.3729889860050273,-0.4654853042072229,-0.24343597383212978,0.6259733202855013,-0.8986120865032201,-0.05762387230289878,-0.07103153307611298
0.8559211939943934,-0.07863242882262744,0.10286955497715922,0.09457453159723905,-0.7918497060619896,-0.7758721494599075,0.1328162715671326,-0.620217316701678,0.9449352451026889,0.6131436353586104
0.14303024132624031,0.903100382453712,-0.1880368263437009,-0.5849975641910894,-0.3646096519263703,0.7738728877575718,0.7795555703552981,0.07935626076668068,0.48591505463409357,-0.8877764529870158
-0.22107785540814984,0.8930435259860032,0.5094224248524641,-0.6975069598404682,-0.43275171024615877,0.5390436707640356,-0.6595909995190337,0.3135461649773148,0.5042599254036202,0.1906959474479808
0.12070877152274329,0.06323081998843061,0.3376872987855848,0.43210408687776525,-0.3894179526100521,-0.5417667261033006,0.7798047558271983,0.9085108494714613,-0.3999488849554481,-0.8596698814115378
-0.18588966646866623,0.6884782918835932,-0.6045316156933427,0.45653403218360755,-0.37820583614247916,0.10908727571909305,0.6463836422708245,-0.6972423279808175,-0.33328331730822247,0.6166856057872407
-0.20525349363521195,-0.5884104516799324,0.6752310367281893,0.04281783550235341,-0.22253166843425187,0.5442454194577917,0.20864821351745855,-0.4080749421170382,-0.6082764741521243,-0.8605997168418811
-0.9830903763779967,-0.31877028687581044,-0.21397575706022953,0.7416357937995157,-0.1307397046650488,0.14806083514676738,0.10270826312401748,0.29009088696170515,0.39999788926105495,-0.8170402098821239
0.8289125083071349,0.13720563286280107,0.5444645376130446,0.5058020248175492,0.8790586095548292,-0.04037041383191864,0.307663234644292,0.6117176097689807,-0.018041596867395926,-0.8498279075195373
0.277663092873913,0.07779130185815908,0.7343454871937258,0.5918725807539014,0.4875724340210874,-0.18897833669420194,-0.9859242392438691,-0.5527216045854235,-0.6431438726635527,0.768136884495398
0.033284409390497594,-0.424573236614035,0.6547078446457182,-0.8013294287638629,-0.4298915578887812,-0.5788938391728977,0.5768970775490863,0.46424022867361603,0.00931802933123449,0.5280938487376701
0.8375482168434492,-0.533736348781768,0.02571053025837955,-0.21857396674466034,0.204921053452102,-0.7771778827246405,0.708456063743983,0.6921573225436468,-0.8368474041520265,0.15418281899809094
-0.35278251126166627,-0.7409485090188201,-0.32028568436238436,-0.37505294209830453,0.7864353433343074,-0.500832919977988,-0.15153578749133179,0.03052520239705747,-0.1711580245805311,-0.5119395659383239
-0.5508983255551652,-0.34815934814829075,0.6893340712957898,0.04658602030338588,-0.028949292228284573,0.5669135086807451,0.21171605204831012,0.38307697989215517,0.16142709005617717,-0.9702269110103696
-0.6607181933461267,-0.4745167807924502,-0.13154477445604706,-0.5810938081534582,0.19396294341338893,-0.5717163170096762,0.24956716021419512,-0.44750468505829477,0.32381778976049547,0.742242457818018
-0.42270891961729373,0.8340592434054115,-0.6325006568365279,0.9199797333051445,-0.3943110593863366,-0.4892189740343925,-0.3201619574806951,-0.6738077468977443,0.2858576237883912,0.588263197389574
-0.2583304248598234,-0.4218600046195412,0.19079445323274724,-0.2928171604866029,-0.6578115149238337,0.16918588779481292,0.925032059562857,-0.7758753024549248,0.5638296776685965,0.7894089550933916
-0.43133235027826944,0.0998087435539019,-0.9608829952177295,-0.02886097802506349,-0.396688705934123,-0.21539840334620663,-0.581478928543997,-0.2739562749903407,-0.2039049938329962,0.4856245827406367
0.8210935577340135,0.3714565474656504,0.5389195699415898,-0.9127438076241594,-0.735203206024541,-0.6702634623640653,0.8808754622551114,-0.2361087549252553,-0.6614283547760601,-0.3979114300934419
0.09462020663239334,-0.2871418180864992,-0.1416050217567505,0.31429710276093825,0.6764113613500764,-0.7657926293474302,-0.7164236924691534,-0.4875209906898007,-0.5571006428562626,0.7110332079658941
-0.8495042038625482,0.4026261481085658,-0.9475136988937515,0.07870019730384392,-0.5668610436928347,-0.14427159750256857,-0.9324536016375582,0.6333266825850967,-0.25345839106484946,-0.7690368273394644
0.4040109369620921,0.22749023036960514,-0.26299346058417483,-0.4533156485365455,-0.2552794628580184,0.8394008677289724,0.47624364048574086,-0.7251545559373573,-0.4348650998328394,-0.11665470232100883
0.8711763713002754,0.5374122710558837,0.6283203087971623,-0.6803762249601646,0.17603240204178539,-0.4469773456219317,0.6588851821523523,0.4251126133381904,0.6144999145057268,0.48807101635664485
0.6072661237278616,-0.6519700991734583,0.6525017523296757,-0.8517909787900391,-0.5203658257920111,-0.9427537309992013,-0.10651477793179365,-0.03514711328466591,0.7044068914380448,0.643008936677345
0.00602430750474392,0.5094975058223841,0.279187098044263,-0.35801453792958504,0.33204256196943827,-0.5397423329660851,-0.7850479854194966,-0.799686207259839,-0.9343483746556076,-0.7882220545713736
0.8009529595471045,-0.22773319793147628,-0.4705383539626101,-0.7757406484693549,0.41637208312239915,0.5642979864174111,-0.0029432049740854005,-0.7351898420838727,0.9009021720680706,-0.5132373958000738
-0.7353919729340578,-0.3062491186245372,-0.6190465190149934,0.3830867188979008,-0.42934345398620255,0.17805432656314646,0.8525008972331334,0.477259551465687,0.6526662459214148,0.0803223898181169
-0.6670725491619489,-0.6997892145404425,-0.7452536575851398,0.9822510732559289,0.659535526601809,-0.7044423262883782,0.819326575817682,0.6427498456170071,-0.8771060507927849,0.41057059465199464
-0.4722564869460819,-0.9159959625031948,0.8941352179853943,0.459621508222233,0.5206400108599216,0.7369008244277806,0.3517425143789994,-0.37744227987701395,-0.3015409162181856,0.3679466891941259
0.05467410916220006,0.9607663658309116,0.09882847376792325,-0.8232712217867908,0.9570601362083844,0.5703972047652066,0.05563887649027888,0.43317759025669766,-0.5213137024916291,0.24572490460007312
0.5284822353930336,-0.7732238419506356,0.6867523383392153,-0.36509636996248485,0.5282223253917124,-0.5440946209786934,-0.6229731909848075,-0.7791694217373195,-0.5787344683248352,0.8839347536915567
-0.46352597440264487,0.01956603018726777,0.625253372647655,-0.7169439378633093,0.19763397227775292,-0.44320132728036876,0.23432205251472027,-0.8830385833497216,-0.926954414580695,0.6051030724064068
0.5865440268741828,0.16253004445685537,-0.5019655130270246,0.7105558203621236,0.35432395041117926,0.5182499556160574,-0.2145689204456166,0.9839370713253917,-0.0673082338261769,-0.2540965360396851
-0.5467512994229735,-0.5359313445055198,0.0045191848572245785,0.831042026372097,-0.240593635933258,-0.7502713069192677,0.6071136602210891,0.1406356471781567,-0.5342387466048555,0.4446503778880244
0.7676515136387043,-0.793150162669519,0.8744792030165154,-0.38753067783141293,0.37971342843939504,0.773606467611869,0.23810670328956585,-0.5417120805083533,-0.535527210933598,0.6519995178394282
-0.789005914501053,-0.7353054159189192,-0.01196212407779218,-0.8359468015979202,0.475471645030358,0.41092289374170177,0.9060788142999898,-0.6656704006265779,-0.002968028437833836,-0.8394131572836148
0.3504923443201853,0.5099019946978203,0.45785908643365447,0.517826524480024,0.6401352702429961,0.3055019508883179,0.8417671975543641,-0.34346671846737364,0.08882645394539734,0.10829265709372593
-0.4383347652568701,-0.8669345581666469,-0.0027919962123751363,0.7823014150054743,0.3910079774823547,0.46868755366038495,-0.6601591187534762,-0.5866488761848649,-0.5952019266774988,0.6052059318118403
0.15962282674723083,-0.15550911744103357,0.40711588841301616,-0.5849333692329355,-0.6622968319953797,-0.30315866348405107,-0.44262349725314354,0.08463393230287286,0.5835954250254127,-0.8382452636261655
0.6261449837724542,-0.06984408594735192,-0.6758495313641386,-0.9108579928420172,0.30146273463466744,-0.4122403356323444,-0.15817262719955327,-0.8193008685525938,0.08282552684816546,-0.6476675913621908
0.6164021426528368,0.07108312392381233,0.9111318265821551,-0.8458416695773827,-0.2789587174642979,0.06493944349456515,0.6953432291286759,0.6791145155625506,0.8820243102744854,-0.012514457455913619
0.3887946659616859,0.34557846470513565,0.4797693835990866,-0.7451624559641362,0.48661473539932376,-0.05879327725444994,0.5354554325406682,-0.8498382809066488,0.019568476752188424,0.9518775935634127
0.6572957073262913,-0.4888157306998524,-0.6068157883066176,0.3501424161572477,0.3837735283358985,0.34593182813381773,0.26002997345675305,-0.7842648486422092,-0.5711103431040528,0.21002665476846238
0.6029052560568484,-0.45342771051907227,-0.09688645002801266,-0.5514716154186994,9.62387533264275e-05,0.3704544977858266,0.7992671888450833,0.8740315568990646,-0.605115836697961,-0.1572967693162063
0.35970790158872035,0.7929237601810899,0.5875415547377711,0.8592284652726727,0.44838066543591415,-0.18340680085286865,0.620290072982373,-0.08914664099991843,0.4376141772103739,0.8091072441834812
0.36020210983536627,0.6594529767783681,-0.48150650794583705,0.8731134863061669,-0.048156443877786836,0.8502520370031716,0.7495770453442157,-0.5357761857040032,0.003577620618295696,0.2998727576957241
-0.8802294974142675,-0.23320911269119216,-0.12463715314509294,-0.7376110391421302,0.3731184129848564,0.3504454973027036,0.6726448216196725,0.37294774441640755,-0.49064041750944665,-0.25375254023694094
-0.7949765509260716,0.7176116245609157,-0.8520854030834235,0.4972851782990362,0.6156200473441604,0.21479159828254835,0.4946270935688757,-0.49168054724586213,-0.909051324924274,0.8808260467032492
-0.3360124306878004,0.8309869416933822,0.9520312644810571,-0.31481944734146516,0.09548924699897787,0.9088827990553037,0.7158714928235128,-0.6788988031982277,-0.8635188494843116,-0.7261798224211329
0.80219024820623,-0.15351288637194438,0.039318276412155795,-0.14673512747439443,-0.1714834672115354,-0.06580702259256699,0.34172357614907356,-0.4474080912689409,0.39897238999879736,0.46742279290322775
0.14068903983686032,0.027796241986595804,0.8061136705137886,0.13098729002272713,-0.27892088884611865,0.010332384816071682,0.6420036990498139,0.8271623184875303,-0.9395102041799921,-0.8279579317887674
-0.8571257624732556,0.8563285141022925,0.5653428111404355,-0.26074539097555594,0.2551140339561744,-0.10531672237214174,-0.08368241466660986,0.10213121848537399,0.6947708799577188,0.05052152009737476
-0.9177817701183204,-0.5537450331442559,0.8906594893754072,-0.18064945779539687,0.24752241655481022,-0.9657962040745601,-0.14297531744522185,0.7636560269461292,-0.2984254563527783,-0.5856953876897624
0.3971969098957564,-0.31900363104875473,0.09176798424569688,-0.8125675343333991,0.9813859636354707,-0.14071118662489135,-0.923441089927265,-0.7991923888900624,-0.5550650474148975,-0.9550981877085352
-0.3604389062204285,0.631131994345628,-0.45295215699825475,-0.08016583373381314,0.5106905696996646,0.6195282311875061,-0.1753686211303399,-0.50611029464975,0.04795944880762071,-0.680352499566396
-0.6447774368424563,-0.08896377431658542,-0.7763611727592775,-0.6316703783191806,0.5000059107082018,0.1775654249755636,0.37345488578641195,0.8471861922667909,0.7703285160630595,0.3182648955783094
0.17122184848847088,0.21593042661853512,0.735859563151555,-0.6570267961898344,-0.21718210122051418,-0.7419842549828225,-0.8759146652522664,0.13688801198083111,-0.1485346601896802,0.03090171081322457
0.14306331742414136,0.7824854176757987,0.4710637531015158,0.6362688426987788,-0.045554434879327865,-0.3086809130841892,-0.15653183008918836,-0.9097333107739166,0.11102375006231147,-0.05730156068212733
0.0671700243234481,-0.4813643465333761,0.9340307641193974,-0.07590694333613257,0.06588450323482342,0.20234228182662317,-0.8655467042960271,0.9285847313936322,0.9456686645471191,-0.7636987925600768
-0.9186696278014772,0.9068617501379637,-0.3881210532115391,0.803940402031863,-0.9069428537392625,0.1112673621139939,-0.6412760661386718,-0.9551835323475847,0.7710457451276009,0.5394234473666488
-0.02889846497999704,0.38505205394446795,0.29583126863399434,0.1424948180806862,0.8724390126610722,0.0019945835030501513,0.08758819969225073,-0.18715403844677314,-0.21370695752628155,0.5184260108149983
-0.7363343534520024,0.2732362214015909,-0.4162312789375059,-0.7798921209735019,-0.09387385364738587,-0.5158825936106401,-0.8373052474484377,-0.5735735963907749,0.5554622680924124,0.17288489009266472
-0.371368634189859,0.04000477115861112,-0.45843375787156726,0.8503334907851259,-0.8677248837547231,0.21371227256837444,0.5668129467931664,0.6908805130268836,-0.17882412712975881,-0.4946010114672229
0.5029811396456019,-0.15996453947910272,-0.2018220522693871,0.27114628804874896,0.5649130567762128,0.855377824291299,0.3717845184459234,0.7910519952088382,-0.8832310620345595,-0.5556409712294277
-0.9607193263263716,-0.9840455961649273,0.13917264012546182,-0.4457252558517487,-0.37630263616253656,-0.6796253514487021,-0.3721530630914083,-0.07664744555484804,-0.2001576832422397,0.5764685072047866
-0.10659328698349613,-0.9326295726226246,0.5574862636980171,-0.13174179171187006,0.770497891491073,0.43976275352513894,-0.8899134713763411,-0.3765449772877397,-0.5972092408864573,0.2288976954689972
-0.4867518849542113,-0.2805654692919587,0.8688940330972255,-0.26470363721582735,-0.7601052244911911,-0.457646909048411,-0.16835375297316202,-0.9746621135565907,-0.6066464047389672,-0.41060114474734477
0.1672296256579069,-0.03782556580122398,-0.7033441858769671,-0.7113657453093625,0.08823882950439388,0.33769691418257297,0.4001050055566515,0.7862844869716346,-0.9551068113433548,0.623449967257887
0.2558547894519507,0.027767736985553793,0.5177276921210574,-0.14389103817015514,0.5937310837118088,-0.6300636948598142,-0.4417505536979296,-0.07370254070267179,0.7607191094972428,0.4470322153658288
-0.5328688391738772,-0.036826112976122594,-0.14881077702407652,0.7129416709631882,-0.8115719356333193,0.3417882427396064,-0.29794406102658166,0.5869241910581402,0.23600774318770146,-0.7106817375123049
0.15042352760136346,-0.04542640334617298,0.8106002643707024,-0.7530947337422784,-0.07033296100044151,0.6711731075820204,0.39474034416488024,0.4175385023274869,0.6396158805656922,-0.3581530114865994
-0.9886081111007359,0.35112746152609864,0.0684669965116742,0.5273050857136847,0.3525391824681725,-0.746141347220521,0.5753366229035011,0.8410885245987556,0.208752644263698,0.07863729309763179
0.3006996779867859,-0.4469487972219466,0.3068776917825313,-0.04110519620757069,0.6796969048480004,-0.8404448280298465,0.019004246284110016,0.42039639753209834,-0.5964459940472021,0.1791412672904742
-0.5517433565261696,-0.1355544805413199,0.6945503948802969,0.7953901471142846,-0.01210140661320358,-0.08793006037109097,0.5672161538002407,0.4589571681042526,0.4023159538478731,-0.21036401315403674
0.1996304694281268,0.16099011605670932,-0.7734746624992268,-0.383176500317047,-0.5536641140333549,0.4217612355371809,0.051525868659302976,-0.5286714933633269,0.2555855709580994,-0.5881268870775318
0.9768146813326732,0.5608957981702278,0.6124485697229705,0.35659482964427713,0.32224955850787085,-0.7934850250421711,0.8885392484115584,0.14063503792954446,-0.1120272048527462,-0.7385151392502672
-0.16758765769055473,0.9621731758458281,0.08509890560004374,-0.26837997491061627,-0.608138826753956,0.20919949698013118,0.2587486661241567,-0.7806233313604637,0.31410187575818904,-0.4412404376972975
0.4667328250243621,0.697327937514653,-0.5142326875156117,0.3314361689557572,0.8647095970292045,0.21515809153083976,0.43023736126569956,-0.9378717808505128,0.696570061138235,-0.5769490045751967
0.5007046919618952,0.1946018417956994,-0.8055308478301542,0.2681214397040883,0.014363326110553354,-0.19376801008875932,-0.6658721662349201,-0.11891728440976046,0.19162925135551712,0.30371340678269787
0.4214915533016286,0.6908079345956035,-0.8619392013469036,-0.27438019232343536,0.3531054685830046,-0.8394637569054835,-0.7391520369837432,0.06808615263472295,-0.7080071232027645,0.9353770829412813
0.5741668383432801,-0.9640385081651627,0.1330401194402624,0.9618065672407112,-0.5602866369645095,-0.6656166021852385,-0.24044616814165765,0.08944317827754023,-0.9370249604115504,0.8650860330338335
0.18797126261021324,0.19696031870227482,0.1620872603305923,0.9439430529259512,-0.30033007078457497,0.3055348635503783,-0.532012207686424,-0.48972719934412035,-0.24951448396961518,-0.4234413552770251
0.7713131731690075,-0.8756548634993834,-0.4476501342972301,-0.10533912324888661,-0.7498260604880909,-0.8653898566189986,0.23046558342521561,0.14898528492521068,-0.5775325945588328,0.7545859581166694
0.86116592398145,-0.5408828119854465,-0.12260744854240457,0.18798398545484551,-0.9206468895167637,0.6590120378655548,0.9375910890268726,0.7159909538626554,-0.5434559647398974,0.9001948247859026
-0.94906691508341,-0.4922353166713476,-0.2348285320773249,0.1471720168037045,0.6447278762875592,-0.9893594520461387,0.5079169923026741,0.4715832114342793,-0.20939195581497172,-0.06399504280098034
0.6396450964526963,-0.5569661212994728,-0.9783161792217995,-0.6716844158932054,-0.03917569856117009,-0.4670669929783887,0.6593849992992171,0.6973240650218968,-0.04687828333015087,0.3866365730039041
0.30627150470816034,0.13390187985455593,0.7902523787367584,0.6744152699956902,0.26914663012109497,-0.4972622156334863,0.9247535688308932,0.046113064500508116,0.6734166160399664,-0.9533020286303946
0.5763024623995745,-0.2326256183041926,0.5062878789433514,-0.34179378671368565,0.45724809525024823,0.06715089865825474,-0.6046975222053153,-0.6879728291792881,0.156959716886794,0.2656139661800847
-0.8031210769518959,0.09625707970593345,0.40202087527442143,-0.9113036941746723,0.6938657336309402,0.5852912165444903,0.4789006396428499,-0.9295126200525851,-0.888924331207402,0.6259976974098047
0.872204817027115,-0.9316323221998304,-0.7926698431997741,0.2391989682365414,-0.9255541018722853,-0.747848217509614,0.37018723673418563,-0.8299741354362027,0.8884722589917677,-0.870166153984355
-0.6683119526203019,0.785753123434171,0.05618726419410769,0.7981178952057535,0.4910345187296772,-0.7357596293609965,-0.4396162345512128,0.4027536258760296,0.4095668263020238,0.6009118728437053
0.6484861178174335,0.5898664914517169,0.7600174412336687,0.17621670640888087,0.6536365582059134,0.9398701108186185,-0.37593005349994424,-0.7409699976074653,-0.8302005344992851,-0.8066804415153633
-0.2064145397513748,-0.16374100800269864,-0.5085509802609036,0.589698911414442,-0.5468149580161661,0.0870705233102147,-0.5265689047728513,0.6321641174372921,-0.572209362244744,0.2814751687238488
0.10192867381586557,0.4825186161500399,0.9360779083036583,-0.2902879904370478,0.45925059573475924,0.09325535188063827,0.7989260574824204,0.3141903301936888,0.6640124313032731,-0.7238744968867943
0.9522442577576915,-0.8178740425893047,0.49028077198678277,0.10281617394984521,-0.7862266340173203,0.308084437147889,-0.5004503944481181,-0.32336210357795414,-0.5237972876384621,0.5959314018994455
0.5683432527407588,0.23494694436510888,0.4776807229662161,-0.7937403915835921,0.33820904497590987,0.4378356809993398,-0.5659252991848778,0.16867695025423068,-0.9082183798448552,-0.9710139440530772
-0.9372929588181685,0.3246114853732631,-0.6131220675802693,-0.21288589734260854,-0.011614996548559575,-0.5458782075224153,0.49638546103874837,-0.16559541707625836,0.8542706017199264,0.6353270616601361
-0.7713419618402717,0.29710949796046005,-0.02804298630545765,-0.8417855887166902,0.11000297616857435,0.20791498855421353,-0.8102426233517885,0.21704977320202667,0.562209936970181,-0.3946488032546961
0.47603678170250374,0.281641822204306,0.9622373729825557,0.6848004389075586,0.21724843138224714,0.46260528219689667,0.7840937396916647,-0.591561577831605,-0.6655285873481063,0.4665653542272381
-0.0986797093779832,-0.7933807078776043,0.6484270391474798,-0.0795930440299576,-0.7275703918662525,-0.6171366487545382,0.9318200255757965,0.9659318671354045,0.16672058938962064,0.35837467918401056
0.9507351666269614,0.3009319761793705,0.4367022626338033,0.04265722527402893,0.9636451674294411,-0.07810188878882052,-0.6993018296645703,-0.6604038906383422,-0.10761434002282466,-0.11319602604911427
-0.14021827389033548,-0.6963176164151773,0.3758855187055026,0.141646612708203,-0.9590268340998426,-0.7534719814608705,0.9098355905807245,-0.6050103674438194,-0.5433475735755606,0.3463317894185727
-0.9191918745006517,0.4429411139867936,0.9531031723310264,-0.5301515877477313,0.7807327896743037,-0.13245536876882702,-0.3129945092376446,0.736372535448889,0.07272845649320625,0.9183629977672514
-0.22880812678162432,-0.6448367850386529,-0.23307615393938508,0.25092040039355124,-0.4535915546331033,-0.7171332935950299,-0.5857977440183009,0.5387745345729316,0.5792360063874258,-0.491412196105436
0.8681761337938398,-0.4137721710772717,-0.5795710905033963,0.307853927917749,-0.8129648178465466,0.6150844915959153,-0.46372093370565115,-0.3939037197053694,-0.4219156572269578,-0.001340675943742653
0.7395383053772333,0.6336305905010997,0.8961718193081789,-0.32680155290991453,0.49369598462773356,-0.41311586671602973,-0.5031539873787803,-0.21438537497339427,-0.3805261499731839,-0.6475276648779302
0.563459128047725,-0.6213471438733715,0.41318512332211355,-0.07006943888591322,-0.0036245939553816164,0.6882798061773923,-0.44967107920449156,0.4863845931533677,-0.6165418813382246,0.98320934747067
-0.37315195787019184,-0.20841726919250303,0.24754502137522283,-0.8530855450933367,-0.8711805073084969,-0.01101391097866744,-0.9866508259798599,0.13092745797012895,-0.22026628736654952,0.7492103590977215
0.6748405409377989,-0.8671701358022024,-0.9020420820569458,0.4630774939278226,0.03791482865473128,-0.528773978968619,-0.45302503175245734,-0.2922511730122971,0.30005770763973505,0.6536419383408139
-0.7066048818900614,0.7764130447130331,-0.641036997620225,-0.9203794034607642,-0.9745313442050647,0.81423403997952,-0.542372593586038,-0.21208562495543282,-0.7873014076935179,0.5492663392103923
-0.6750428369217125,-0.20066847095546758,-0.8532180812535114,-0.30710006123540423,0.6055332045339612,0.018142014995538025,-0.6916071281015663,-0.47776486779553895,0.6133814277117002,0.8488480792419804
0.3612496349823564,-0.9022654710820945,0.07495181598845946,-0.049548979936983595,0.6139028544727754,-0.6069199436413958,-0.581475408903066,-0.8343916405676998,0.8793470738611611,-0.2575498846936872
-0.07453157267058441,0.04596101509682016,-0.9763822446071977,0.10979076138471155,0.23726124830251738,-0.21438574174366998,0.4754435836770692,-0.3533840331886018,0.7703280712080229,-0.9705845979482812
0.5532774731913266,0.2174671524659617,-0.595838118321405,-0.8780794700888048,-0.3197336301255904,-0.5650901395379555,0.3644193881569693,0.7307137907332646,0.5347063598000299,-0.12214231808847242
-0.8263024532932098,0.8722289125752676,-0.852186535700473,-0.9446198554671473,0.19223059140249932,0.17934667138142157,0.015626370834732395,-0.7578602667801241,0.4263949232517077,-0.03371499878974227
-0.4143771530172291,0.09486030332043538,-0.8781067937107198,0.826347635603651,0.9028561269035693,0.14737078608436427,-0.11097676447660176,-0.9706431618575682,0.46567910684699765,-0.8152640132234531
-0.5543786027222191,0.9744519069430235,0.24928025365532913,0.8574597399027062,-0.8484182695006871,0.6178473752196703,0.39338738672709983,0.9762326960877434,0.4120212325015107,0.5961820096584189
0.48905734806421286,-0.3916518778879966,0.7860242366191781,-0.31288831617637336,0.39182114528108003,-0.8190877044563296,-0.25462666041262405,-0.6277758228708405,-0.4664571730955924,0.5066645229954596
0.5074797857257511,0.21004237809440873,0.9660239957283332,-0.49129492425400123,-0.4426510978699273,-0.1375280676730678,0.9316242894930524,-0.8464372265288334,-0.5216026902880773,0.136038479149295
-0.663924516418618,-0.6793420710667679,-0.32238528911892284,0.9414868713408191,-0.05606012141371863,-0.01909429953160169,0.5447315980673599,-0.824614647286309,-0.39762328580969475,0.2993674995441242
0.9030010165291049,0.12486935048168157,0.14897000722855913,-0.8046236766517292,0.35436582025233676,-0.3891834801020999,0.3377687151803743,0.7711259821607861,-0.24052949799938028,0.3290065030377394
0.9216407377157747,-0.2734462342424522,-0.8776880671668845,0.01838512109022239,0.46742430211117014,0.9686920619465833,0.8625237626313484,0.09288469936092048,0.4976124300670248,-0.713998198166278
-0.6367082390596677,0.614094386143712,-0.09796595449918444,0.8766057153221405,-0.232680176531453,-0.760511007055499,0.7304330679870934,-0.31300540161039314,-0.02709655191318472,-0.0820111601890634
0.6973529743443332,0.09610124828891431,-0.46286396032379307,0.3458696455708772,-0.06516207122070883,-0.81642779192999,0.9380170369350531,-0.28869216121886265,-0.6191354276133891,0.0528179677676921
-0.7401468277842542,-0.27658820782941185,-0.7777693351615871,-0.31806501947281385,-0.7447254865810495,-0.5732883374923538,-0.958636696084018,-0.6820242681531461,0.18799696546431854,-0.14156650688190975
0.9627762530794912,-0.43381639002400973,-0.6752301154800866,0.8651427730548618,0.9890393523398808,0.705749606870627,-0.10337241634645811,-0.21231367129132672,-0.6946701268603344,0.8991814578598814
0.3302050435650363,-0.7721925837660327,0.23042338265418905,0.11479282926857604,0.24609926993937714,-0.2448482349786405,0.9008813017340038,-0.6202815589914948,0.9822034740152323,0.7115894699586289
-0.5305888485530867,0.30317192738272314,-0.372044407388738,0.15637561620969453,-0.47754473182398594,0.10817351128282526,-0.9006014678165282,-0.3336360681049543,0.9278581726781239,0.21373880611845597
-0.9613780512362843,-0.8123659088885375,-0.6645282943680204,0.44843466094588424,-0.3710344970362305,0.08016715817892672,-0.7879371269490635,-0.7342939269280204,0.7508739263802608,-0.03346665086442091
0.6728239383520673,0.4314564261949714,0.12884069758900396,-0.5391544228647375,-0.25436061336069293,-0.8003395335030751,0.028591690538920522,-0.28128648027986725,0.5238643151008269,0.5580046953661626
0.9529160010266224,-0.22791591540916034,-0.3536583332844455,-0.06672542345443544,-0.9242889781625592,0.8523400933556597,-0.27582563864968224,0.4647342823641347,-0.31678625683858186,0.46570392658820237
-0.12625099619608682,-0.6007187700886262,0.4952341343977751,-0.3756792625871297,-0.09613257870515657,0.8269805063172908,-0.04956438557946474,-0.9242615797961347,-0.8083421137862622,0.3849710974276188
-0.8706557551274365,0.21594846553327862,0.9744570001586492,-0.4232316193151737,-0.5369607161464196,-0.4087577517531831,-0.4793641116114823,0.051100850802632936,-0.4531167702835074,-0.5459316615950205
0.2113944534115597,0.83655829941065,-0.4066809438682334,0.7379145122178705,-0.9150180585741371,-0.8434851312126724,0.06615094746431915,-0.03535819080734304,0.2194128408395981,0.7218200435102893
0.49595280704586564,-0.5874027134798963,0.46470754521538127,-0.05612178600335993,-0.7091416717155101,-0.7535550116464628,-0.49252934451092306,-0.48850198993998395,0.05853112827903484,0.5921884127303338
-0.5399727146428159,-0.5933140682025048,0.6433321495190323,0.6425654637640279,0.5707045163249407,0.6534996110343798,-0.3094181968976365,0.7739434243770817,0.7118527578478309,-0.1370494327443359
0.3316281745214744,0.1621584208939404,0.48813810564225646,-0.9001518944368473,0.25822009096984955,0.6040744703409662,0.9719743331957487,-0.4625016962147457,0.8472471132605432,-0.1894956995159085
-0.2865950512070544,0.5564698441761249,0.2951241517177732,-0.47581090293887207,-0.492460183335271,0.7572176949769134,0.3030329858254195,-0.9634859023755298,-0.44577927492423297,-0.8092185624897543
0.9480634980485727,-0.6471334633984194,0.4153966272984533,0.20827534843925766,0.0648731081834133,0.5501144175699639,0.00868091952828065,0.44966786995301744,-0.03229731585363682,-0.03106982406869685
-0.7464357428632262,0.6612445041859052,-0.6686646448473563,0.4091813324307436,0.5999925732908102,0.6360159255382021,0.5957662624946831,-0.30040269280921506,-0.8281206521843013,0.03343879267617855
-0.4340317972201433,-0.20494015725354597,0.8818881040694808,0.6070671077237852,-0.4042238101150071,-0.65597846866221,0.25194865716001624,0.6630435632525311,0.8991723354450907,0.5643718739545185
-0.610024765233149,0.8879486461238861,0.8067681636032915,0.6637404358458268,0.7295602437900752,-0.37589193473906934,0.36471638270056084,0.12044741035956408,-0.6386968297152835,-0.4453472589041537
-0.7592599716625876,0.2296505267389306,0.8147178755250739,-0.6889815166113695,-0.03697161647512481,-0.369080466983008,-0.9596269449418824,0.6572300490538641,0.015264059819532827,-0.6062423145600715
0.051895026780229836,-0.43233744330579815,-0.744691225494087,-0.6839755725787686,0.8238006737614361,-0.8069627634327416,-0.36520425590877414,0.9150103596184369,-0.30358598007614346,0.07527396494390381
0.40057651805961747,0.3913942458394202,0.7544514342940434,-0.25183642654990746,-0.33575894209843593,0.3905610631104195,0.686767368639625,0.2508939761860278,-0.34636122214056464,-0.2438165252455029
-0.24306679832846223,-0.9652393071556954,0.07696585980385073,-0.4036598179870442,0.79175934705932,0.9583568119827246,-0.777468458926524,0.479849970485001,0.7614476902886689,-0.39992398004005847
-0.09080482529456824,0.5777998328289691,0.5251606012773369,-0.16879901078576554,-0.6592657560041195,0.2851171451459884,-0.7187515577029819,0.665175996938409,-0.05357418175919604,0.38120773952580866
-0.7410047234465889,0.9121785642417255,-0.6805913135052086,0.6105792855239307,-0.005180068699812579,-0.6661123409769982,-0.9808035621054199,-0.2148767820557992,0.774859382596977,0.11094342871264784
0.06346817596184229,0.786122997537398,-0.628405489050186,0.4507648234597268,-0.1117638205397371,0.8391976230572558,0.5584526424954932,0.5140634210218884,-0.07420952485310706,-0.7589990480851961
-0.27792551863027226,-0.5221829665063056,0.1428301922482449,0.5248574545854161,0.8390100025457701,-0.3595291110489718,0.039248160841572455,-0.3672449291990192,-0.5056301300422095,-0.18511957421134906
0.03299026110108749,-0.164414303194922,-0.11446191551024343,0.6272792958851166,0.5546651014718094,-0.39588598212941306,-0.5686043396224973,-0.5994960679434189,0.1778454730462582,-0.031472583398886034
-0.23379023403835375,-0.9328501126967003,0.5720371275648326,-0.08009878664911052,-0.8504867447347355,0.16205128901671872,0.40577213105146126,0.9894446011813789,-0.7715473201762822,0.7488153045776513
0.11603890427713615,-0.5898272669854194,0.26474850278835094,-0.43363723203129,0.37001863687167247,-0.6962767664481817,0.0792623530607055,0.2702722202615455,-0.013218703863088876,-0.4686608748919707
-0.6144416831391308,-0.6023900083786362,-0.5318886542558947,-0.5048065699869511,-0.05750439807239549,0.13114288992376721,-0.8955461096000338,-0.34725143712664686,0.10424065285957007,-0.5475450393174568
0.07826342504507866,-0.5167666930622743,0.20333780190103745,0.7702179323120177,0.15046854577123647,-0.2622965740997176,0.158665135185879,0.2979156918471446,0.8959438834941478,0.776988262939404
-0.9774391752040124,0.47760027676941785,0.28157382905839956,0.7458191806594932,0.5263635731595679,-0.546992574610472,0.8268446338601725,0.3824625268330193,0.8229712873760999,0.510748424743507
-0.7454123952954339,-0.14128539281071173,0.20936746523361682,0.6176654421222763,-0.6055881360206807,-0.8153704573572914,-0.12870071291773733,0.7342207959451814,-0.8401586235667516,-0.7033429213162157
-0.5980702478756217,0.3361570032885073,0.6742523482539666,-0.6385930742994865,-0.2156744165096206,0.3411778201149078,0.6863707270461672,0.7707426673146038,-0.9087811907038749,-0.2811237633041044
-0.6564274303161366,-0.942030964526828,0.27221192653158854,0.15360140898677144,-0.18289022839406277,0.15375099782430524,-0.8937208887637653,0.06751587765803757,-0.04476718082210174,0.8641227147894253
0.3572211630853763,-0.1775456217238739,0.5616688539168941,-0.9717838535566052,-0.26722156387453244,0.5115475458888292,-0.8671536673466261,-0.28727336412323223,-0.836480484053182,-0.8515581952688039
0.7520781981440652,0.05949949459602011,0.1654468440742256,-0.9240245347393702,0.5534975035036389,0.9405599641629738,0.5909397792105251,-0.955679005271861,-0.7193448172545946,0.061113640866771624
-0.5626383081529727,-0.6959825962650841,-0.48091600976127924,-0.07614951547230675,0.002892347823153285,-0.24726139852997087,0.18987766934776218,-0.14582109822568856,-0.24792596037470616,0.5718911268869844
0.769152109034974,-0.5603392336417359,-0.356281831927053,0.24740463136390134,0.3793970591351725,-0.26098614729092706,-0.7488650031915618,-0.2658519987228162,-0.4988126952848978,-0.2877344014419535
0.9855078053914277,0.37045578006883306,0.10343664055551938,-0.0760378139763297,-0.4238162449847225,0.41250180514841506,0.38292489211706693,0.7414941562742201,0.22980580202295764,-0.7709988530428404
0.9666034592597208,0.5055300257448259,-0.683274011463999,-0.17268969933138145,-0.9222949063366785,0.21226487910287006,-0.4002434951027706,0.012459056858755702,-0.5861752388322025,0.96669157523594
-0.1053316828744707,0.2924388825533182,-0.6826976778485169,0.30122788366256836,0.3244006911019708,0.4723905699034676,-0.8380633739906824,0.7749584189522261,-0.511218938409619,-0.7125363120859011
0.582014092685831,-0.6734857268693701,0.37831297879908043,-0.4231647715932405,0.5433725378460597,0.6396895900129778,-0.29381125609329606,-0.9838897147603165,0.631114334136645,0.04370243952338537
-0.633267370946619,0.21584022511322987,-0.7688554553783294,0.05756951591851722,0.7974486684192041,0.49628349848401876,-0.5013771053424729,0.8303110352329064,0.15809963929166693,-0.7292495013429354
0.09951642435744668,-0.9566098544772886,-0.3038375407692909,-0.25550909350986684,-0.25061260742308766,0.24508800461226166,0.9460913259260448,-0.2888461221106998,-0.0417949014095601,-0.8147793505494003
-0.7891688505708859,-0.8321056959083697,0.7821423950323798,-0.3297895991088986,0.014150519499261938,0.9804486623717359,0.5089564278521741,-0.535194024655644,0.40327458562820206,0.26734531225400926
-0.43126517274838927,0.15339364748067497,-0.24968852969608646,0.13500288670003013,0.9725979260068636,0.16661423306599144,0.8804535049154452,-0.03997427355051486,-0.3818831676320811,-0.9670489475900462
0.8192830391782366,-0.4718093707774703,0.7992969600448845,-0.016261130334052076,-0.6239898457251324,-0.962175408505364,0.5845078767963048,0.9599962994251032,0.7527795600845628,0.769845215374247
0.4473570662313462,-0.45207426353386704,0.06640714086751864,0.3820874869501898,0.9229491515140877,0.6716001669385689,0.8477680092561968,0.15492310882928484,-0.44139986945502285,-0.611580773502453
0.5306162341410567,-0.4968301130618452,-0.0279002611783975,0.39089035903429736,-0.8347405324013543,-0.09700077563133047,0.35632846003474117,0.41594470537963213,0.830577490326629,-0.9864627472966603
-0.8281061869249784,-0.9564656605227243,0.6103935618470693,0.14138516532796985,0.7013309229997027,0.642968474241717,0.9456371137446984,-0.6917294332403022,-0.5577870830827202,-0.5317636314858776
0.9127155866632364,-0.9808145589422459,0.2243930097939122,-0.582659576186281,-0.3492337348258453,-0.4588088484673746,0.5319011646982872,0.8732364498179426,0.5153191027130892,-0.43444958027871083
-0.043753272688597966,-0.7343957766314388,-0.1365744108877096,0.42347910419814117,0.1733230099283165,0.45897276450737645,-0.015859344606413917,0.8427831050015231,0.977695961700918,0.13793754611877374
-0.9739271881260824,-0.5019725423593959,-0.6677249797714517,0.9450896417843904,0.363231463426521,-0.18885652116325946,-0.16639598580408022,-0.6248547995251901,0.14282040806731122,0.4574507426817809
-0.028141080433475185,0.674611833950935,0.45284966716338104,0.6478982365898629,-0.4481415120091491,-0.7910803263166847,-0.11229427774608625,0.9849978173174148,0.3001262733487631,0.9154947387135723
-0.7155664775306305,0.9168421813159939,-0.3656600014004203,-0.7173809347924309,0.24377158196549686,0.9628652651362664,0.39514948902129987,-0.43204938719816055,0.6584388704281288,-0.36814892140766786
0.9024390542700291,-0.8654864004631193,0.1883101821773463,0.576864435289735,-0.9539430863564435,-0.6478713045761338,-0.5723473560693202,-0.09012808848857179,-0.6176544810454081,0.36221789407091776
-0.4586462986023393,0.4751647186610457,0.8244264218053552,0.30963698742611157,0.36456937984591153,0.6449201030261305,-0.4613606304478456,0.2939134781589128,-0.8418131232045867,0.005164727727031249
-0.06705833217403434,0.5625400100926579,0.7537503026193377,-0.5128857046995448,0.39548719118474707,-0.7846625013753061,-0.11554087153122095,-0.5573584983083174,0.4263001594970721,-0.0794940329676238
0.9262155902452431,-0.5494901010750203,-0.5336230667812167,0.24442736505335527,0.2923664098055565,0.26478964915621783,0.7959126705229007,-0.4679999919588428,0.891151836670411,0.5154979534937745
0.720867678062314,-0.2925987837131424,-0.7452202870211222,-0.20573640303926288,0.15538689206532386,0.32880264770365875,0.6718632653379719,-0.7979020725475313,0.5652670085553806,0.8918393497655999
0.17699153621367425,0.8472967592030574,0.2612404751986732,-0.31950536289103104,0.7809543258296385,0.35036676480388107,0.4870574395714131,0.36225452963573157,-0.8774710806787339,-0.8057932478905238
0.46400654427114696,0.7440601515022711,-0.4967747030508355,0.8530574723271378,0.7632694911954023,-0.2096650679451718,-0.847868498033759,0.2299716251697126,-0.404150273375836,0.1217408259215167
-0.6086414530468706,-0.6772990611907259,-0.10868233564692098,0.2141856884937563,-0.6708651088610899,0.11751761623869572,-0.037517220876462365,0.4203033666913829,0.4646367613147335,0.6851743765599128
0.565559914687028,-0.8518872116581229,0.550753086816627,0.47901333998453843,0.48575026955824696,0.9853766949159726,-0.011318030518140287,-0.5802585396058584,-0.6995314778343928,-0.23412711330946034
-0.8763734034337564,0.9871507397025239,-0.3446616217498095,-0.9169631283642163,-0.6725657014430928,-0.7273336585998649,-0.26021836742114657,0.821361148771462,0.19845157021177262,0.22701972339063836
0.8559876137077627,-0.4219905296134697,0.8887087722049432,-0.9613594909484294,0.4368714394166089,0.8120980007037018,0.26343998946085523,-0.5553260230758459,-0.055760145257111815,-0.870305586301933
0.6073874498348362,0.3607831552485026,-0.5316217801557293,-0.15984653277921412,-0.04008275532655203,-0.0031434790538656943,0.24175731267498302,-0.7998986856685516,-0.9089892449012471,-0.8744307637513782
0.07349541843262974,0.9458539381388467,0.5695044997740131,0.09415945631906752,-0.668188859420988,0.7276724482022245,-0.008051620279025062,-0.8175192433543992,0.6158062333961651,0.19880341902130683
-0.9146259911104289,0.7945825290650059,0.17193972950854186,0.5240796352416424,-0.593066696322603,0.8921679728675971,0.8576621452108983,0.4238493420099605,-0.8418217057238143,-0.3821381567465516
-0.9526384579512828,-0.01651350863923462,0.8686403497917425,-0.08964834533730859,0.6166129783789673,-0.819424196617975,-0.5089211464566037,0.2626370374054683,0.08500304435321726,-0.5327419916248315
0.6469804233371392,0.30965113308186987,-0.7150996471777971,-0.1741113470835881,-0.5267685061673688,0.42373570490059476,-0.6089530218023802,-0.9709874085894329,0.4855592443297374,-0.4721375129472244
-0.2352101228204101,-0.11907740908213238,0.5658730294629744,0.5501271376113515,0.27842853901427733,0.8515850031962824,0.7307382688548938,0.6092551964543953,-0.7232724916437371,0.6724628419707495
-0.7746052977780501,-0.8598311489695749,0.28175091497952875,-0.1550709261324047,-0.828157993564606,-0.8858001693493343,0.8379516202717008,-0.593539307306078,0.20803204862501956,0.9358924446069581
-0.2227368616790616,-0.8643749704799568,0.3337550476957678,0.7972408893745508,-0.769705049895497,0.6180138988600514,-0.8103263069831419,-0.5230166883283243,-0.27074373744893654,0.32517994172036224
-0.3592493929150784,0.8431602497899329,0.49563185441738944,-0.5970587869711862,-0.5174226919614797,0.914080864498751,0.5274332391324528,0.383571192474369,0.28114916427913195,0.9831360340369699
-0.003199158048713846,0.06528496632120784,0.9164565344487188,-0.6836513689962296,-0.2352013795530996,-0.42487333089061996,0.7216399513894214,-0.16939187391632815,-0.5753104780131634,0.43817051056164136
-0.13889880253112186,0.2771974291732926,-0.39443347428888,0.9843946442528269,-0.005990965983120211,-0.34935502647149697,-0.9326414162309742,0.6160315113606225,0.8507315901163932,0.9437044351944839
0.6641645801831699,0.5276613092798372,-0.8178237097136529,-0.9162186064063773,-0.25141606106716297,0.9351362186510837,0.4435059878559606,-0.859164152580573,-0.9724719349060124,-0.8627441323911623
-0.5550604953118083,0.6302199894956471,0.9289243982471778,0.37003046127609673,0.22287595989401132,0.7937238328281992,-0.2863686343540084,0.4518366018784541,0.1388325511826094,-0.6685558460985503
-0.13208282731210963,-0.12061572173136625,-0.20294998594850455,0.47185761615622934,-0.3984169459926784,-0.33207005844184045,0.5572067273160752,0.6134504235836069,-0.6516482615929764,0.7808567005393643
-0.00995715420800114,-0.8720775434327723,-0.07399719310400876,0.5778418387697819,0.8914716740035764,0.9133149833232224,0.7619316443563449,0.7341351100085567,-0.5503902552653102,0.108430555407389
0.6782807219525939,0.08014481507068161,-0.07458698856182333,-0.8074905189421646,0.6584249824595443,-0.6831356044627215,-0.21144705989972923,0.06003214283473035,-0.9483802649533744,0.8609204299027096
-0.27323866488886506,-0.6550505501796126,0.7630947668383692,0.09639271746066624,0.04478000130352555,-0.6596683048451824,0.9654504244356663,-0.17957339784702042,-0.141425034651268,-0.3725262644438393
0.5504153127920814,0.7833883576668101,-0.3620116555222578,-0.9662011452849397,0.18815374607744073,0.03918514494409542,-0.8235387819386327,-0.6569940551052552,-0.11677769145259709,0.11680058492494916
0.9633263872648745,-0.6766600360764752,0.5275174705551233,0.28596337970362673,0.35612154575669,0.8749053170128414,0.024178442412375878,0.3598679134033791,-0.3118140785453306,-0.4509964403812562
0.3091446841156542,-0.4589713341239007,0.9395438416221416,0.09793761463105932,-0.9167481417274722,0.33373724531533844,-0.5181013661951315,-0.44383685849616517,-0.5550225109000616,0.8219160091484878
0.599828722582159,0.3871539066408731,-0.7558727519938213,-0.12618593799070799,-0.575884702431351,-0.4870681474781503,-0.7607201260789163,-0.3665525166681072,0.21120933341101789,0.1698517213038071
0.26789988194228354,0.7821442562022971,-0.5398724790379787,-0.5838725054032092,0.0025504355288991087,-0.9205598972752309,-0.3470438598522506,-0.09774428830735837,-0.6431035689535356,-0.807660263537826
0.44346127117135015,-0.2885347431156482,0.3041212595790268,-0.12841421922797114,-0.6286539849481776,-0.9660774444847094,-0.7052282166197494,-0.47674735654280553,-0.8414433266374165,0.0447320131919402
0.1928363572425389,-0.5388341769322339,-0.038325581461863045,-0.23337853114234297,-0.15555700407284145,0.9691620331422688,0.7951564175208039,-0.46176823238009435,0.9357436180445318,-0.7954619319429831
0.9120812907503211,-0.17189331518509166,-0.0009821736550742477,-0.5813917114222917,0.649606596002595,0.1436305713918038,-0.755611619548586,-0.38953776824991704,-0.847890677971273,0.9409212068148334
-0.022689742575699,0.9610019068197104,-0.9236729205718531,0.5805093656609539,-0.31643221616744577,0.7940497124953914,-0.611148786850207,0.3529719499887862,0.8945378196649907,0.22616958755940542
0.32706401603622215,0.1594812502137004,-0.9242341509162874,0.97137823210881,-0.4773659686531524,-0.776878153440157,-0.640519952765987,0.3508684398488737,-0.7007829327888484,-0.3740262736211277
0.8124103721757512,0.7680884274916824,-0.06277953293174798,-0.6413111648439307,-0.05059070220476691,0.2784146310833764,0.0951935988682504,0.3047386957436373,-0.029781910578411397,0.8391358693597404
-0.8682077542196345,0.9449631602175499,-0.23921517583403795,-0.9431074844736294,-0.31285508627202885,-0.35975683932653735,-0.3986151433065924,-0.01042198416578688,0.9365151151020141,0.5107700846098433
0.4748204350627723,0.7171102596623982,0.7901394572185618,-0.5303847174809952,0.6908412375154798,0.9802495640723983,-0.9804414407093298,0.38137069341527474,0.6427755462566354,0.28765396124313125
0.5640276115224985,-0.6417100814424734,-0.2757494181688528,0.5193972319439057,0.32185587031794305,0.6644577963905598,0.29077211061426733,0.9609899923022005,0.36266196210048895,-0.09100552992966404
-0.08493206080877846,0.25448487503861217,-0.5233521069406429,0.6164028693201178,-0.3060976662682495,0.455566137245645,0.40232925412119447,-0.33836967103036475,-0.06806765990948516,-0.7884660537786301
0.17300745271812135,0.19410341234607142,0.8543691182435149,0.43758146993462455,0.8470285049717368,0.7002143692992511,-0.30501333066311687,-0.39700209320929025,-0.6721658918042852,0.15848665379443094
-0.8683387212463718,0.9234327390819643,0.6454280874473166,-0.43322288101893847,0.1683985526056122,-0.25050180617525797,-0.8172468812868177,0.9820334501126833,-0.5499831778904098,0.7727011153261922
-0.21482607168839596,-0.8548445827785084,-0.24670060388111448,0.34656119361294935,0.16983928679680282,0.17724657982453973,-0.3920034220521882,0.634527757752106,-0.8572748930273604,0.3674176801575826
-0.2441571067888445,-0.6410825544885812,0.7739981780822944,0.5859139471052939,-0.19864638479629426,-0.6265037428628653,-0.6391469696490528,-0.7431688830461314,-0.18080584929466237,-0.4130243513522919
0.6696516553522287,-0.7975091830090106,-0.3898114050267446,0.6471276463647375,-0.3306681564383884,-0.27842158475391865,0.47555225283467584,-0.6767139502781478,-0.1649626517509769,0.5680186874931648
0.3577666776803856,0.45070117977082,-0.08587783203484944,-0.3670638343512652,0.5552125232146525,-0.8433707836034865,-0.292637355626822,-0.0279079409707903,0.5398936831582479,-0.25710874907491266
-0.7262843070841907,0.4387865973428684,-0.35838367311774566,-0.9585159146301809,0.31964050365093644,0.7112029499184989,0.4662182873921661,-0.2671758653657579,0.2958264689942631,0.592075537500864
0.5479865059317477,0.8290814138422562,-0.7980957105377835,0.31309971871310704,-0.6774573945080254,-0.28455666401114854,0.8992727115002861,-0.0710776252087516,-0.6780970556288554,0.41679090625093984
0.6482917248467959,-0.32584306492134263,-0.18982505204086686,-0.4543730981296986,0.42531592450011324,0.4854211660985548,0.2823801417749161,-0.6934935183102207,0.23076673160305017,0.7559946044583343
0.4113247795473336,-0.3245620165411347,-0.42939383695372224,0.16460457868654887,0.0913282764479999,-0.22902705020631398,-0.9163598557566879,0.37417066215932926,0.2620276979814178,0.15932305961675963
-0.6158068069443501,-0.38295369010401725,0.809402223631172,-0.8164866662764654,0.16492637975057,-0.801361912551446,0.8720930143509711,-0.6000649367403648,-0.8129932902724384,0.8626373250559922
0.6020827191688629,-0.3022116887758475,0.3571084229192125,0.44276471038525966,0.8295333923769508,0.3365071829512132,0.9672980834567975,-0.17461619031436504,0.6247378038970353,-0.7443785532858036
0.3613700142037246,0.9075566947233933,-0.42979447640753343,0.023352537185777233,0.605999478955181,0.5559071586179205,-0.5723353344745314,-0.24224220156455,-0.5752635691338432,0.9783684375087514
0.25639455207925077,0.05081919506808941,0.3990202097253712,-0.9468461672261231,-0.13711559262896378,0.6301616072284983,0.44375684554666894,-0.35523736273582174,0.934535350395181,-0.8781731245912997
-0.04956649120470791,0.3379629867130085,-0.8829275799654432,0.23798122618452822,0.31092699789506306,-0.518654645187134,0.5319965122947248,-0.3516983530284874,-0.4124001758654061,-0.7928369074383164
0.18849318090444367,-0.44605264530333777,-0.7416873088295409,0.38190246088783786,-0.2296632817044707,-0.0865504550230839,0.40817678810171687,0.6768861907256776,-0.400542111324772,-0.6896626730249373
0.60128146620825,0.576837237661689,-0.12904005828290788,0.6341997318436992,0.10015758515732576,-0.5142524080008235,-0.6495697379878653,-0.38876876013638195,0.22297169726035437,0.37824106967833715
-0.7080299975473434,-0.28923416249300393,-0.5434958469096668,-0.9262439613802361,0.559624645471821,0.2898053179476887,0.5949059596514719,0.8483214312230718,0.5595248502557657,-0.7550278445249496
-0.8106456972079122,0.7388502077812142,0.6662851275146153,0.40434974445961847,-0.38571842782032695,0.547919415867083,0.4036469751898435,-0.8494417983567607,-0.3257173509982957,0.13659314574884984
-0.7400327130202784,-0.14931940054776582,-0.9699277243097199,0.7052309274531616,-0.30444162518024054,0.7735508844902288,-0.5836302433226679,-0.5832225730036875,0.6223497179792452,-0.9584496092646612
-0.8545450032660169,-0.6829507425523633,-0.8987084404054319,0.26455078661287934,-0.4173664944303571,0.16271944960744844,0.7592797378116944,-0.3076481884492437,-0.445949358274796,0.37922050589738165
-0.21988764878137357,-0.6267032421008136,0.3019385877466685,-0.602083632652342,0.9042036761098735,0.7024664605801212,-0.5221122138886409,0.06988780611639767,0.5616224176268907,0.7663451491504953
0.025785769772497247,0.7593585688200817,0.9273973098414476,-0.6170214497073483,0.9199274675092519,0.027412450442866332,-0.46121358710507876,0.42463112020227145,-0.6085422739943828,-0.2054064369169495
0.004129259693870124,0.26726669655629864,-0.14486651666518802,-0.11983010813664219,0.48469213736804373,0.17134756722803446,0.7091504872847074,0.4782975126862521,0.11895880529582059,-0.027968510651415812
0.33936740264071164,-0.6643312468300699,0.30909297034011174,-0.8777250710552096,0.438061830867694,-0.7036325008732308,0.37023187717794737,-0.4132427190609068,-0.9725858229189247,0.16659187313111556
-0.757101572436685,-0.8450675308311585,-0.5223991677480293,-0.5628412436379665,-0.234322366876887,-0.2549753343144353,0.6247239706926488,0.9143414217503125,-0.1906476791898044,-0.9153161933077246
-0.4536022704823285,-0.9281924664045947,-0.5049686930158048,0.10656564887783415,0.46175869782891543,0.6511538073538798,-0.5661108831207053,-0.43474502293769257,0.017034817650678047,-0.7974815515084887
-0.7071111760337327,0.16857190133658273,-0.6763674554442685,-0.10798761958679015,-0.5344811341504773,-0.6446667729571882,-0.22254972370907344,-0.6395086469396432,-0.6220128866753434,0.026009729797951797
0.47789913133454376,0.9728674911483493,0.7622164915477609,-0.13130855988064016,-0.3381332721185354,0.676046512217604,0.10486946107011574,0.8417440281328106,-0.055088033244325985,-0.192324494594438
-0.7101993150421495,0.8966250363903236,-0.7738107376015368,0.4926888093294013,-0.8661346760014725,-0.2670248779871405,-0.07960155985281792,-0.08187122198008989,-0.05859650023060692,0.7775876166107969
-0.16430565467255387,-0.281571946262147,-0.5475601267965873,0.08781008572226146,-0.07199319596294085,-0.6838397132460365,-0.13804956012694003,-0.63273402688813,-0.6317783921224365,-0.2482306207297561
-0.7776553877014482,-0.40267325856913416,0.27839622434918265,0.04372017857061716,-0.2729177850302107,-0.7467436768007065,0.8150343814909544,0.5268009461902659,0.5817840365269835,-0.9278930337303629
-0.41479445739455134,0.5489136725100006,0.7717325015603074,0.9006992586152636,-0.061787963906919874,0.5360671443594511,-0.7723582065711081,-0.8777189335268759,0.7942341553580319,-0.26518247106722825
0.35595084480103156,-0.5449801524714748,0.47222566518411213,0.038947093260399024,0.1525727198145328,-0.9324557294204875,-0.5665227878584638,0.5810080460121032,-0.2398425248331164,0.857290390649809
0.7071244185069798,0.0939248555141945,-0.11405872439727882,-0.3572936954074374,0.7737792604638283,0.30436302858026787,-0.7455343227703937,0.9718246028318056,0.17704160441987415,0.5541411994517933
0.49381838133368894,-0.50636828936985,-0.09785372243608759,0.34228528960011717,0.9516094693067605,-0.47512059602947887,-0.601881531196761,0.12098677235267719,-0.17425480484749156,0.10964889166683522
0.5648168809871266,0.8631356859426054,0.9591466493363541,0.4810267135475874,-0.7983684757397864,0.46137467984155145,-0.3093821361557847,-0.14902923570518856,0.3724598431162969,0.887476940768664
0.2826734271574034,-0.2757996723491294,0.5556055319823712,-0.33005429300506983,0.8448008236269027,-0.72187243724163,0.8757502302605098,-0.6529818450973521,-0.06514570285718879,-0.9232716896470597
0.47607770963811613,0.6703795143935751,-0.5394031746302114,0.9558573006168796,0.7538020727353907,-0.41900569224443407,-0.00614933225391745,0.3999801147910096,0.26095064179002136,-0.49617625399229304
0.19291332745122225,0.27796696100843454,-0.9324908172292176,0.04652247160314671,-0.5721450107291997,0.5591037371955767,-0.6192959633576756,-0.12510500879160258,0.5019880681904747,-0.7573285817105804
0.359080327099097,0.08994923012878675,0.23458016030996354,0.8612341933647882,0.4656554910308992,0.3186601506082456,-0.3525786081418132,0.6872687452261657,-0.334900240059138,-0.2514267589321756
-0.5070399426922321,-0.3350239130962682,0.019787925576616017,0.4808162492481405,-0.6165207587123831,0.8236129366004286,-0.8565017647094582,-0.2705924437898939,0.6263791885830139,0.36126480860867827
-0.7836974704424038,-0.34157128030973316,-0.1655449018194246,-0.9044775272691844,0.16815274987804263,-0.168514836346925,-0.4648273989094044,0.07724254467177927,0.5405883427287577,-0.020117428649097047
0.5798078066236367,0.15337080343560316,-0.3730642967726404,0.6699890006259444,0.2119750801238922,-0.5693379150597354,0.21772623158160154,0.6232667481506324,0.8885110133998146,-0.6489456082462206
-0.5817287923879435,0.47378131226755604,-0.31452786218236817,-0.3396372738217409,-0.7350268096010929,0.6829149867296962,-0.3731382122602712,-0.9232935888728824,-0.8113667654765011,0.214898612781534
0.42307378024828624,0.3018613753294579,0.0603400520909565,0.040322277049044564,-0.2659733466951766,0.6382499348082613,-0.6272109999131723,-0.27000793319179683,-0.04033177692404377,0.1891447027852735
-0.06001801845932886,0.9141409284304078,-0.5380230798337358,-0.630763819590567,0.3014577161504435,-0.5408329697896885,0.906548414064432,-0.27063424394643143,-0.9874579786469287,-0.55022589027827
0.7697694259602355,-0.7466699517138209,0.5505373751971607,-0.4129000611538918,0.5375308917295873,0.2222782968814916,0.18180803761696374,-0.36815121065232703,0.2503209680823659,0.010952733402870729
0.2585256900366715,-0.6852398086352266,0.9689196212429936,0.4966605512974178,0.6796758635341706,0.5181495846665392,-0.7736943284568101,0.27497833177354014,0.8964214589515833,0.10227408807379179
-0.4197613745692673,-0.8246759138843831,-0.5947788796914939,0.7252379406189042,-0.9246880054264449,0.2804960234036893,-0.19857591952861164,0.29730858116496317,-0.1631641620610389,-0.6472353846751238
-0.7438607203855048,0.5386664982359026,0.6547610604098788,0.18974341322853516,0.9398576693932263,0.4396807708801993,0.21071602581152282,0.24341530124242583,-0.4222669299638131,0.7248622104106948
0.5499919828075805,-0.6635743893245337,-0.909018907185542,0.5693560892249783,0.8558014772096885,-0.6741338028153194,0.26376763024223737,-0.4375484066795782,0.34110210584168366,-0.3744911092715131
-0.9503885872670287,0.9650541372903823,0.9771303510245866,0.2736611171661467,0.034213341449680135,0.5961868492334075,-0.5094848106885085,-0.6577954987946573,0.9713848815835489,-0.4709465684273758
0.12784814814176482,0.3501751863373861,0.054866599824652695,0.7875304924399598,0.5488324143458185,0.9650882958363847,0.7660787392909172,-0.8778319471874377,-0.24330105113404688,0.35164495544694807
0.4794070451762942,-0.18529609839393568,-0.6462349785752257,-0.8099470773381818,0.7179488684244797,-0.8540640974509479,-0.30392768835420336,0.320553984757864,-0.11551386986945145,0.7629090757232613
0.933007310442834,0.26554874741733725,-0.9231145664601793,0.7456994095900236,-0.7951756329018707,0.8774290799112983,-0.7660014207746069,-0.22455384481251806,0.35092696634514975,0.04959687987804284
0.5582129591114864,-0.5642178398265215,-0.4354950662804501,-0.32403705171774866,-0.14231277319498614,0.26483232444349536,0.3903094127130895,-0.07759918069679339,0.5583189381307812,0.387435044329014
-0.4855513494849122,0.4232527222129441,-0.7576747517854472,0.40586727355009566,0.5327371726087409,-0.1533788722243743,0.9304537407508515,0.568641079609608,-0.7052789465908462,-0.527429886684606
-0.12967624654728493,-0.9179441972751345,0.7103066211750626,-0.9117257307009794,-0.10011211036862577,-0.8045032655424769,-0.6083667470709464,-0.49409217860744087,0.28231944753703053,-0.6456402545651219
0.2819995597881404,0.6565191507853794,-0.7626131194680319,0.2707785549036792,0.07322118342883366,-0.6221456828418728,-0.020611695283319076,0.4626341134945098,0.7991985444150314,-0.8365585209846829
0.20491576477988716,-0.20845877304876603,0.43455018040434146,-0.23153376221585997,0.5336293857932017,0.534555389473945,-0.2079492345785765,0.8896941298454968,0.30105342014897385,-0.9473928226383608
-0.6954399492296397,0.419685199210345,-0.222698386324648,-0.27936480717133483,-0.39266239490639254,0.8088803245115521,-0.24422789411000057,0.7503682791897162,0.3059717671498585,0.5335732608222636
-0.6596077697621626,0.7418121241030509,-0.08244199940542474,-0.5572939549581047,-0.008897396914640088,0.15062989165340546,-0.446030843219857,-0.026462195064998584,0.15635416590324702,0.4446521406195063
-0.6643194195351814,0.07561527564695858,0.2575124057252465,0.8388274934914424,-0.5901036271416695,0.6143789828815973,-0.12965173177254363,-0.7600905888851124,-0.6622878553884015,0.4502563906013788
0.13057210306759126,-0.8758619370983136,0.8901700834675546,-0.8795229027012058,-0.7088130909219625,-0.07010225973082074,-0.3902301409397433,-0.005664588229550516,-0.33303196649833366,0.35183151789458833
-0.6007892091135717,0.2869722808657671,0.6874296173050634,0.31170657553737624,-0.10089009755117273,-0.5695644871284151,0.3474736159595899,0.6212367557292273,-0.22011245504501165,-0.6702160435740031
0.45762116634031047,0.025569235210137764,0.5204110215024373,-0.47767055364193745,0.8816405725069338,-0.7765636308160997,-0.8532474050655653,0.5780284436344054,-0.5420561818127138,-0.9071202353061792
-0.5593489948342238,-0.22222833349979487,0.12455479321879648,0.6199585416816518,0.2928398983908751,-0.8779670476211571,0.19459407481070468,0.7167352534761837,-0.9443577775150486,-0.8659879603808265
0.02346627310761895,-0.5643762424183074,0.6759451260548659,-0.074284157170876,-0.595878577646983,0.27248772880769145,0.24441491510844982,-0.05309643050649815,0.4440216975484619,-0.003983942607559965
-0.5829292767049471,-0.146963223734924,0.06569278472207785,0.7876594011884361,-0.039034514716410285,0.22371492025369966,0.8816126241522002,-0.6121611812278311,0.5184321519719708,-0.15644683126102554
0.18765120275131397,-0.5848001116912955,0.2935281231313003,-0.1550729925914045,-0.03713416054196195,-0.23169652662999973,-0.74038152763599,-0.16219685201097833,0.34450692095781354,0.4993431419362333
-0.4236648703679783,-0.3582214902929991,-0.21910110364550217,0.816365114686955,-0.29228437614768976,0.013812647537933875,-0.26725864441076486,0.5979791461465862,-0.13680897178787887,0.25199677045686775
0.1365626943020266,-0.5879637858168861,0.10905557617066064,-0.8691863396881656,-0.03571650806349913,0.11965900201936974,-0.979894423087637,0.34799247919728327,0.06648937059539661,-0.6005747947027922
-0.7257720576674993,-0.5638354424970751,0.5497060963509302,-0.7143486395750349,0.7513911121932801,0.31857127783245387,0.4718462622162656,0.11650847223363536,0.7898565796998311,-0.29156194491238274
-0.4095902289923189,-0.4136906182922281,0.5399513960709812,-0.3402532277894076,-0.5496821144528321,0.23963692019268312,0.6462482961252536,-0.38474971791740487,0.08152038912372483,-0.03168748942363786
0.9774914363938099,0.24174923547881355,-0.46804039875029013,0.5337006277557861,0.2593532306429813,-0.1388414749817033,-0.820171790815295,-0.7923669900321795,0.46642219578970057,0.7229429135325764
0.17787429850226322,0.8360317748738737,-0.9351541311573441,0.32620249154395653,0.9644878021700811,-0.15192253086031715,-0.497099220452364,0.1964013233384394,0.3227161308196349,-0.5098302556046017
-0.940637250950998,-0.08461272983247103,-0.6695332366668791,-0.4035720540402581,0.9226580380679954,0.37512558005649255,-0.8237382936744071,-0.9262523912613164,-0.10217485609244759,-0.542482634725397
0.7455285384189154,0.0020501286116776374,0.19409648976240113,0.8445992960682172,-0.5696461597671375,-0.4229860345047428,-0.004903843537831465,0.8986691413881802,-0.5795609747281667,-0.8734647105635426
0.033392955646889044,-0.41714039584504514,-0.12257101697711437,-0.8743997735989372,-0.9179821221168124,0.7438953295413528,0.531661372758883,-0.6532678553261871,-0.6584851146189261,0.7032130041241393
0.33323990980859985,-0.5493727549406954,0.1265347358761162,-0.9389054538571096,0.4221263012816394,0.7716282730804143,-0.11973432370947301,0.24649269305508614,-0.09157826465908725,0.810429199707557
0.2403291913454937,-0.10296440184478228,-0.5245680667400574,-0.18851585006361526,-0.3611923892434875,-0.8301600596992027,-0.5927174735364711,-0.4709410489555015,-0.6970826122424343,-0.9262968914098888
-0.22160124468793962,-0.3391444351498514,-0.9252217606516772,-0.42930942452955634,0.1767621354820379,0.8824838056900841,-0.6977089227479479,0.7014380491676473,-0.08945103697260748,0.5974649676858261
0.407852569059185,0.9561692879580661,-0.13285467013884633,-0.2785513328640856,0.04435976217167603,0.41369813805747424,-0.9135115179351689,-0.3456526159680716,-0.5415077091619835,0.6119188662044168
0.15364379304981002,-0.1713778957788754,0.48744113585064075,0.700691235090356,-0.6093449146546244,0.15518408184331545,0.2007663801214239,0.5190846697061753,0.344502134957396,0.8030590980842107
-0.6058105159400886,-0.6329973182315847,-0.9888942429175297,-0.13321713385612388,0.6650894693858331,-0.5357036213982552,-0.18523053018113644,0.24655448123291301,0.8261077961017713,0.4180767328697905
0.9266830027345989,0.890088482950512,-0.7668766532580563,-0.18576548424159567,0.37382520698523947,-0.90449736403858,-0.5963495627116059,0.4944727455334301,-0.8254758378128676,-0.8350151093764054
-0.1824457405766814,-0.7357597226611511,-0.871137686860159,0.2973689555202763,0.5352187251921541,0.37934770885711333,-0.9162666286596637,-0.3671874925606067,-0.4203618843616128,-0.11814066281787361
-0.8770696988780629,-0.9606679099399132,-0.2439852149443794,-0.3443096968402529,0.1926109360858479,-0.4967432606245549,0.6451300081508993,-0.5854223355949962,-0.18645373572452262,-0.5355408211228256
-0.5392745139167727,-0.15227095126149925,-0.5577035424340728,0.22361701461570305,-0.937697370057897,0.16540474276749983,-0.3349103214993482,-0.2889628731394003,0.5911750738487744,-0.34695501353241043
-0.5421584633036236,-0.7813052613023357,-0.5683020774435303,0.3038356151574977,-0.7754934526642887,0.8001805637938162,0.006350895909295828,-0.9566892907016218,0.04397769101755511,0.18914846421632858
0.25380035518523325,0.20459241710455656,0.4101434082928346,-0.4047092795842112,-0.15762359324324904,-0.18262109440681584,0.6262180324918334,0.12485987146261057,0.23582883806027022,-0.24835655033038295
0.6245876324545467,-0.48568556867053303,0.8623578307091551,-0.41224845166747826,0.1093305581702293,0.08814574277503673,-0.9379866793597285,-0.25449022997820847,-0.4085444105152989,-0.9587251722241841
0.5976787760767472,0.08817219426853584,0.11018652192378453,0.4910175638097185,0.22552524486051984,-0.22198204128983423,-0.18628481207042413,-0.4247207108310791,0.10512930945966992,-0.6369283615030044
0.2012959426864982,0.13546518953938946,-0.9072182859316769,-0.41391058682213633,-0.6700359720369207,0.5066947358183576,0.694012499248239,-0.13818249504840718,0.726120125878255,0.05846860516834429
-0.5512899935451874,0.1929261298803877,0.0800142932060337,0.9260609036838054,0.34135687452513697,0.23029185774166372,0.9294664797849272,0.08487457405668852,0.9126115473384349,-0.565501202821032
-0.41810526674800896,-0.22454027680110256,-0.3609914221401257,0.43746514962640526,-0.7949087437966511,-0.6342291842809233,0.900053783209994,0.9537470506500678,0.397413634712537,-0.07500161718604015
-0.9230526469056601,-0.8616063551744833,0.8604055079666666,-0.102814676650545,-0.8302796410305422,-0.1570328538024658,-0.3470147509699819,-0.335250464965246,0.18328581377180053,0.555912322013909
-0.955697002987581,-0.6367674248664921,0.374717855964404,0.17692056126063838,0.8493348539736048,0.17349358220174205,-0.8315793008053214,-0.6486932804889486,-0.13296500872490724,0.021959621928018924
0.17726279405707102,0.4855094572579286,0.13786761234018718,0.5571528822754965,-0.7041360515494963,0.7335236647724788,-0.8271374209262929,-0.3404330414887118,-0.33864727291337327,0.5398734756623684
-0.17190690971926714,-0.8679695149486923,-0.5839271378214492,0.3084244470100508,0.8099554095261257,-0.5831638352040828,0.792449952541955,-0.14596327898228445,-0.5807306832389842,0.8715869483899923
0.37289053320528387,-0.07907278216316427,-0.4060585314941374,-0.2260582818867446,-0.7162014883671588,0.6806237053257245,-0.821592557995884,0.2979392140692083,0.3994315178067178,0.15054905287460008
0.9757747478496357,-0.4508241673848089,-0.26339766746774884,0.012718250722326463,-0.05399181696943245,0.7669791245898132,-0.8924685601598551,-0.7536882211282712,0.378975572922295,0.8258553536957356
0.3875105945299995,-0.2761941791397412,0.3476851201848419,0.19566557517325545,0.336071548232151,0.9751356498448924,-0.16767294152866663,0.9788758608463441,0.04904895819175126,0.7451084624428939
0.3887995493482914,-0.1958359319402565,-0.7443213465509164,0.3388108864465522,-0.5461111798817959,-0.06344861518287614,-0.7268985423315043,0.885267241429778,0.5101172612201539,-0.32980189594033493
-0.25181637796684886,-0.5255986996210822,0.13262548755853487,0.6811198969299546,0.7619555294430447,0.03996468734446834,0.4849185364804045,-0.024981108268462227,0.8507033546774612,-0.2526345475506804
0.5408123609833664,-0.0625299956585127,0.4346439233369177,-0.04652767122534618,0.9388181148088333,-0.042737655774171324,0.2219698628512734,0.429265098276969,-0.9770397833973202,-0.6269946856518973
-0.2610521673550674,-0.9844661885727252,-0.5258730381069365,0.39437468954305,0.5586039751959548,0.40892262640658195,-0.9844663641626257,0.004071398891377642,0.2379783514474363,-0.11026212660250012
-0.47117250279459644,0.8343004830040708,0.08399733573240953,0.022492631531707996,0.306744090038243,-0.6940139456753737,0.7953473286075805,-0.17633207708726506,0.9850038101956704,0.7962091522180168
0.9410908645466094,0.6300714480208307,0.2786470710096789,-0.3185363513595656,-0.6709389691886878,-0.8924269615297842,-0.15602416558511323,0.9855207634161145,0.7241908223082212,-0.6146561664186649
-0.9787803861241853,-0.1848229810181633,-0.6433113282273595,0.2652436075610358,0.5421331406962475,-0.05046418270254982,-0.8922228654237536,-0.5914267432713558,-0.24794987415274616,0.06903254329326636
0.19896084014352344,0.6096869136441305,-0.7449466146249288,0.49626863002721455,-0.03002189310782233,0.6161960270881983,-0.525868863196828,0.1672440236727073,0.6107211755003852,-0.7952800036116403
0.7920878525604067,0.5582833297019438,0.19251080692232203,-0.9585114752293615,-0.25678699397575444,-0.1005888952958488,0.34596541663103086,0.7486369080883131,0.081372967138714,0.6671475535388864
0.1344082414517982,0.04454925847707947,-0.9826197397137485,-0.8131416798689339,0.9419620363718064,0.7738463070130706,0.13859435275953103,0.06529760682770025,-0.20238321982650742,-0.3054861275978006
-0.1048474743603337,-0.9456067913327153,0.10353785961707174,-0.0657846523568032,0.6746108163648483,-0.4350876046888482,-0.9326160316191198,-0.436596264152431,-0.6728138072101435,0.021096382694695937
0.43724570090650694,0.7445268474795073,0.6858388839634151,0.9209204826424349,0.9126495949266227,0.4558208918602271,0.4818298729951791,0.3656811547446466,-0.5742368783961641,-0.5938651533779764
0.7832048839185468,-0.15985750984266656,-0.6523008306597575,0.13031864981603092,0.16518455310136493,-0.9343777705221346,0.6101925590830501,0.7850002183781697,-0.3936999810576878,0.04678498595143088
0.29280688846364655,0.03540047091884646,0.6983430909957504,-0.39251889671840556,-0.6057574713837974,-0.33389720507038645,0.21118292559712115,-0.8368427284547745,-0.583949973697944,-0.9675798672124495
0.6266250410319432,-0.5377763577313004,-0.32104764896084104,0.049998687996933855,-0.17190746933898826,-0.3062974409999626,-0.5118272756266673,0.9124954513461723,-0.5521911828670355,-0.2688376486967806
0.7612182677676693,0.6797421809015012,0.573596860982398,0.6055588386422566,-0.33658138922377423,-0.6780959367893382,-0.9219926498503705,-0.5957597176310607,0.7024404028275832,0.5258696069773121
0.11033800186170262,-0.3193008513204305,-0.2557562541484918,0.4098223775325942,0.9598812638560406,-0.00451219289655691,0.3498633657793897,-0.3509554068616171,-0.4176235419365998,-0.8648821901438846
0.706196878362078,0.6532292347695314,-0.16905719314461898,0.2056891043498441,0.02694533664409926,0.9738451861345558,-0.3411218895195004,0.6041957101188038,0.7226950940699814,-0.9551627075762869
-0.6771073560419867,0.03137042337631346,0.4736038648972454,0.8244076765237314,0.9309778267908477,-0.48615291886925405,0.8012196871075827,-0.04529189256540633,0.17486608679779825,-0.8609166977231986
0.3006204234837706,-0.36353167570839817,0.7867755552978637,-0.3019703862605827,0.839126020980401,0.48668323179526074,0.47981752436641534,0.5360893537169802,0.6419365438987434,-0.5555275659121428
-0.5589093913809975,-0.5965224726080589,0.01903646648697821,0.8680802487388553,0.2035984011919032,0.05018385409820758,0.5465668380004844,0.4687322273454062,-0.09301312098829984,-0.5835237836285481
0.6072135470206665,-0.8211840145343499,-0.7176085077265846,-0.6231910284119553,0.6064296029302232,0.7131832401189773,-0.09655800393395064,0.2334930421483581,-0.8854169113488037,-0.6064143484158929
0.04025435395791166,0.03761751426680071,0.4574868912669472,0.2633909510908301,0.7397627143750973,-0.32736761860086094,-0.22726450008717336,0.8941313452189157,-0.41940329515548,0.6283786628774575
0.15992625988126963,0.8122686711561411,0.3788500395186545,0.3806571862315766,-0.6477829272718862,0.924077849428391,-0.9214938865967462,-0.7653171776094214,0.5739814076741379,0.4887118133941226
