"wnode0,wnode1,wnode2,wnode3,wnode4,wnode5,wnode6,wnode7,wnode8.wnode9,delimiter"
21.701022663523837,-58.2311068007981,-16.00486826885493,-184.41023211655832,123.52696822313112,30.99236690071787,69.4182721440681,8.278141582649678,129.59768141087693,-112.96989580575885,"
",19.874698974019356,-53.33046909974084,-14.657923909594862,-168.89055911664997,113.1311342637587,28.384098399172306,63.57614032996335,7.5814663009415355,118.69094584659521,-103.46252833695736,"
",9.561341668582285,-25.65627972906451,-7.051649880832122,-81.2500527642262,54.42524837553797,13.655052743385596,30.58527832090129,3.647300004236739,57.09996854241607,-49.77386498372544,"
",6.123555900103261,-16.43154993883907,-4.516225204577876,-52.03655064675161,34.85661974613106,8.745370858123358,19.588324317880602,2.3359112386684733,36.56964277435636,-31.877643865981458,"
",0.0,-0.0,-0.0,-0.0,0.0,0.0,0.0,0.0,0.0,-0.0,"
",0.0,-0.0,-0.0,-0.0,0.0,0.0,0.0,0.0,0.0,-0.0,"
",11.924819384411615,-31.998281459844502,-8.794754345756918,-101.33433546998997,67.87868055825521,17.030459039503384,38.145684197978014,4.5488797805649215,71.21456750795713,-62.07751700217442,"
",1.504031273709573,-4.035819283223631,-1.1092482958612329,-12.780907176395132,8.561275025365523,2.1479858248022285,4.811167376321551,0.5737325849361162,8.982017523526125,-7.82959673901299,"
",1.933754494769451,-5.188910507001811,-1.4261763803930134,-16.432594941079454,11.007353604041386,2.7616960604600083,6.185786626699137,0.7376561806321494,11.548308244533587,-10.066624378730987,"
",0.9668772473847255,-2.5944552535009056,-0.7130881901965067,-8.216297470539727,5.503676802020693,1.3808480302300041,3.0928933133495686,0.3688280903160747,5.774154122266793,-5.0333121893654935,"
",11.495096163351736,-30.845190236066323,-8.477826261225136,-97.68264770530565,65.43260197957935,16.416748803845604,36.77106494760043,4.384956184868888,68.64827678694967,-59.840489362456424,"
",18.370667700309784,-49.29464981651721,-13.548675613733629,-156.10965194025482,104.56985923839316,26.23611257437008,58.7649729536418,7.007733716005419,109.70892832306909,-95.63293159794438,"
",23.09762313196844,-61.97865327807719,-17.034884543583217,-196.2782173517824,131.47672360382768,32.98692516660565,73.88578470779525,8.810893268661784,137.93812625415117,-120.24023563484235,"
",8.8093260317275,-23.638370087452696,-6.497025732901506,-74.85959917602862,50.1446108628552,12.581059830984481,28.179694632740514,3.360433711768681,52.60895978065301,-45.85906661421894,"
",11.602526968616706,-31.133463042010867,-8.557058282358081,-98.59556964647673,66.04412162424832,16.570176362760048,37.11471976019482,4.425937083792896,69.28984946720152,-60.399746272385926,"
",13.643712268651125,-36.610646354957225,-10.06246668388404,-115.94108652872727,77.66299487295868,19.485299982134503,43.64416119948836,5.204574163349054,81.47973039198698,-71.0256275610464,"
",22.667899910908563,-60.82556205429901,-16.717956459051436,-192.62652958709805,129.0306450251518,32.373214930947874,72.51116545741766,8.646969672965751,135.37183553314372,-118.00320799512434,"
",18.692960116104693,-50.15946823435084,-13.786371677132465,-158.84841776376805,106.40441817240007,26.69639525111341,59.79593739142499,7.1306764127774445,111.63364636382468,-97.31070232773287,"
",14.82545112656579,-39.78164722034722,-10.934018916346437,-125.98322788160915,84.3897109643173,21.173003130193397,47.42436413802672,5.655364051513145,88.53702987475751,-77.1774535702709,"
",3.222924157949085,-8.648184178336352,-2.376960633988356,-27.387658235132424,18.345589340068976,4.602826767433347,10.309644377831896,1.229426967720249,19.24718040755598,-16.77770729788498,"
",4.941817042188597,-13.260549073449074,-3.644672972115479,-41.994409293869715,28.12990365477243,7.057667710064465,15.80812137934224,1.8851213505043818,29.512343291585836,-25.72581785675697,"
",22.238176689848686,-59.67247083052083,-16.401028374519655,-188.97484182241374,126.58456644647595,31.759504695290094,71.13654620704008,8.48304607726972,132.80554481213625,-115.76618035540635,"
",17.833513673984935,-47.85328578679448,-13.152515508068902,-151.54504223439943,101.51226101504834,25.468974779797854,57.04669889066982,6.8028292213853785,106.50106492180976,-92.83664704829688,"
",3.222924157949085,-8.648184178336352,-2.376960633988356,-27.387658235132424,18.345589340068976,4.602826767433347,10.309644377831896,1.229426967720249,19.24718040755598,-16.77770729788498,"
",6.553279121163139,-17.58464116261725,-4.833153289109657,-55.68823841143593,37.30269832480692,9.359081093781139,20.962943568258186,2.4998348343645063,39.13593349536382,-34.114671505699455,"
",9.776203279112224,-26.232825340953603,-7.210113923098013,-83.07589664656835,55.648287664875895,13.961907861214486,31.27258794609008,3.7292618020847557,58.3831139029198,-50.892378803584435,"
",23.205053937233412,-62.26692608402173,-17.114116564716163,-197.19113929295347,132.08824324849664,33.140352725520096,74.22943952038965,8.851874167585793,138.57969893440304,-120.79949254477185,"
",12.032250189676583,-32.28655426578905,-8.873986366889863,-102.24725741116106,68.49020020292419,17.18388659841783,38.48933901057241,4.58986067948893,71.856140188209,-62.63677391210392,"
",9.346480058052347,-25.07973411717542,-6.893185838566232,-79.42420888188403,53.202209086200035,13.348197625556706,29.897968695712496,3.5653382063887222,55.81682318191234,-48.655351163866435,"
",26.642839705712436,-71.49165587424717,-19.649541240970407,-226.40464141042804,151.65687187790354,38.05003461078233,85.22639352341034,10.163262933154058,159.11002470246277,-138.69571366251583,"
",17.403790452925058,-46.700194563016304,-12.835587423537122,-147.8933544697151,99.06618243637247,24.855264544140073,55.67207964029223,6.638905625689345,103.9347742008023,-90.59961940857889,"
",21.915884274053777,-58.8076524126872,-16.16333231112082,-186.2360759989005,124.75000751246904,31.29922201854676,70.10558176925689,8.360103380497694,130.88082677138067,-114.08840962561786,"
",12.139680994941553,-32.574827071733594,-8.953218388022806,-103.16017935233214,69.10171984759315,17.337314157332273,38.8329938231668,4.630841578412938,72.49771286846085,-63.19603082203342,"
",23.09762313196844,-61.97865327807719,-17.034884543583217,-196.2782173517824,131.47672360382768,32.98692516660565,73.88578470779525,8.810893268661784,137.93812625415117,-120.24023563484235,"
",5.478971068513444,-14.7019131031718,-4.040833077780205,-46.559018999725126,31.18750187811726,7.82480550463669,17.52639544231422,2.0900258451244236,32.72020669284517,-28.522102406404464,"
",2.1486161052993897,-5.765456118890901,-1.584640422658904,-18.258438823421617,12.230392893379317,3.068551178288898,6.87309625188793,0.819617978480166,12.83145360503732,-11.185138198589986,"
",24.601654405678016,-66.01447256130082,-18.14413283944445,-209.0591245281775,140.0379986291932,35.134910991407885,78.6969520841168,9.384625853597901,146.9201437776773,-128.06983237385535,"
",23.84963876882323,-63.996562919689005,-17.589508691513835,-202.66867093997993,135.75736111651042,34.06091807900677,76.29136839595603,9.097759561129843,142.42913501591426,-124.15503400434883,"
",11.172803747556827,-29.980371818232687,-8.2401301978263,-94.94388188179241,63.59804304557245,15.956466127102269,35.74010050981724,4.262013488096864,66.72355874619406,-58.162718632667925,"
",3.760078184273932,-10.089548208059078,-2.773120739653082,-31.95226794098783,21.403187563413805,5.369964562005571,12.027918440803878,1.4343314623402905,22.455043808815308,-19.573991847532476,"
",16.436913205540332,-44.1057393095154,-12.122499233340616,-139.67705699917536,93.56250563435178,23.474416513910068,52.57918632694267,6.27007753537327,98.1606200785355,-85.56630721921339,"
",11.065372942291859,-29.692099012288143,-8.160898176693355,-94.03095994062133,62.986523400903486,15.803038568187825,35.39644569722284,4.2210325891728555,66.08198606594219,-57.60346172273842,"
",0.7520156368547865,-2.0179096416118156,-0.5546241479306164,-6.390453588197566,4.280637512682762,1.0739929124011143,2.4055836881607755,0.2868662924680581,4.491008761763062,-3.914798369506495,"
",3.545216573743993,-9.513002596169988,-2.6146566973871916,-30.126424058645668,20.180148274075876,5.063109444176682,11.340608815615084,1.352369664492274,21.171898448311577,-18.455478027673475,"
",25.246239237267833,-67.7441093969681,-18.61952496624212,-214.536656175204,143.70711649720698,36.05547634489455,80.75888095968318,9.630511247141952,150.7695798591885,-131.42537383343233,"
",3.545216573743993,-9.513002596169988,-2.6146566973871916,-30.126424058645668,20.180148274075876,5.063109444176682,11.340608815615084,1.352369664492274,21.171898448311577,-18.455478027673475,"
",14.288297100240943,-38.3402831906245,-10.537858810681712,-121.41861817575375,81.33211274097246,20.405865335621172,45.70609007505474,5.4504595568931045,85.32916647349818,-74.3811690206234,"
",11.709957773881674,-31.421735847955414,-8.636290303491027,-99.50849158764781,66.65564126891728,16.723603921674496,37.45837457278922,4.466917982716905,69.93142214745339,-60.95900318231542,"
",25.13880843200286,-67.45583659102354,-18.540292945109176,-213.62373423403292,143.09559685253802,35.90204878598011,80.41522614708879,9.589530348217943,150.12800717893663,-130.86611692350283,"
",23.41991554776335,-62.84347169591083,-17.272580606982054,-199.01698317529562,133.31128253783456,33.44720784334899,74.91674914557844,8.93383596543381,139.86284429490678,-121.91800636463084,"
",17.511221258190027,-46.98846736896085,-12.914819444670067,-148.80627641088617,99.67770208104145,25.008692103054518,56.01573445288663,6.679886524613353,104.57634688105415,-91.15887631850838,"
",9.991064889642162,-26.80937095284269,-7.368577965363904,-84.90174052891052,56.87132695421383,14.268762979043375,31.959897571278876,3.811223599932772,59.666259263423534,-52.01089262344343,"
",20.734145416139114,-55.6366515472972,-15.291780078658423,-176.1939346460186,118.02329142111041,29.611518870487867,66.32537883071852,7.909313492333602,123.82352728861014,-107.93658361639336,"
",24.923946821472924,-66.87929097913445,-18.381828902843285,-211.79789035169074,141.8725575632001,35.59519366815122,79.72791652189999,9.507568550369927,148.84486181843292,-129.74760310364383,"
",13.106558242326278,-35.1692823252345,-9.666306578219315,-111.37647682287187,74.60539664961384,18.718162187562278,41.92588713651637,4.9996696687290125,78.27186699072764,-68.22934301139891,"
",8.057310394872712,-21.62046044584088,-5.94240158497089,-68.46914558783106,45.863973350172444,11.507066918583368,25.77411094457974,3.073567419300623,48.11795101888995,-41.94426824471245,"
",27.072562926772314,-72.64474709802536,-19.96646932550219,-230.05632917511238,154.1029504565794,38.66374484644012,86.60101277378791,10.327186528850092,161.67631542347021,-140.9327413022338,"
",17.511221258190027,-46.98846736896085,-12.914819444670067,-148.80627641088617,99.67770208104145,25.008692103054518,56.01573445288663,6.679886524613353,104.57634688105415,-91.15887631850838,"
",13.213989047591248,-35.45755513117904,-9.745538599352258,-112.28939876404294,75.21691629428281,18.871589746476722,42.26954194911077,5.040650567653021,78.91343967097951,-68.78859992132841,"
",20.304422195079233,-54.48356032351902,-14.974851994126642,-172.54224688133428,115.57721284243456,28.997808634830086,64.95075958034094,7.745389896637569,121.25723656760267,-105.69955597667537,"
",12.89169663179634,-34.59273671334541,-9.507842535953424,-109.5506329405297,73.3823573602759,18.41130706973339,41.238577511327584,4.917707870880996,76.98872163022392,-67.11082919153992,"
",5.801263484308353,-15.566731521005433,-4.278529141179041,-49.297784823238366,33.02206081212416,8.285088181380024,18.55735988009741,2.212968541896448,34.64492473360076,-30.199873136192963,"
",0.32229241579490847,-0.8648184178336352,-0.2376960633988356,-2.7387658235132424,1.8345589340068977,0.4602826767433347,1.0309644377831895,0.1229426967720249,1.924718040755598,-1.6777707297884978,"
",18.263236895044813,-49.00637701057266,-13.469443592600683,-155.19672999908374,103.9583395937242,26.082685015455635,58.42131814104741,6.966752817081411,109.06735564281722,-95.07367468801488,"
",7.842448784342773,-21.043914833951792,-5.783937542704999,-66.6433017054889,44.64093406083451,11.200211800754477,25.086801319390943,2.991605621452606,46.834805658386216,-40.82575442485345,"
",17.188928842395118,-46.12364895112721,-12.677123381271231,-146.06751058737294,97.84314314703454,24.548409426311185,54.98477001510344,6.556943827841328,102.65162884029856,-89.48110558871988,"
",3.652647379008963,-9.801275402114532,-2.6938887185201366,-31.03934599981675,20.791667918744842,5.216537003091126,11.68426362820948,1.3933505634162824,21.813471128563442,-19.014734937602974,"
",27.072562926772314,-72.64474709802536,-19.96646932550219,-230.05632917511238,154.1029504565794,38.66374484644012,86.60101277378791,10.327186528850092,161.67631542347021,-140.9327413022338,"
",1.3966004684446034,-3.747546477279086,-1.0300162747282875,-11.867985235224051,7.949755380696557,1.9945582658877836,4.467512563727155,0.532751686012108,8.340444843274257,-7.270339829083491,"
",15.362605152890637,-41.223011250069945,-11.330179022011164,-130.54783758746456,87.44730918766213,21.940140924765622,49.142638200998704,5.860268546133187,91.74489327601684,-79.9737381199184,"
",21.16386863719899,-56.78974277107538,-15.608708163190204,-179.84562241070293,120.46936999978628,30.225229106145644,67.69999808109611,8.073237088029636,126.3898180096176,-110.17361125611136,"
",4.941817042188597,-13.260549073449074,-3.644672972115479,-41.994409293869715,28.12990365477243,7.057667710064465,15.80812137934224,1.8851213505043818,29.512343291585836,-25.72581785675697,"
",24.171931184618135,-64.86138133752264,-17.827204754912668,-205.4074367634932,137.59192005051733,34.5212007557501,77.32233283373921,9.220702257901868,144.35385305666983,-125.83280473413734,"
",6.553279121163139,-17.58464116261725,-4.833153289109657,-55.68823841143593,37.30269832480692,9.359081093781139,20.962943568258186,2.4998348343645063,39.13593349536382,-34.114671505699455,"
",27.072562926772314,-72.64474709802536,-19.96646932550219,-230.05632917511238,154.1029504565794,38.66374484644012,86.60101277378791,10.327186528850092,161.67631542347021,-140.9327413022338,"
",1.504031273709573,-4.035819283223631,-1.1092482958612329,-12.780907176395132,8.561275025365523,2.1479858248022285,4.811167376321551,0.5737325849361162,8.982017523526125,-7.82959673901299,"
",14.93288193183076,-40.06992002629177,-11.013250937479382,-126.89614982278023,85.00123060898626,21.32643068910784,47.76801895062111,5.696344950437154,89.17860255500938,-77.7367104802004,"
",11.924819384411615,-31.998281459844502,-8.794754345756918,-101.33433546998997,67.87868055825521,17.030459039503384,38.145684197978014,4.5488797805649215,71.21456750795713,-62.07751700217442,"
",25.78339326359268,-69.18547342669082,-19.015685071906848,-219.1012658810594,146.7647147205518,36.82261413946678,82.47715502265517,9.835415741761992,153.97744326044784,-134.22165838307984,"
",27.394855342567222,-73.509565515859,-20.204165388901025,-232.79509499862561,155.9375093905863,39.12402752318345,87.63197721157111,10.450129225622117,163.60103346422582,-142.6105120320223,"
",23.31248474249838,-62.555198889966285,-17.193348585849108,-198.10406123412454,132.6997628931656,33.29378028443454,74.57309433298404,8.892855066509801,139.2212716146549,-121.35874945470134,"
",17.29635964766009,-46.41192175707176,-12.756355402404177,-146.98043252854401,98.45466279170351,24.70183698522563,55.32842482769784,6.597924726765337,103.29320152055043,-90.04036249864939,"
",5.478971068513444,-14.7019131031718,-4.040833077780205,-46.559018999725126,31.18750187811726,7.82480550463669,17.52639544231422,2.0900258451244236,32.72020669284517,-28.522102406404464,"
",21.915884274053777,-58.8076524126872,-16.16333231112082,-186.2360759989005,124.75000751246904,31.29922201854676,70.10558176925689,8.360103380497694,130.88082677138067,-114.08840962561786,"
",4.512093821128719,-12.107457849670894,-3.327744887583698,-38.3427215291854,25.683825076096568,6.443957474406686,14.433502128964653,1.7211977548083488,26.94605257057837,-23.488790217038968,"
",19.12268333716457,-51.31255945812902,-14.103299761664244,-162.5001055284524,108.85049675107594,27.310105486771192,61.17055664180258,7.294600008473478,114.19993708483214,-99.54772996745088,"
",24.816516016207952,-66.59101817318991,-18.30259688171034,-210.88496841051966,141.26103791853112,35.441766109236774,79.38426170930559,9.466587651445918,148.20328913818105,-129.18834619371432,"
",16.544344010805304,-44.394012115459944,-12.201731254473561,-140.58997894034644,94.17402527902075,23.627844072824516,52.92284113953706,6.311058434297278,98.80219275878736,-86.12556412914289,"
",14.073435489711004,-37.7637375787354,-10.379394768415821,-119.5927742934116,80.10907345163453,20.099010217792284,45.01878044986594,5.368497759045088,84.04602111299444,-73.2626552007644,"
",23.742207963558258,-63.70829011374446,-17.51027667038089,-201.75574899880885,135.14584147184146,33.907490520092324,75.94771358336163,9.056778662205835,141.7875623356624,-123.59577709441935,"
",13.643712268651125,-36.610646354957225,-10.06246668388404,-115.94108652872727,77.66299487295868,19.485299982134503,43.64416119948836,5.204574163349054,81.47973039198698,-71.0256275610464,"
",26.427978095182496,-70.91511026235808,-19.491077198704517,-224.5787975280859,150.43383258856562,37.743179492953445,84.53908389822153,10.081301135306042,157.82687934195903,-137.57719984265682,"
",7.197863952752956,-19.31427799828452,-5.308545415907328,-61.165770058462414,40.97181619282072,10.279646447267808,23.024872443824567,2.7457202279085564,42.98536957687502,-37.47021296527645,"
",6.230986705368231,-16.719822744783613,-4.595457225710821,-52.949472587922685,35.468139390800026,8.898798417037804,19.931979130474996,2.3768921375924816,37.21121545460823,-32.436900775910956,"
",16.329482400275364,-43.81746650357085,-12.04326721220767,-138.76413505800429,92.95098598968282,23.320988954995624,52.23553151434827,6.2290966364492615,97.51904739828363,-85.0070503092839,"
",14.073435489711004,-37.7637375787354,-10.379394768415821,-119.5927742934116,80.10907345163453,20.099010217792284,45.01878044986594,5.368497759045088,84.04602111299444,-73.2626552007644,"
",26.642839705712436,-71.49165587424717,-19.649541240970407,-226.40464141042804,151.65687187790354,38.05003461078233,85.22639352341034,10.163262933154058,159.11002470246277,-138.69571366251583,"
",13.966004684446034,-37.47546477279086,-10.300162747282876,-118.6798523522405,79.49755380696557,19.945582658877836,44.67512563727155,5.327516860121079,83.40444843274258,-72.70339829083491,"
",0.5371540263248474,-1.4413640297227253,-0.396160105664726,-4.564609705855404,3.0575982233448293,0.7671377945722245,1.7182740629719826,0.2049044946200415,3.20786340125933,-2.7962845496474964,"
",24.923946821472924,-66.87929097913445,-18.381828902843285,-211.79789035169074,141.8725575632001,35.59519366815122,79.72791652189999,9.507568550369927,148.84486181843292,-129.74760310364383,"
",22.560469105643595,-60.53728924835447,-16.63872443791849,-191.71360764592697,128.41912538048285,32.21978737203343,72.16751064482327,8.605988774041743,134.73026285289185,-117.44395108519485,"
",26.96513212150734,-72.35647429208082,-19.887237304369243,-229.14340723394128,153.49143081191045,38.51031728752567,86.25735796119352,10.286205629926084,161.03474274321837,-140.3734843923043,"
",25.246239237267833,-67.7441093969681,-18.61952496624212,-214.536656175204,143.70711649720698,36.05547634489455,80.75888095968318,9.630511247141952,150.7695798591885,-131.42537383343233,"
",1.718892884239512,-4.612364895112721,-1.2677123381271231,-14.606751058737293,9.784314314703455,2.4548409426311184,5.498477001510344,0.6556943827841328,10.265162884029856,-8.948110558871988,"
",0.6445848315898169,-1.7296368356672704,-0.4753921267976712,-5.477531647026485,3.6691178680137955,0.9205653534866693,2.061928875566379,0.2458853935440498,3.849436081511196,-3.3555414595769957,"
",26.535408900447464,-71.20338306830263,-19.570309219837462,-225.49171946925696,151.04535223323458,37.89660705186789,84.88273871081594,10.12228203423005,158.4684520222109,-138.13645675258633,"
",7.949879589607742,-21.332187639896336,-5.863169563837944,-67.55622364665999,45.25245370550348,11.353639359668923,25.43045613198534,3.0325865203766145,47.476378338638085,-41.385011334782945,"
",4.082370600068841,-10.954366625892712,-3.0108168030519176,-34.69103376450107,23.237746497420705,5.830247238748906,13.058882878587067,1.5572741591123154,24.379761849570908,-21.251762577320974,"
",12.032250189676583,-32.28655426578905,-8.873986366889863,-102.24725741116106,68.49020020292419,17.18388659841783,38.48933901057241,4.58986067948893,71.856140188209,-62.63677391210392,"
",13.966004684446034,-37.47546477279086,-10.300162747282876,-118.6798523522405,79.49755380696557,19.945582658877836,44.67512563727155,5.327516860121079,83.40444843274258,-72.70339829083491,"
",17.726082868719967,-47.565012980849936,-13.073283486935958,-150.63212029322833,100.90074137037938,25.31554722088341,56.70304407807542,6.76184832246137,105.85949224155789,-92.27739013836738,"
",20.304422195079233,-54.48356032351902,-14.974851994126642,-172.54224688133428,115.57721284243456,28.997808634830086,64.95075958034094,7.745389896637569,121.25723656760267,-105.69955597667537,"
",15.577466763420576,-41.79955686195903,-11.488643064277053,-132.3736814698067,88.67034847700006,22.24699604259451,49.82994782618749,5.942230343981204,93.02803863652056,-81.0922519397774,"
",26.96513212150734,-72.35647429208082,-19.887237304369243,-229.14340723394128,153.49143081191045,38.51031728752567,86.25735796119352,10.286205629926084,161.03474274321837,-140.3734843923043,"
",26.642839705712436,-71.49165587424717,-19.649541240970407,-226.40464141042804,151.65687187790354,38.05003461078233,85.22639352341034,10.163262933154058,159.11002470246277,-138.69571366251583,"
",17.08149803713015,-45.835376145182664,-12.597891360138286,-145.15458864620186,97.23162350236558,24.39498186739674,54.64111520250904,6.51596292891732,102.01005616004669,-88.92184867879038,"
",2.793200936889207,-7.495092954558172,-2.060032549456575,-23.735970470448102,15.899510761393113,3.9891165317755672,8.93502512745431,1.065503372024216,16.680889686548515,-14.540679658166981,"
",21.59359185825887,-57.94283399485356,-15.925636247721984,-183.49731017538724,122.91544857846215,30.838939341803425,69.0746173314737,8.23716068372567,128.95610873062506,-112.41063889582935,"
",9.883634084377194,-26.521098146898147,-7.289345944230958,-83.98881858773943,56.25980730954486,14.11533542012893,31.61624275868448,3.7702427010087636,59.02468658317167,-51.45163571351394,"
",9.561341668582285,-25.65627972906451,-7.051649880832122,-81.2500527642262,54.42524837553797,13.655052743385596,30.58527832090129,3.647300004236739,57.09996854241607,-49.77386498372544,"
",3.652647379008963,-9.801275402114532,-2.6938887185201366,-31.03934599981675,20.791667918744842,5.216537003091126,11.68426362820948,1.3933505634162824,21.813471128563442,-19.014734937602974,"
",9.991064889642162,-26.80937095284269,-7.368577965363904,-84.90174052891052,56.87132695421383,14.268762979043375,31.959897571278876,3.811223599932772,59.666259263423534,-52.01089262344343,"
",26.642839705712436,-71.49165587424717,-19.649541240970407,-226.40464141042804,151.65687187790354,38.05003461078233,85.22639352341034,10.163262933154058,159.11002470246277,-138.69571366251583,"
",2.9006317421541765,-7.783365760502717,-2.1392645705895204,-24.648892411619183,16.51103040606208,4.142544090690012,9.278679940048706,1.106484270948224,17.32246236680038,-15.099936568096481,"
",19.23011414242954,-51.60083226407357,-14.18253178279719,-163.41302746962347,109.4620163957449,27.463533045685637,61.51421145439698,7.335580907397486,114.84150976508401,-100.10698687738036,"
",27.394855342567222,-73.509565515859,-20.204165388901025,-232.79509499862561,155.9375093905863,39.12402752318345,87.63197721157111,10.450129225622117,163.60103346422582,-142.6105120320223,"
",17.618652063455,-47.27674017490539,-12.994051465803013,-149.71919835205725,100.2892217257104,25.162119661968962,56.35938926548103,6.720867423537362,105.21791956130602,-91.71813322843788,"
",20.411853000344205,-54.771833129463566,-15.054084015259587,-173.45516882250536,116.18873248710352,29.15123619374453,65.29441439293534,7.786370795561577,121.89880924785453,-106.25881288660486,"
",15.470035958155608,-41.51128405601449,-11.409411043144107,-131.46075952863563,88.05882883233109,22.093568483680066,49.4862930135931,5.9012494450571955,92.3864659562687,-80.5329950298479,"
",25.3536700425328,-68.03238220291264,-18.698756987375067,-215.44957811637508,144.31863614187594,36.208903903808995,81.10253577227758,9.67149214606596,151.41115253944037,-131.98463074336183,"
",19.015252531899602,-51.02428665218448,-14.024067740531299,-161.58718358728132,108.23897710640696,27.156677927856748,60.82690182920818,7.2536191095494695,113.55836440458027,-98.98847305752138,"
",8.48703361593259,-22.77355166961906,-6.25932966950267,-72.12083335251539,48.31005192884831,12.120777154241146,27.148730194957324,3.237491014996656,50.68424173989741,-44.18129588443044,"
",23.52734635302832,-63.13174450185537,-17.351812628115,-199.9299051164667,133.92280218250355,33.600635402263435,75.26040395817283,8.974816864357818,140.50441697515865,-122.47726327456034,"
",22.345607495113654,-59.960743636465374,-16.4802603956526,-189.88776376358481,127.1960860911449,31.912932254204538,71.48020101963448,8.524026976193728,133.44711749238812,-116.32543726533585,"
",0.0,-0.0,-0.0,-0.0,0.0,0.0,0.0,0.0,0.0,-0.0,"
",20.089560584549297,-53.90701471162993,-14.81638795186075,-170.71640299899212,114.35417355309663,28.690953517001198,64.26344995515214,7.663428098789552,119.97409120709894,-104.58104215681637,"
",26.750270510977405,-71.77992868019173,-19.728773262103353,-227.31756335159912,152.2683915225725,38.20346216969678,85.57004833600473,10.204243832078067,159.75159738271464,-139.25497057244533,"
",12.99912743706131,-34.881009519289954,-9.58707455708637,-110.46355488170079,73.99387700494488,18.564734628647834,41.58223232392198,4.958688769805004,77.63029431047579,-67.67008610146941,"
",24.279361989883107,-65.14965414346719,-17.906436776045613,-206.32035870466427,138.2034396951863,34.674628314664545,77.6659876463336,9.261683156825876,144.9954257369217,-126.39206164406684,"
",17.726082868719967,-47.565012980849936,-13.073283486935958,-150.63212029322833,100.90074137037938,25.31554722088341,56.70304407807542,6.76184832246137,105.85949224155789,-92.27739013836738,"
",6.230986705368231,-16.719822744783613,-4.595457225710821,-52.949472587922685,35.468139390800026,8.898798417037804,19.931979130474996,2.3768921375924816,37.21121545460823,-32.436900775910956,"
",9.024187642257438,-24.214915699341788,-6.655489775167396,-76.6854430583708,51.367650152193136,12.887914948813371,28.867004257929306,3.4423955096166976,53.89210514115674,-46.977580434077936,"
",21.05643783193402,-56.50146996513084,-15.52947614205726,-178.93270046953185,119.85785035511732,30.0718015472312,67.35634326850172,8.032256189105627,125.74824532936573,-109.61435434618186,"
",27.072562926772314,-72.64474709802536,-19.96646932550219,-230.05632917511238,154.1029504565794,38.66374484644012,86.60101277378791,10.327186528850092,161.67631542347021,-140.9327413022338,"
",1.504031273709573,-4.035819283223631,-1.1092482958612329,-12.780907176395132,8.561275025365523,2.1479858248022285,4.811167376321551,0.5737325849361162,8.982017523526125,-7.82959673901299,"
",8.37960281066762,-22.485278863674516,-6.180097648369725,-71.2079114113443,47.69853228417934,11.967349595326702,26.80507538236293,3.1965101160726475,50.04266905964555,-43.622038974500946,"
",27.28742453730225,-73.22129270991445,-20.12493336776808,-231.88217305745454,155.32598974591735,38.970599964269006,87.28832239897672,10.409148326698109,162.95946078397395,-142.0512551220928,"
",3.652647379008963,-9.801275402114532,-2.6938887185201366,-31.03934599981675,20.791667918744842,5.216537003091126,11.68426362820948,1.3933505634162824,21.813471128563442,-19.014734937602974,"
",4.40466301586375,-11.819185043726348,-3.248512866450753,-37.42979958801431,25.0723054314276,6.2905299154922405,14.089847316370257,1.6802168558843404,26.304479890326505,-22.92953330710947,"
",17.833513673984935,-47.85328578679448,-13.152515508068902,-151.54504223439943,101.51226101504834,25.468974779797854,57.04669889066982,6.8028292213853785,106.50106492180976,-92.83664704829688,"
",3.222924157949085,-8.648184178336352,-2.376960633988356,-27.387658235132424,18.345589340068976,4.602826767433347,10.309644377831896,1.229426967720249,19.24718040755598,-16.77770729788498,"
",27.072562926772314,-72.64474709802536,-19.96646932550219,-230.05632917511238,154.1029504565794,38.66374484644012,86.60101277378791,10.327186528850092,161.67631542347021,-140.9327413022338,"
",15.792328373950516,-42.37610247384813,-11.647107106542943,-134.1995253521489,89.893387766338,22.5538511604234,50.51725745137629,6.024192141829221,94.3111839970243,-82.21076575963639,"
",6.44584831589817,-17.296368356672705,-4.753921267976712,-54.77531647026485,36.69117868013795,9.205653534866695,20.619288755663792,2.458853935440498,38.49436081511196,-33.55541459576996,"
",15.040312737095729,-40.35819283223631,-11.092482958612328,-127.80907176395132,85.61275025365522,21.479858248022285,48.111673763215514,5.737325849361162,89.82017523526123,-78.2959673901299,"
",14.93288193183076,-40.06992002629177,-11.013250937479382,-126.89614982278023,85.00123060898626,21.32643068910784,47.76801895062111,5.696344950437154,89.17860255500938,-77.7367104802004,"
",14.718020321300822,-39.49337441440267,-10.854786895213492,-125.07030594043808,83.77819131964833,21.019575571278953,47.08070932543232,5.614383152589137,87.89545719450564,-76.6181966603414,"
",10.205926500172103,-27.385916564731783,-7.5270420076297935,-86.72758441125268,58.09436624355176,14.575618096872265,32.64720719646767,3.8931853977807886,60.949404623927265,-53.12940644330243,"
",22.238176689848686,-59.67247083052083,-16.401028374519655,-188.97484182241374,126.58456644647595,31.759504695290094,71.13654620704008,8.48304607726972,132.80554481213625,-115.76618035540635,"
",8.057310394872712,-21.62046044584088,-5.94240158497089,-68.46914558783106,45.863973350172444,11.507066918583368,25.77411094457974,3.073567419300623,48.11795101888995,-41.94426824471245,"
",12.139680994941553,-32.574827071733594,-8.953218388022806,-103.16017935233214,69.10171984759315,17.337314157332273,38.8329938231668,4.630841578412938,72.49771286846085,-63.19603082203342,"
",19.767268168754388,-53.042196293796295,-14.578691888461917,-167.97763717547886,112.51961461908972,28.23067084025786,63.23248551736896,7.540485402017527,118.04937316634334,-102.90327142702787,"
",24.171931184618135,-64.86138133752264,-17.827204754912668,-205.4074367634932,137.59192005051733,34.5212007557501,77.32233283373921,9.220702257901868,144.35385305666983,-125.83280473413734,"
",18.692960116104693,-50.15946823435084,-13.786371677132465,-158.84841776376805,106.40441817240007,26.69639525111341,59.79593739142499,7.1306764127774445,111.63364636382468,-97.31070232773287,"
",21.701022663523837,-58.2311068007981,-16.00486826885493,-184.41023211655832,123.52696822313112,30.99236690071787,69.4182721440681,8.278141582649678,129.59768141087693,-112.96989580575885,"
",6.123555900103261,-16.43154993883907,-4.516225204577876,-52.03655064675161,34.85661974613106,8.745370858123358,19.588324317880602,2.3359112386684733,36.56964277435636,-31.877643865981458,"
",15.040312737095729,-40.35819283223631,-11.092482958612328,-127.80907176395132,85.61275025365522,21.479858248022285,48.111673763215514,5.737325849361162,89.82017523526123,-78.2959673901299,"
",10.74308052649695,-28.827280594454507,-7.923202113294519,-91.29219411710808,61.151964466896594,15.34275589144449,34.36548125943965,4.09808989240083,64.1572680251866,-55.925690992949924,"
",13.106558242326278,-35.1692823252345,-9.666306578219315,-111.37647682287187,74.60539664961384,18.718162187562278,41.92588713651637,4.9996696687290125,78.27186699072764,-68.22934301139891,"
",10.420788110702041,-27.96246217662087,-7.685506049895684,-88.55342829359483,59.317405532889694,14.882473214701156,33.334516821656464,3.9751471956288054,62.232549984431,-54.24792026316143,"
",7.305294758017926,-19.602550804229065,-5.387777437040273,-62.0786919996335,41.583335837489685,10.433074006182252,23.36852725641896,2.7867011268325648,43.626942257126885,-38.02946987520595,"
",3.545216573743993,-9.513002596169988,-2.6146566973871916,-30.126424058645668,20.180148274075876,5.063109444176682,11.340608815615084,1.352369664492274,21.171898448311577,-18.455478027673475,"
",12.139680994941553,-32.574827071733594,-8.953218388022806,-103.16017935233214,69.10171984759315,17.337314157332273,38.8329938231668,4.630841578412938,72.49771286846085,-63.19603082203342,"
",27.072562926772314,-72.64474709802536,-19.96646932550219,-230.05632917511238,154.1029504565794,38.66374484644012,86.60101277378791,10.327186528850092,161.67631542347021,-140.9327413022338,"
",5.371540263248475,-14.413640297227253,-3.9616010566472597,-45.64609705855404,30.575982233448297,7.671377945722245,17.182740629719824,2.049044946200415,32.0786340125933,-27.962845496474962,"
",0.32229241579490847,-0.8648184178336352,-0.2376960633988356,-2.7387658235132424,1.8345589340068977,0.4602826767433347,1.0309644377831895,0.1229426967720249,1.924718040755598,-1.6777707297884978,"
",14.82545112656579,-39.78164722034722,-10.934018916346437,-125.98322788160915,84.3897109643173,21.173003130193397,47.42436413802672,5.655364051513145,88.53702987475751,-77.1774535702709,"
",19.874698974019356,-53.33046909974084,-14.657923909594862,-168.89055911664997,113.1311342637587,28.384098399172306,63.57614032996335,7.5814663009415355,118.69094584659521,-103.46252833695736,"
",1.0743080526496949,-2.8827280594454505,-0.792320211329452,-9.129219411710809,6.115196446689659,1.534275589144449,3.436548125943965,0.409808989240083,6.41572680251866,-5.592569099294993,"
",1.3966004684446034,-3.747546477279086,-1.0300162747282875,-11.867985235224051,7.949755380696557,1.9945582658877836,4.467512563727155,0.532751686012108,8.340444843274257,-7.270339829083491,"
",11.387665358086766,-30.55691743012178,-8.39859424009219,-96.76972576413456,64.82108233491039,16.26332124493116,36.42741013500603,4.34397528594488,68.0067041066978,-59.28123245252692,"
",6.44584831589817,-17.296368356672705,-4.753921267976712,-54.77531647026485,36.69117868013795,9.205653534866695,20.619288755663792,2.458853935440498,38.49436081511196,-33.55541459576996,"
",9.883634084377194,-26.521098146898147,-7.289345944230958,-83.98881858773943,56.25980730954486,14.11533542012893,31.61624275868448,3.7702427010087636,59.02468658317167,-51.45163571351394,"
",17.188928842395118,-46.12364895112721,-12.677123381271231,-146.06751058737294,97.84314314703454,24.548409426311185,54.98477001510344,6.556943827841328,102.65162884029856,-89.48110558871988,"
",19.44497575295948,-52.177377875962655,-14.34099582506308,-165.23887135196563,110.68505568508283,27.77038816351453,62.20152107958577,7.417542705245503,116.12465512558774,-101.22550069723937,"
",8.916756836992468,-23.92664289339724,-6.576257754034451,-75.77252111719972,50.75613050752417,12.734487389898927,28.52334944533491,3.4014146106926892,53.25053246090488,-46.41832352414844,"
",24.816516016207952,-66.59101817318991,-18.30259688171034,-210.88496841051966,141.26103791853112,35.441766109236774,79.38426170930559,9.466587651445918,148.20328913818105,-129.18834619371432,"
",4.7269554316586575,-12.684003461559984,-3.486208929849589,-40.16856541152756,26.9068643654345,6.750812592235576,15.120811754153447,1.8031595526563653,28.229197931082105,-24.60730403689797,"
",23.205053937233412,-62.26692608402173,-17.114116564716163,-197.19113929295347,132.08824324849664,33.140352725520096,74.22943952038965,8.851874167585793,138.57969893440304,-120.79949254477185,"
",6.553279121163139,-17.58464116261725,-4.833153289109657,-55.68823841143593,37.30269832480692,9.359081093781139,20.962943568258186,2.4998348343645063,39.13593349536382,-34.114671505699455,"
",18.80039092136966,-50.44774104029539,-13.86560369826541,-159.76133970493913,107.01593781706903,26.849822810027856,60.13959220401939,7.171657311701453,112.27521904407655,-97.86995923766237,"
",14.073435489711004,-37.7637375787354,-10.379394768415821,-119.5927742934116,80.10907345163453,20.099010217792284,45.01878044986594,5.368497759045088,84.04602111299444,-73.2626552007644,"
",8.057310394872712,-21.62046044584088,-5.94240158497089,-68.46914558783106,45.863973350172444,11.507066918583368,25.77411094457974,3.073567419300623,48.11795101888995,-41.94426824471245,"
",0.9668772473847255,-2.5944552535009056,-0.7130881901965067,-8.216297470539727,5.503676802020693,1.3808480302300041,3.0928933133495686,0.3688280903160747,5.774154122266793,-5.0333121893654935,"
",2.9006317421541765,-7.783365760502717,-2.1392645705895204,-24.648892411619183,16.51103040606208,4.142544090690012,9.278679940048706,1.106484270948224,17.32246236680038,-15.099936568096481,"
",20.304422195079233,-54.48356032351902,-14.974851994126642,-172.54224688133428,115.57721284243456,28.997808634830086,64.95075958034094,7.745389896637569,121.25723656760267,-105.69955597667537,"
",25.78339326359268,-69.18547342669082,-19.015685071906848,-219.1012658810594,146.7647147205518,36.82261413946678,82.47715502265517,9.835415741761992,153.97744326044784,-134.22165838307984,"
",22.667899910908563,-60.82556205429901,-16.717956459051436,-192.62652958709805,129.0306450251518,32.373214930947874,72.51116545741766,8.646969672965751,135.37183553314372,-118.00320799512434,"
",15.255174347625669,-40.9347384441254,-11.250947000878218,-129.63491564629348,86.83578954299315,21.786713365851178,48.7989833884043,5.819287647209179,91.10332059576497,-79.41448120998889,"
",27.28742453730225,-73.22129270991445,-20.12493336776808,-231.88217305745454,155.32598974591735,38.970599964269006,87.28832239897672,10.409148326698109,162.95946078397395,-142.0512551220928,"
",14.610589516035851,-39.20510160845813,-10.775554874080546,-124.157383999267,83.16667167497937,20.866148012364505,46.73705451283792,5.5734022536651295,87.25388451425377,-76.0589397504119,"
",7.520156368547864,-20.179096416118156,-5.546241479306164,-63.90453588197566,42.80637512682761,10.739929124011143,24.055836881607757,2.868662924680581,44.910087617630616,-39.14798369506495,"
",24.171931184618135,-64.86138133752264,-17.827204754912668,-205.4074367634932,137.59192005051733,34.5212007557501,77.32233283373921,9.220702257901868,144.35385305666983,-125.83280473413734,"
",4.619524626393688,-12.395730655615438,-3.4069769087166435,-39.255643470356475,26.295344720765534,6.597385033321131,14.77715694155905,1.762178653732357,27.587625250830236,-24.04804712696847,"
",13.106558242326278,-35.1692823252345,-9.666306578219315,-111.37647682287187,74.60539664961384,18.718162187562278,41.92588713651637,4.9996696687290125,78.27186699072764,-68.22934301139891,"
",4.512093821128719,-12.107457849670894,-3.327744887583698,-38.3427215291854,25.683825076096568,6.443957474406686,14.433502128964653,1.7211977548083488,26.94605257057837,-23.488790217038968,"
",20.734145416139114,-55.6366515472972,-15.291780078658423,-176.1939346460186,118.02329142111041,29.611518870487867,66.32537883071852,7.909313492333602,123.82352728861014,-107.93658361639336,"
",10.63564972123198,-28.539007788509963,-7.843970092161574,-90.379272175937,60.54044482222763,15.189328332530046,34.02182644684525,4.057108993476822,63.515695344934734,-55.36643408302043,"
",3.1154933526841155,-8.359911372391807,-2.2977286128554106,-26.474736293961342,17.734069695400013,4.449399208518902,9.965989565237498,1.1884460687962408,18.605607727304115,-16.218450387955478,"
",22.667899910908563,-60.82556205429901,-16.717956459051436,-192.62652958709805,129.0306450251518,32.373214930947874,72.51116545741766,8.646969672965751,135.37183553314372,-118.00320799512434,"
",6.875571536958048,-18.449459580450885,-5.070849352508493,-58.42700423494917,39.13725725881382,9.819363770524474,21.993908006041377,2.6227775311365313,41.06065153611942,-35.792442235487954,"
",14.82545112656579,-39.78164722034722,-10.934018916346437,-125.98322788160915,84.3897109643173,21.173003130193397,47.42436413802672,5.655364051513145,88.53702987475751,-77.1774535702709,"
",13.643712268651125,-36.610646354957225,-10.06246668388404,-115.94108652872727,77.66299487295868,19.485299982134503,43.64416119948836,5.204574163349054,81.47973039198698,-71.0256275610464,"
",26.535408900447464,-71.20338306830263,-19.570309219837462,-225.49171946925696,151.04535223323458,37.89660705186789,84.88273871081594,10.12228203423005,158.4684520222109,-138.13645675258633,"
",9.668772473847255,-25.944552535009056,-7.1308819019650675,-82.16297470539727,55.036768020206935,13.80848030230004,30.928933133495686,3.6882809031607473,57.74154122266794,-50.33312189365493,"
",18.370667700309784,-49.29464981651721,-13.548675613733629,-156.10965194025482,104.56985923839316,26.23611257437008,58.7649729536418,7.007733716005419,109.70892832306909,-95.63293159794438,"
",20.841576221404083,-55.92492435324174,-15.371012099791368,-177.10685658718967,118.63481106577939,29.76494642940231,66.66903364331293,7.950294391257611,124.465099968862,-108.49584052632287,"
",19.12268333716457,-51.31255945812902,-14.103299761664244,-162.5001055284524,108.85049675107594,27.310105486771192,61.17055664180258,7.294600008473478,114.19993708483214,-99.54772996745088,"
",15.255174347625669,-40.9347384441254,-11.250947000878218,-129.63491564629348,86.83578954299315,21.786713365851178,48.7989833884043,5.819287647209179,91.10332059576497,-79.41448120998889,"
",9.561341668582285,-25.65627972906451,-7.051649880832122,-81.2500527642262,54.42524837553797,13.655052743385596,30.58527832090129,3.647300004236739,57.09996854241607,-49.77386498372544,"
",11.065372942291859,-29.692099012288143,-8.160898176693355,-94.03095994062133,62.986523400903486,15.803038568187825,35.39644569722284,4.2210325891728555,66.08198606594219,-57.60346172273842,"
",5.801263484308353,-15.566731521005433,-4.278529141179041,-49.297784823238366,33.02206081212416,8.285088181380024,18.55735988009741,2.212968541896448,34.64492473360076,-30.199873136192963,"
",22.345607495113654,-59.960743636465374,-16.4802603956526,-189.88776376358481,127.1960860911449,31.912932254204538,71.48020101963448,8.524026976193728,133.44711749238812,-116.32543726533585,"
",19.23011414242954,-51.60083226407357,-14.18253178279719,-163.41302746962347,109.4620163957449,27.463533045685637,61.51421145439698,7.335580907397486,114.84150976508401,-100.10698687738036,"
",18.478098505574753,-49.58292262246175,-13.627907634866574,-157.0225738814259,105.18137888306214,26.389540133284523,59.1086277662362,7.048714614929428,110.35050100332094,-96.19218850787388,"
",4.619524626393688,-12.395730655615438,-3.4069769087166435,-39.255643470356475,26.295344720765534,6.597385033321131,14.77715694155905,1.762178653732357,27.587625250830236,-24.04804712696847,"
",8.594464421197559,-23.061824475563604,-6.338561690635616,-73.03375529368647,48.92157157351727,12.274204713155592,27.49238500755172,3.278471913920664,51.32581442014928,-44.74055279435994,"
",3.008062547419146,-8.071638566447263,-2.2184965917224657,-25.561814352790265,17.122550050731046,4.295971649604457,9.622334752643102,1.1474651698722325,17.96403504705225,-15.65919347802598,"
",4.40466301586375,-11.819185043726348,-3.248512866450753,-37.42979958801431,25.0723054314276,6.2905299154922405,14.089847316370257,1.6802168558843404,26.304479890326505,-22.92953330710947,"
",11.709957773881674,-31.421735847955414,-8.636290303491027,-99.50849158764781,66.65564126891728,16.723603921674496,37.45837457278922,4.466917982716905,69.93142214745339,-60.95900318231542,"
",0.6445848315898169,-1.7296368356672704,-0.4753921267976712,-5.477531647026485,3.6691178680137955,0.9205653534866693,2.061928875566379,0.2458853935440498,3.849436081511196,-3.3555414595769957,"
",22.238176689848686,-59.67247083052083,-16.401028374519655,-188.97484182241374,126.58456644647595,31.759504695290094,71.13654620704008,8.48304607726972,132.80554481213625,-115.76618035540635,"
",2.5783393263592678,-6.918547342669082,-1.9015685071906847,-21.91012658810594,14.676471472055182,3.6822614139466774,8.247715502265516,0.9835415741761993,15.397744326044783,-13.422165838307983,"
",21.59359185825887,-57.94283399485356,-15.925636247721984,-183.49731017538724,122.91544857846215,30.838939341803425,69.0746173314737,8.23716068372567,128.95610873062506,-112.41063889582935,"
",7.305294758017926,-19.602550804229065,-5.387777437040273,-62.0786919996335,41.583335837489685,10.433074006182252,23.36852725641896,2.7867011268325648,43.626942257126885,-38.02946987520595,"
",23.205053937233412,-62.26692608402173,-17.114116564716163,-197.19113929295347,132.08824324849664,33.140352725520096,74.22943952038965,8.851874167585793,138.57969893440304,-120.79949254477185,"
",17.08149803713015,-45.835376145182664,-12.597891360138286,-145.15458864620186,97.23162350236558,24.39498186739674,54.64111520250904,6.51596292891732,102.01005616004669,-88.92184867879038,"
",2.4709085210942985,-6.630274536724537,-1.8223364860577396,-20.997204646934858,14.064951827386215,3.5288338550322327,7.90406068967112,0.9425606752521909,14.756171645792918,-12.862908928378484,"
",3.1154933526841155,-8.359911372391807,-2.2977286128554106,-26.474736293961342,17.734069695400013,4.449399208518902,9.965989565237498,1.1884460687962408,18.605607727304115,-16.218450387955478,"
",6.230986705368231,-16.719822744783613,-4.595457225710821,-52.949472587922685,35.468139390800026,8.898798417037804,19.931979130474996,2.3768921375924816,37.21121545460823,-32.436900775910956,"
",5.908694289573322,-15.85500432694998,-4.357761162311986,-50.210706764409444,33.633580456793126,8.43851574029447,18.90101469269181,2.2539494408204566,35.28649741385263,-30.75913004612246,"
",15.255174347625669,-40.9347384441254,-11.250947000878218,-129.63491564629348,86.83578954299315,21.786713365851178,48.7989833884043,5.819287647209179,91.10332059576497,-79.41448120998889,"
",24.279361989883107,-65.14965414346719,-17.906436776045613,-206.32035870466427,138.2034396951863,34.674628314664545,77.6659876463336,9.261683156825876,144.9954257369217,-126.39206164406684,"
",5.264109457983505,-14.12536749128271,-3.882369035514315,-44.73317511738296,29.96446258877933,7.5179503868078,16.83908581712543,2.008064047276407,31.437061332341433,-27.403588586545464,"
",6.3384175106332,-17.00809555072816,-4.674689246843767,-53.86239452909377,36.079659035468985,9.052225975952249,20.275633943069394,2.41787303651649,37.85278813486009,-32.99615768584046,"
",2.793200936889207,-7.495092954558172,-2.060032549456575,-23.735970470448102,15.899510761393113,3.9891165317755672,8.93502512745431,1.065503372024216,16.680889686548515,-14.540679658166981,"
",7.6275871738128345,-20.4673692220627,-5.625473500439109,-64.81745782314674,43.41789477149658,10.893356682925589,24.39949169420215,2.9096438236045894,45.551660297882485,-39.707240604994446,"
",17.833513673984935,-47.85328578679448,-13.152515508068902,-151.54504223439943,101.51226101504834,25.468974779797854,57.04669889066982,6.8028292213853785,106.50106492180976,-92.83664704829688,"
",17.511221258190027,-46.98846736896085,-12.914819444670067,-148.80627641088617,99.67770208104145,25.008692103054518,56.01573445288663,6.679886524613353,104.57634688105415,-91.15887631850838,"
",7.197863952752956,-19.31427799828452,-5.308545415907328,-61.165770058462414,40.97181619282072,10.279646447267808,23.024872443824567,2.7457202279085564,42.98536957687502,-37.47021296527645,"
",11.387665358086766,-30.55691743012178,-8.39859424009219,-96.76972576413456,64.82108233491039,16.26332124493116,36.42741013500603,4.34397528594488,68.0067041066978,-59.28123245252692,"
",15.577466763420576,-41.79955686195903,-11.488643064277053,-132.3736814698067,88.67034847700006,22.24699604259451,49.82994782618749,5.942230343981204,93.02803863652056,-81.0922519397774,"
",10.74308052649695,-28.827280594454507,-7.923202113294519,-91.29219411710808,61.151964466896594,15.34275589144449,34.36548125943965,4.09808989240083,64.1572680251866,-55.925690992949924,"
",25.246239237267833,-67.7441093969681,-18.61952496624212,-214.536656175204,143.70711649720698,36.05547634489455,80.75888095968318,9.630511247141952,150.7695798591885,-131.42537383343233,"
",22.560469105643595,-60.53728924835447,-16.63872443791849,-191.71360764592697,128.41912538048285,32.21978737203343,72.16751064482327,8.605988774041743,134.73026285289185,-117.44395108519485,"
",17.940944479249907,-48.141558592739024,-13.231747529201847,-152.4579641755705,102.12378065971731,25.6224023387123,57.39035370326422,6.843810120309387,107.14263760206161,-93.39590395822638,"
",2.5783393263592678,-6.918547342669082,-1.9015685071906847,-21.91012658810594,14.676471472055182,3.6822614139466774,8.247715502265516,0.9835415741761993,15.397744326044783,-13.422165838307983,"
",14.073435489711004,-37.7637375787354,-10.379394768415821,-119.5927742934116,80.10907345163453,20.099010217792284,45.01878044986594,5.368497759045088,84.04602111299444,-73.2626552007644,"
",23.09762313196844,-61.97865327807719,-17.034884543583217,-196.2782173517824,131.47672360382768,32.98692516660565,73.88578470779525,8.810893268661784,137.93812625415117,-120.24023563484235,"
",5.908694289573322,-15.85500432694998,-4.357761162311986,-50.210706764409444,33.633580456793126,8.43851574029447,18.90101469269181,2.2539494408204566,35.28649741385263,-30.75913004612246,"
",21.80845346878881,-58.51937960674265,-16.084100289987873,-185.3231540577294,124.13848786780008,31.145794459632313,69.76192695666249,8.319122481573686,130.2392540911288,-113.52915271568835,"
",19.552406558224448,-52.465650681907206,-14.420227846196026,-166.1517932931367,111.29657532975179,27.923815722428973,62.54517589218016,7.458523604169511,116.7662278058396,-101.78475760716887,"
",23.84963876882323,-63.996562919689005,-17.589508691513835,-202.66867093997993,135.75736111651042,34.06091807900677,76.29136839595603,9.097759561129843,142.42913501591426,-124.15503400434883,"
",23.742207963558258,-63.70829011374446,-17.51027667038089,-201.75574899880885,135.14584147184146,33.907490520092324,75.94771358336163,9.056778662205835,141.7875623356624,-123.59577709441935,"
",0.32229241579490847,-0.8648184178336352,-0.2376960633988356,-2.7387658235132424,1.8345589340068977,0.4602826767433347,1.0309644377831895,0.1229426967720249,1.924718040755598,-1.6777707297884978,"
",1.2891696631796339,-3.459273671334541,-0.9507842535953424,-10.95506329405297,7.338235736027591,1.8411307069733387,4.123857751132758,0.4917707870880996,7.698872163022392,-6.711082919153991,"
",4.834386236923628,-12.972276267504528,-3.5654409509825338,-41.08148735269864,27.518384010103468,6.90424015115002,15.464466566747843,1.8441404515803737,28.87077061133397,-25.166560946827467,"
",1.718892884239512,-4.612364895112721,-1.2677123381271231,-14.606751058737293,9.784314314703455,2.4548409426311184,5.498477001510344,0.6556943827841328,10.265162884029856,-8.948110558871988,"
",3.222924157949085,-8.648184178336352,-2.376960633988356,-27.387658235132424,18.345589340068976,4.602826767433347,10.309644377831896,1.229426967720249,19.24718040755598,-16.77770729788498,"
",6.553279121163139,-17.58464116261725,-4.833153289109657,-55.68823841143593,37.30269832480692,9.359081093781139,20.962943568258186,2.4998348343645063,39.13593349536382,-34.114671505699455,"
",0.859446442119756,-2.3061824475563606,-0.6338561690635616,-7.303375529368647,4.892157157351727,1.2274204713155592,2.749238500755172,0.3278471913920664,5.132581442014928,-4.474055279435994,"
",16.75920562133524,-44.97055772734903,-12.36019529673945,-142.4158228226886,95.39706456835869,23.934699190653404,53.61015076472586,6.393020232145295,100.0853381192911,-87.24407794900189,"
",10.52821891596701,-28.25073498256542,-7.76473807102863,-89.46635023476593,59.92892517755866,15.0359007736156,33.67817163425086,4.016128094552814,62.874122664682865,-54.80717717309093,"
",20.734145416139114,-55.6366515472972,-15.291780078658423,-176.1939346460186,118.02329142111041,29.611518870487867,66.32537883071852,7.909313492333602,123.82352728861014,-107.93658361639336,"
",14.93288193183076,-40.06992002629177,-11.013250937479382,-126.89614982278023,85.00123060898626,21.32643068910784,47.76801895062111,5.696344950437154,89.17860255500938,-77.7367104802004,"
",2.6857701316242375,-7.206820148613627,-1.9808005283236298,-22.82304852927702,15.287991116724148,3.8356889728611225,8.591370314859912,1.0245224731002076,16.03931700629665,-13.981422748237481,"
",26.427978095182496,-70.91511026235808,-19.491077198704517,-224.5787975280859,150.43383258856562,37.743179492953445,84.53908389822153,10.081301135306042,157.82687934195903,-137.57719984265682,"
",5.908694289573322,-15.85500432694998,-4.357761162311986,-50.210706764409444,33.633580456793126,8.43851574029447,18.90101469269181,2.2539494408204566,35.28649741385263,-30.75913004612246,"
",0.32229241579490847,-0.8648184178336352,-0.2376960633988356,-2.7387658235132424,1.8345589340068977,0.4602826767433347,1.0309644377831895,0.1229426967720249,1.924718040755598,-1.6777707297884978,"
",0.9668772473847255,-2.5944552535009056,-0.7130881901965067,-8.216297470539727,5.503676802020693,1.3808480302300041,3.0928933133495686,0.3688280903160747,5.774154122266793,-5.0333121893654935,"
",16.544344010805304,-44.394012115459944,-12.201731254473561,-140.58997894034644,94.17402527902075,23.627844072824516,52.92284113953706,6.311058434297278,98.80219275878736,-86.12556412914289,"
",19.12268333716457,-51.31255945812902,-14.103299761664244,-162.5001055284524,108.85049675107594,27.310105486771192,61.17055664180258,7.294600008473478,114.19993708483214,-99.54772996745088,"
",12.032250189676583,-32.28655426578905,-8.873986366889863,-102.24725741116106,68.49020020292419,17.18388659841783,38.48933901057241,4.58986067948893,71.856140188209,-62.63677391210392,"
",7.412725563282895,-19.89082361017361,-5.4670094581732185,-62.99161394080458,42.19485548215865,10.586501565096698,23.71218206901336,2.8276820257565727,44.268514937378754,-38.58872678513545,"
",24.386792795148075,-65.43792694941173,-17.98566879717856,-207.23328064583535,138.81495933985525,34.82805587357899,78.00964245892801,9.302664055749885,145.63699841717357,-126.95131855399633,"
",8.057310394872712,-21.62046044584088,-5.94240158497089,-68.46914558783106,45.863973350172444,11.507066918583368,25.77411094457974,3.073567419300623,48.11795101888995,-41.94426824471245,"
",0.32229241579490847,-0.8648184178336352,-0.2376960633988356,-2.7387658235132424,1.8345589340068977,0.4602826767433347,1.0309644377831895,0.1229426967720249,1.924718040755598,-1.6777707297884978,"
",13.321419852856218,-35.745827937123586,-9.824770620485204,-113.20232070521402,75.82843593895177,19.025017305391167,42.61319676170517,5.081631466577029,79.55501235123138,-69.34785683125791,"
",11.495096163351736,-30.845190236066323,-8.477826261225136,-97.68264770530565,65.43260197957935,16.416748803845604,36.77106494760043,4.384956184868888,68.64827678694967,-59.840489362456424,"
",9.883634084377194,-26.521098146898147,-7.289345944230958,-83.98881858773943,56.25980730954486,14.11533542012893,31.61624275868448,3.7702427010087636,59.02468658317167,-51.45163571351394,"
",20.94900702666905,-56.21319715918629,-15.450244120924314,-178.01977852836077,119.24633071044835,29.918373988316755,67.01268845590732,7.991275290181619,125.10667264911386,-109.05509743625235,"
",22.882761521438503,-61.4021076661881,-16.876420501317327,-194.4523734694402,130.25368431448973,32.68007004877676,73.19847508260645,8.728931470813768,136.65498089364746,-119.12172181498335,"
",3.1154933526841155,-8.359911372391807,-2.2977286128554106,-26.474736293961342,17.734069695400013,4.449399208518902,9.965989565237498,1.1884460687962408,18.605607727304115,-16.218450387955478,"
",5.049247847453566,-13.548821879393618,-3.723904993248424,-42.9073312350408,28.741423299441397,7.2110952689789105,16.151776191936637,1.9261022494283901,30.1539159718377,-26.285074766686467,"
",26.857701316242373,-72.06820148613627,-19.808005283236298,-228.2304852927702,152.8799111672415,38.35688972861122,85.91370314859913,10.245224731002075,160.3931700629665,-139.81422748237483,"
",17.618652063455,-47.27674017490539,-12.994051465803013,-149.71919835205725,100.2892217257104,25.162119661968962,56.35938926548103,6.720867423537362,105.21791956130602,-91.71813322843788,"
",19.33754494769451,-51.88910507001811,-14.261763803930135,-164.32594941079455,110.07353604041387,27.61696060460008,61.85786626699137,7.376561806321495,115.48308244533588,-100.66624378730987,"
",2.9006317421541765,-7.783365760502717,-2.1392645705895204,-24.648892411619183,16.51103040606208,4.142544090690012,9.278679940048706,1.106484270948224,17.32246236680038,-15.099936568096481,"
",18.263236895044813,-49.00637701057266,-13.469443592600683,-155.19672999908374,103.9583395937242,26.082685015455635,58.42131814104741,6.966752817081411,109.06735564281722,-95.07367468801488,"
",22.77533071617353,-61.11383486024356,-16.79718848018438,-193.53945152826913,129.64216466982077,32.52664248986232,72.85482027001206,8.68795057188976,136.0134082133956,-118.56246490505384,"
",15.040312737095729,-40.35819283223631,-11.092482958612328,-127.80907176395132,85.61275025365522,21.479858248022285,48.111673763215514,5.737325849361162,89.82017523526123,-78.2959673901299,"
",8.37960281066762,-22.485278863674516,-6.180097648369725,-71.2079114113443,47.69853228417934,11.967349595326702,26.80507538236293,3.1965101160726475,50.04266905964555,-43.622038974500946,"
",8.48703361593259,-22.77355166961906,-6.25932966950267,-72.12083335251539,48.31005192884831,12.120777154241146,27.148730194957324,3.237491014996656,50.68424173989741,-44.18129588443044,"
",15.147743542360699,-40.64646563818086,-11.171714979745273,-128.7219937051224,86.2242698983242,21.63328580693673,48.45532857580991,5.77830674828517,90.4617479155131,-78.8552243000594,"
",7.520156368547864,-20.179096416118156,-5.546241479306164,-63.90453588197566,42.80637512682761,10.739929124011143,24.055836881607757,2.868662924680581,44.910087617630616,-39.14798369506495,"
",25.99825487412262,-69.76201903857991,-19.17414911417274,-220.92710976340157,147.98775400988976,37.12946925729567,83.16446464784396,9.917377539610008,155.26058862095158,-135.34017220293882,"
",22.345607495113654,-59.960743636465374,-16.4802603956526,-189.88776376358481,127.1960860911449,31.912932254204538,71.48020101963448,8.524026976193728,133.44711749238812,-116.32543726533585,"
",15.577466763420576,-41.79955686195903,-11.488643064277053,-132.3736814698067,88.67034847700006,22.24699604259451,49.82994782618749,5.942230343981204,93.02803863652056,-81.0922519397774,"
",11.924819384411615,-31.998281459844502,-8.794754345756918,-101.33433546998997,67.87868055825521,17.030459039503384,38.145684197978014,4.5488797805649215,71.21456750795713,-62.07751700217442,"
",9.239049252787376,-24.791461311230876,-6.813953817433287,-78.51128694071295,52.59068944153107,13.194770066642262,29.5543138831181,3.524357307464714,55.17525050166047,-48.09609425393694,"
",23.205053937233412,-62.26692608402173,-17.114116564716163,-197.19113929295347,132.08824324849664,33.140352725520096,74.22943952038965,8.851874167585793,138.57969893440304,-120.79949254477185,"
",22.77533071617353,-61.11383486024356,-16.79718848018438,-193.53945152826913,129.64216466982077,32.52664248986232,72.85482027001206,8.68795057188976,136.0134082133956,-118.56246490505384,"
",20.411853000344205,-54.771833129463566,-15.054084015259587,-173.45516882250536,116.18873248710352,29.15123619374453,65.29441439293534,7.786370795561577,121.89880924785453,-106.25881288660486,"
",22.77533071617353,-61.11383486024356,-16.79718848018438,-193.53945152826913,129.64216466982077,32.52664248986232,72.85482027001206,8.68795057188976,136.0134082133956,-118.56246490505384,"
",15.684897568685546,-42.087829667903584,-11.567875085409998,-133.2866034109778,89.28186812166902,22.400423601508955,50.17360263878189,5.983211242905212,93.66961131677243,-81.6515088497069,"
",26.427978095182496,-70.91511026235808,-19.491077198704517,-224.5787975280859,150.43383258856562,37.743179492953445,84.53908389822153,10.081301135306042,157.82687934195903,-137.57719984265682,"
",2.3634777158293288,-6.342001730779992,-1.7431044649247944,-20.08428270576378,13.45343218271725,3.375406296117788,7.5604058770767235,0.9015797763281826,14.114598965541052,-12.303652018448984,"
",14.073435489711004,-37.7637375787354,-10.379394768415821,-119.5927742934116,80.10907345163453,20.099010217792284,45.01878044986594,5.368497759045088,84.04602111299444,-73.2626552007644,"
",16.007189984480455,-42.952648085737216,-11.805571148808834,-136.02536923449105,91.11642705567593,22.86070627825229,51.20456707656508,6.106153939677237,95.59432935752803,-83.32927957949539,"
",16.75920562133524,-44.97055772734903,-12.36019529673945,-142.4158228226886,95.39706456835869,23.934699190653404,53.61015076472586,6.393020232145295,100.0853381192911,-87.24407794900189,"
",26.105685679387587,-70.05029184452445,-19.253381135305684,-221.84003170457265,148.59927365455871,37.28289681621011,83.50811946043835,9.958358438534017,155.90216130120342,-135.89942911286832,"
",9.239049252787376,-24.791461311230876,-6.813953817433287,-78.51128694071295,52.59068944153107,13.194770066642262,29.5543138831181,3.524357307464714,55.17525050166047,-48.09609425393694,"
",7.305294758017926,-19.602550804229065,-5.387777437040273,-62.0786919996335,41.583335837489685,10.433074006182252,23.36852725641896,2.7867011268325648,43.626942257126885,-38.02946987520595,"
",15.684897568685546,-42.087829667903584,-11.567875085409998,-133.2866034109778,89.28186812166902,22.400423601508955,50.17360263878189,5.983211242905212,93.66961131677243,-81.6515088497069,"
",12.78426582653137,-34.304463907400866,-9.428610514820479,-108.63771099935862,72.77083771560694,18.257879510818942,40.89492269873318,4.876726971956988,76.34714894997205,-66.55157228161042,"
",8.37960281066762,-22.485278863674516,-6.180097648369725,-71.2079114113443,47.69853228417934,11.967349595326702,26.80507538236293,3.1965101160726475,50.04266905964555,-43.622038974500946,"
",17.940944479249907,-48.141558592739024,-13.231747529201847,-152.4579641755705,102.12378065971731,25.6224023387123,57.39035370326422,6.843810120309387,107.14263760206161,-93.39590395822638,"
",6.768140731693078,-18.16118677450634,-4.991617331375547,-57.514082293778095,38.52573761414485,9.66593621161003,21.65025319344698,2.581796632212523,40.419078855867554,-35.23318532555845,"
",13.643712268651125,-36.610646354957225,-10.06246668388404,-115.94108652872727,77.66299487295868,19.485299982134503,43.64416119948836,5.204574163349054,81.47973039198698,-71.0256275610464,"
",26.213116484652556,-70.338564650469,-19.33261315643863,-222.75295364574373,149.21079329922767,37.436324375124556,83.85177427303275,9.999339337458025,156.5437339814553,-136.45868602279782,"
",6.016125094838292,-16.143277132894525,-4.436993183444931,-51.12362870558053,34.24510010146209,8.591943299208914,19.244669505286204,2.294930339744465,35.9280700941045,-31.31838695605196,"
",1.933754494769451,-5.188910507001811,-1.4261763803930134,-16.432594941079454,11.007353604041386,2.7616960604600083,6.185786626699137,0.7376561806321494,11.548308244533587,-10.066624378730987,"
",10.957942137026889,-29.4038262063436,-8.08166615556041,-93.11803799945025,62.37500375623452,15.64961100927338,35.05279088462844,4.180051690248847,65.44041338569033,-57.04420481280893,"
",22.130745884583717,-59.384198024576285,-16.32179635338671,-188.06191988124266,125.97304680180697,31.60607713637565,70.79289139444568,8.442065178345711,132.16397213188438,-115.20692344547685,"
",27.179993732037282,-72.9330199039699,-20.045701346635134,-230.96925111628346,154.71447010124837,38.81717240535456,86.94466758638232,10.3681674277741,162.31788810372208,-141.4919982121633,"
",16.75920562133524,-44.97055772734903,-12.36019529673945,-142.4158228226886,95.39706456835869,23.934699190653404,53.61015076472586,6.393020232145295,100.0853381192911,-87.24407794900189,"
",4.082370600068841,-10.954366625892712,-3.0108168030519176,-34.69103376450107,23.237746497420705,5.830247238748906,13.058882878587067,1.5572741591123154,24.379761849570908,-21.251762577320974,"
",26.427978095182496,-70.91511026235808,-19.491077198704517,-224.5787975280859,150.43383258856562,37.743179492953445,84.53908389822153,10.081301135306042,157.82687934195903,-137.57719984265682,"
",21.05643783193402,-56.50146996513084,-15.52947614205726,-178.93270046953185,119.85785035511732,30.0718015472312,67.35634326850172,8.032256189105627,125.74824532936573,-109.61435434618186,"
",13.643712268651125,-36.610646354957225,-10.06246668388404,-115.94108652872727,77.66299487295868,19.485299982134503,43.64416119948836,5.204574163349054,81.47973039198698,-71.0256275610464,"
",27.179993732037282,-72.9330199039699,-20.045701346635134,-230.96925111628346,154.71447010124837,38.81717240535456,86.94466758638232,10.3681674277741,162.31788810372208,-141.4919982121633,"
",18.155806089779844,-48.71810420462812,-13.390211571467738,-154.28380805791267,103.34681994905525,25.929257456541187,58.077663328453006,6.925771918157403,108.42578296256535,-94.51441777808537,"
",23.957069574088198,-64.28483572563356,-17.66874071264678,-203.58159288115104,136.3688807611794,34.21434563792121,76.63502320855042,9.138740460053851,143.07070769616612,-124.71429091427834,"
",22.882761521438503,-61.4021076661881,-16.876420501317327,-194.4523734694402,130.25368431448973,32.68007004877676,73.19847508260645,8.728931470813768,136.65498089364746,-119.12172181498335,"
",8.057310394872712,-21.62046044584088,-5.94240158497089,-68.46914558783106,45.863973350172444,11.507066918583368,25.77411094457974,3.073567419300623,48.11795101888995,-41.94426824471245,"
",14.180866294975973,-38.05201038467995,-10.458626789548767,-120.50569623458267,80.7205930963035,20.252437776706728,45.36243526246034,5.409478657969096,84.68759379324631,-73.8219121106939,"
",2.5783393263592678,-6.918547342669082,-1.9015685071906847,-21.91012658810594,14.676471472055182,3.6822614139466774,8.247715502265516,0.9835415741761993,15.397744326044783,-13.422165838307983,"
",27.179993732037282,-72.9330199039699,-20.045701346635134,-230.96925111628346,154.71447010124837,38.81717240535456,86.94466758638232,10.3681674277741,162.31788810372208,-141.4919982121633,"
",6.123555900103261,-16.43154993883907,-4.516225204577876,-52.03655064675161,34.85661974613106,8.745370858123358,19.588324317880602,2.3359112386684733,36.56964277435636,-31.877643865981458,"
",13.321419852856218,-35.745827937123586,-9.824770620485204,-113.20232070521402,75.82843593895177,19.025017305391167,42.61319676170517,5.081631466577029,79.55501235123138,-69.34785683125791,"
",23.31248474249838,-62.555198889966285,-17.193348585849108,-198.10406123412454,132.6997628931656,33.29378028443454,74.57309433298404,8.892855066509801,139.2212716146549,-121.35874945470134,"
",27.28742453730225,-73.22129270991445,-20.12493336776808,-231.88217305745454,155.32598974591735,38.970599964269006,87.28832239897672,10.409148326698109,162.95946078397395,-142.0512551220928,"
",11.280234552821797,-30.268644624177234,-8.319362218959245,-95.85680382296349,64.20956269024143,16.109893686016715,36.08375532241163,4.302994387020871,67.36513142644593,-58.72197554259743,"
",6.553279121163139,-17.58464116261725,-4.833153289109657,-55.68823841143593,37.30269832480692,9.359081093781139,20.962943568258186,2.4998348343645063,39.13593349536382,-34.114671505699455,"
",16.114620789745423,-43.24092089168176,-11.88480316994178,-136.93829117566213,91.72794670034489,23.014133837166735,51.54822188915948,6.147134838601246,96.2359020377799,-83.8885364894249,"
",5.908694289573322,-15.85500432694998,-4.357761162311986,-50.210706764409444,33.633580456793126,8.43851574029447,18.90101469269181,2.2539494408204566,35.28649741385263,-30.75913004612246,"
",13.106558242326278,-35.1692823252345,-9.666306578219315,-111.37647682287187,74.60539664961384,18.718162187562278,41.92588713651637,4.9996696687290125,78.27186699072764,-68.22934301139891,"
",17.940944479249907,-48.141558592739024,-13.231747529201847,-152.4579641755705,102.12378065971731,25.6224023387123,57.39035370326422,6.843810120309387,107.14263760206161,-93.39590395822638,"
",13.643712268651125,-36.610646354957225,-10.06246668388404,-115.94108652872727,77.66299487295868,19.485299982134503,43.64416119948836,5.204574163349054,81.47973039198698,-71.0256275610464,"
",27.072562926772314,-72.64474709802536,-19.96646932550219,-230.05632917511238,154.1029504565794,38.66374484644012,86.60101277378791,10.327186528850092,161.67631542347021,-140.9327413022338,"
",23.742207963558258,-63.70829011374446,-17.51027667038089,-201.75574899880885,135.14584147184146,33.907490520092324,75.94771358336163,9.056778662205835,141.7875623356624,-123.59577709441935,"
",27.072562926772314,-72.64474709802536,-19.96646932550219,-230.05632917511238,154.1029504565794,38.66374484644012,86.60101277378791,10.327186528850092,161.67631542347021,-140.9327413022338,"
",10.74308052649695,-28.827280594454507,-7.923202113294519,-91.29219411710808,61.151964466896594,15.34275589144449,34.36548125943965,4.09808989240083,64.1572680251866,-55.925690992949924,"
",23.205053937233412,-62.26692608402173,-17.114116564716163,-197.19113929295347,132.08824324849664,33.140352725520096,74.22943952038965,8.851874167585793,138.57969893440304,-120.79949254477185,"
",18.90782172663463,-50.736013846239935,-13.944835719398355,-160.67426164611024,107.627457461738,27.003250368942304,60.48324701661379,7.212638210625461,112.91679172432842,-98.42921614759187,"
",20.734145416139114,-55.6366515472972,-15.291780078658423,-176.1939346460186,118.02329142111041,29.611518870487867,66.32537883071852,7.909313492333602,123.82352728861014,-107.93658361639336,"
",18.80039092136966,-50.44774104029539,-13.86560369826541,-159.76133970493913,107.01593781706903,26.849822810027856,60.13959220401939,7.171657311701453,112.27521904407655,-97.86995923766237,"
",13.751143073916095,-36.89891916090177,-10.141698705016985,-116.85400846989835,78.27451451762764,19.638727541048947,43.98781601208275,5.245555062273063,82.12130307223885,-71.58488447097591,"
",13.536281463386157,-36.32237354901268,-9.983234662751094,-115.02816458755619,77.0514752282897,19.33187242322006,43.30050638689396,5.163593264425046,80.83815771173511,-70.4663706511169,"
",4.512093821128719,-12.107457849670894,-3.327744887583698,-38.3427215291854,25.683825076096568,6.443957474406686,14.433502128964653,1.7211977548083488,26.94605257057837,-23.488790217038968,"
",25.46110084779777,-68.32065500885719,-18.777989008508012,-216.36250005754616,144.93015578654493,36.36233146272344,81.44619058487197,9.712473044989968,152.05272521969223,-132.54388765329134,"
",2.1486161052993897,-5.765456118890901,-1.584640422658904,-18.258438823421617,12.230392893379317,3.068551178288898,6.87309625188793,0.819617978480166,12.83145360503732,-11.185138198589986,"
",13.536281463386157,-36.32237354901268,-9.983234662751094,-115.02816458755619,77.0514752282897,19.33187242322006,43.30050638689396,5.163593264425046,80.83815771173511,-70.4663706511169,"
",1.1817388579146644,-3.171000865389996,-0.8715522324623972,-10.04214135288189,6.726716091358625,1.687703148058894,3.7802029385383618,0.4507898881640913,7.057299482770526,-6.151826009224492,"
",17.403790452925058,-46.700194563016304,-12.835587423537122,-147.8933544697151,99.06618243637247,24.855264544140073,55.67207964029223,6.638905625689345,103.9347742008023,-90.59961940857889,"
",27.179993732037282,-72.9330199039699,-20.045701346635134,-230.96925111628346,154.71447010124837,38.81717240535456,86.94466758638232,10.3681674277741,162.31788810372208,-141.4919982121633,"
",17.940944479249907,-48.141558592739024,-13.231747529201847,-152.4579641755705,102.12378065971731,25.6224023387123,57.39035370326422,6.843810120309387,107.14263760206161,-93.39590395822638,"
",12.354542605471492,-33.15137268362268,-9.111682430288697,-104.98602323467429,70.32475913693108,17.644169275161165,39.5203034483556,4.712803376260955,73.78085822896459,-64.31454464189241,"
",6.660709926428109,-17.872913968561793,-4.912385310242602,-56.60116035260701,37.914217969475885,9.512508652695583,21.306598380852584,2.5408157332885146,39.77750617561569,-34.67392841562896,"
",22.453038300378623,-60.24901644240992,-16.559492416785545,-190.8006857047559,127.80760573581388,32.066359813118986,71.82385583222887,8.565007875117734,134.08869017263999,-116.88469417526535,"
",9.561341668582285,-25.65627972906451,-7.051649880832122,-81.2500527642262,54.42524837553797,13.655052743385596,30.58527832090129,3.647300004236739,57.09996854241607,-49.77386498372544,"
",23.205053937233412,-62.26692608402173,-17.114116564716163,-197.19113929295347,132.08824324849664,33.140352725520096,74.22943952038965,8.851874167585793,138.57969893440304,-120.79949254477185,"
",0.32229241579490847,-0.8648184178336352,-0.2376960633988356,-2.7387658235132424,1.8345589340068977,0.4602826767433347,1.0309644377831895,0.1229426967720249,1.924718040755598,-1.6777707297884978,"
",12.89169663179634,-34.59273671334541,-9.507842535953424,-109.5506329405297,73.3823573602759,18.41130706973339,41.238577511327584,4.917707870880996,76.98872163022392,-67.11082919153992,"
",5.801263484308353,-15.566731521005433,-4.278529141179041,-49.297784823238366,33.02206081212416,8.285088181380024,18.55735988009741,2.212968541896448,34.64492473360076,-30.199873136192963,"
",12.99912743706131,-34.881009519289954,-9.58707455708637,-110.46355488170079,73.99387700494488,18.564734628647834,41.58223232392198,4.958688769805004,77.63029431047579,-67.67008610146941,"
",26.213116484652556,-70.338564650469,-19.33261315643863,-222.75295364574373,149.21079329922767,37.436324375124556,83.85177427303275,9.999339337458025,156.5437339814553,-136.45868602279782,"
",18.58552931083972,-49.871195428406295,-13.70713965599952,-157.93549582259698,105.7928985277311,26.542967692198967,59.4522825788306,7.089695513853436,110.99207368357281,-96.75144541780338,"
",15.147743542360699,-40.64646563818086,-11.171714979745273,-128.7219937051224,86.2242698983242,21.63328580693673,48.45532857580991,5.77830674828517,90.4617479155131,-78.8552243000594,"
",7.197863952752956,-19.31427799828452,-5.308545415907328,-61.165770058462414,40.97181619282072,10.279646447267808,23.024872443824567,2.7457202279085564,42.98536957687502,-37.47021296527645,"
",12.56940421600143,-33.72791829551177,-9.270146472554588,-106.81186711701646,71.54779842626901,17.951024392990053,40.207613073544394,4.794765174108972,75.06400358946831,-65.43305846175141,"
",3.437785768479024,-9.224729790225442,-2.5354246762542463,-29.213502117474587,19.56862862940691,4.909681885262237,10.996954003020688,1.3113887655682657,20.53032576805971,-17.896221117743977,"
",12.032250189676583,-32.28655426578905,-8.873986366889863,-102.24725741116106,68.49020020292419,17.18388659841783,38.48933901057241,4.58986067948893,71.856140188209,-62.63677391210392,"
",8.8093260317275,-23.638370087452696,-6.497025732901506,-74.85959917602862,50.1446108628552,12.581059830984481,28.179694632740514,3.360433711768681,52.60895978065301,-45.85906661421894,"
",7.412725563282895,-19.89082361017361,-5.4670094581732185,-62.99161394080458,42.19485548215865,10.586501565096698,23.71218206901336,2.8276820257565727,44.268514937378754,-38.58872678513545,"
",15.255174347625669,-40.9347384441254,-11.250947000878218,-129.63491564629348,86.83578954299315,21.786713365851178,48.7989833884043,5.819287647209179,91.10332059576497,-79.41448120998889,"
",20.196991389814265,-54.19528751757447,-14.895619972993696,-171.6293249401632,114.96569319776559,28.844381075915642,64.60710476774655,7.704408997713561,120.6156638873508,-105.14029906674587,"
",23.09762313196844,-61.97865327807719,-17.034884543583217,-196.2782173517824,131.47672360382768,32.98692516660565,73.88578470779525,8.810893268661784,137.93812625415117,-120.24023563484235,"
",20.626714610874142,-55.348378741352654,-15.212548057525478,-175.2810127048475,117.41177177644146,29.45809131157342,65.98172401812413,7.868332593409594,123.18195460835827,-107.37732670646386,"
",11.924819384411615,-31.998281459844502,-8.794754345756918,-101.33433546998997,67.87868055825521,17.030459039503384,38.145684197978014,4.5488797805649215,71.21456750795713,-62.07751700217442,"
",23.41991554776335,-62.84347169591083,-17.272580606982054,-199.01698317529562,133.31128253783456,33.44720784334899,74.91674914557844,8.93383596543381,139.86284429490678,-121.91800636463084,"
",19.23011414242954,-51.60083226407357,-14.18253178279719,-163.41302746962347,109.4620163957449,27.463533045685637,61.51421145439698,7.335580907397486,114.84150976508401,-100.10698687738036,"
",21.05643783193402,-56.50146996513084,-15.52947614205726,-178.93270046953185,119.85785035511732,30.0718015472312,67.35634326850172,8.032256189105627,125.74824532936573,-109.61435434618186,"
",24.494223600413044,-65.72619975535628,-18.064900818311504,-208.14620258700643,139.42647898452424,34.981483432493434,78.35329727152241,9.343644954673893,146.27857109742544,-127.51057546392583,"
",25.13880843200286,-67.45583659102354,-18.540292945109176,-213.62373423403292,143.09559685253802,35.90204878598011,80.41522614708879,9.589530348217943,150.12800717893663,-130.86611692350283,"
",22.990192326703472,-61.690380472132645,-16.955652522450272,-195.3652954106113,130.8652039591587,32.83349760769121,73.54212989520086,8.769912369737776,137.29655357389933,-119.68097872491285,"
",26.96513212150734,-72.35647429208082,-19.887237304369243,-229.14340723394128,153.49143081191045,38.51031728752567,86.25735796119352,10.286205629926084,161.03474274321837,-140.3734843923043,"
",14.93288193183076,-40.06992002629177,-11.013250937479382,-126.89614982278023,85.00123060898626,21.32643068910784,47.76801895062111,5.696344950437154,89.17860255500938,-77.7367104802004,"
",6.123555900103261,-16.43154993883907,-4.516225204577876,-52.03655064675161,34.85661974613106,8.745370858123358,19.588324317880602,2.3359112386684733,36.56964277435636,-31.877643865981458,"
",19.659837363489416,-52.75392348785175,-14.499459867328971,-167.06471523430778,111.90809497442076,28.077243281343417,62.88883070477456,7.49950450309352,117.40780048609147,-102.34401451709837,"
",15.899759179215485,-42.66437527979267,-11.726339127675889,-135.11244729331997,90.50490741100695,22.707278719337847,50.86091226397068,6.065173040753229,94.95275667727617,-82.77002266956589,"
",8.057310394872712,-21.62046044584088,-5.94240158497089,-68.46914558783106,45.863973350172444,11.507066918583368,25.77411094457974,3.073567419300623,48.11795101888995,-41.94426824471245,"
",26.213116484652556,-70.338564650469,-19.33261315643863,-222.75295364574373,149.21079329922767,37.436324375124556,83.85177427303275,9.999339337458025,156.5437339814553,-136.45868602279782,"
",15.470035958155608,-41.51128405601449,-11.409411043144107,-131.46075952863563,88.05882883233109,22.093568483680066,49.4862930135931,5.9012494450571955,92.3864659562687,-80.5329950298479,"
",23.205053937233412,-62.26692608402173,-17.114116564716163,-197.19113929295347,132.08824324849664,33.140352725520096,74.22943952038965,8.851874167585793,138.57969893440304,-120.79949254477185,"
",24.709085210942984,-66.30274536724536,-18.223364860577394,-209.97204646934858,140.64951827386216,35.28833855032233,79.0406068967112,9.42560675252191,147.56171645792918,-128.62908928378482,"
",3.760078184273932,-10.089548208059078,-2.773120739653082,-31.95226794098783,21.403187563413805,5.369964562005571,12.027918440803878,1.4343314623402905,22.455043808815308,-19.573991847532476,"
",19.659837363489416,-52.75392348785175,-14.499459867328971,-167.06471523430778,111.90809497442076,28.077243281343417,62.88883070477456,7.49950450309352,117.40780048609147,-102.34401451709837,"
",11.387665358086766,-30.55691743012178,-8.39859424009219,-96.76972576413456,64.82108233491039,16.26332124493116,36.42741013500603,4.34397528594488,68.0067041066978,-59.28123245252692,"
",14.073435489711004,-37.7637375787354,-10.379394768415821,-119.5927742934116,80.10907345163453,20.099010217792284,45.01878044986594,5.368497759045088,84.04602111299444,-73.2626552007644,"
",11.817388579146645,-31.71000865389996,-8.715522324623972,-100.42141352881889,67.26716091358625,16.87703148058894,37.80202938538362,4.507898881640913,70.57299482770526,-61.51826009224492,"
",22.882761521438503,-61.4021076661881,-16.876420501317327,-194.4523734694402,130.25368431448973,32.68007004877676,73.19847508260645,8.728931470813768,136.65498089364746,-119.12172181498335,"
",10.098495694907133,-27.097643758787235,-7.447809986496848,-85.8146624700816,57.482846598882794,14.422190537957821,32.303552383873274,3.8522044988567803,60.3078319436754,-52.570149533372934,"
",25.46110084779777,-68.32065500885719,-18.777989008508012,-216.36250005754616,144.93015578654493,36.36233146272344,81.44619058487197,9.712473044989968,152.05272521969223,-132.54388765329134,"
",24.709085210942984,-66.30274536724536,-18.223364860577394,-209.97204646934858,140.64951827386216,35.28833855032233,79.0406068967112,9.42560675252191,147.56171645792918,-128.62908928378482,"
",22.345607495113654,-59.960743636465374,-16.4802603956526,-189.88776376358481,127.1960860911449,31.912932254204538,71.48020101963448,8.524026976193728,133.44711749238812,-116.32543726533585,"
",3.760078184273932,-10.089548208059078,-2.773120739653082,-31.95226794098783,21.403187563413805,5.369964562005571,12.027918440803878,1.4343314623402905,22.455043808815308,-19.573991847532476,"
",16.329482400275364,-43.81746650357085,-12.04326721220767,-138.76413505800429,92.95098598968282,23.320988954995624,52.23553151434827,6.2290966364492615,97.51904739828363,-85.0070503092839,"
",2.1486161052993897,-5.765456118890901,-1.584640422658904,-18.258438823421617,12.230392893379317,3.068551178288898,6.87309625188793,0.819617978480166,12.83145360503732,-11.185138198589986,"
",26.105685679387587,-70.05029184452445,-19.253381135305684,-221.84003170457265,148.59927365455871,37.28289681621011,83.50811946043835,9.958358438534017,155.90216130120342,-135.89942911286832,"
",11.495096163351736,-30.845190236066323,-8.477826261225136,-97.68264770530565,65.43260197957935,16.416748803845604,36.77106494760043,4.384956184868888,68.64827678694967,-59.840489362456424,"
",2.2560469105643595,-6.053728924835447,-1.663872443791849,-19.1713607645927,12.841912538048284,3.221978737203343,7.2167510644823265,0.8605988774041744,13.473026285289185,-11.744395108519484,"
",5.264109457983505,-14.12536749128271,-3.882369035514315,-44.73317511738296,29.96446258877933,7.5179503868078,16.83908581712543,2.008064047276407,31.437061332341433,-27.403588586545464,"
",15.255174347625669,-40.9347384441254,-11.250947000878218,-129.63491564629348,86.83578954299315,21.786713365851178,48.7989833884043,5.819287647209179,91.10332059576497,-79.41448120998889,"
",8.48703361593259,-22.77355166961906,-6.25932966950267,-72.12083335251539,48.31005192884831,12.120777154241146,27.148730194957324,3.237491014996656,50.68424173989741,-44.18129588443044,"
",26.535408900447464,-71.20338306830263,-19.570309219837462,-225.49171946925696,151.04535223323458,37.89660705186789,84.88273871081594,10.12228203423005,158.4684520222109,-138.13645675258633,"
",4.834386236923628,-12.972276267504528,-3.5654409509825338,-41.08148735269864,27.518384010103468,6.90424015115002,15.464466566747843,1.8441404515803737,28.87077061133397,-25.166560946827467,"
",21.16386863719899,-56.78974277107538,-15.608708163190204,-179.84562241070293,120.46936999978628,30.225229106145644,67.69999808109611,8.073237088029636,126.3898180096176,-110.17361125611136,"
",17.403790452925058,-46.700194563016304,-12.835587423537122,-147.8933544697151,99.06618243637247,24.855264544140073,55.67207964029223,6.638905625689345,103.9347742008023,-90.59961940857889,"
",3.974939794803871,-10.666093819948168,-2.931584781918972,-33.77811182332999,22.62622685275174,5.676819679834462,12.71522806599267,1.5162932601883072,23.738189169319043,-20.692505667391472,"
",15.684897568685546,-42.087829667903584,-11.567875085409998,-133.2866034109778,89.28186812166902,22.400423601508955,50.17360263878189,5.983211242905212,93.66961131677243,-81.6515088497069,"
",6.230986705368231,-16.719822744783613,-4.595457225710821,-52.949472587922685,35.468139390800026,8.898798417037804,19.931979130474996,2.3768921375924816,37.21121545460823,-32.436900775910956,"
",22.560469105643595,-60.53728924835447,-16.63872443791849,-191.71360764592697,128.41912538048285,32.21978737203343,72.16751064482327,8.605988774041743,134.73026285289185,-117.44395108519485,"
",10.420788110702041,-27.96246217662087,-7.685506049895684,-88.55342829359483,59.317405532889694,14.882473214701156,33.334516821656464,3.9751471956288054,62.232549984431,-54.24792026316143,"
",24.816516016207952,-66.59101817318991,-18.30259688171034,-210.88496841051966,141.26103791853112,35.441766109236774,79.38426170930559,9.466587651445918,148.20328913818105,-129.18834619371432,"
",26.320547289917528,-70.62683745641354,-19.411845177571575,-223.6658755869148,149.82231294389666,37.589751934039,84.19542908562714,10.040320236382033,157.18530666170716,-137.01794293272732,"
",26.642839705712436,-71.49165587424717,-19.649541240970407,-226.40464141042804,151.65687187790354,38.05003461078233,85.22639352341034,10.163262933154058,159.11002470246277,-138.69571366251583,"
",10.205926500172103,-27.385916564731783,-7.5270420076297935,-86.72758441125268,58.09436624355176,14.575618096872265,32.64720719646767,3.8931853977807886,60.949404623927265,-53.12940644330243,"
",15.040312737095729,-40.35819283223631,-11.092482958612328,-127.80907176395132,85.61275025365522,21.479858248022285,48.111673763215514,5.737325849361162,89.82017523526123,-78.2959673901299,"
",15.792328373950516,-42.37610247384813,-11.647107106542943,-134.1995253521489,89.893387766338,22.5538511604234,50.51725745137629,6.024192141829221,94.3111839970243,-82.21076575963639,"
",26.96513212150734,-72.35647429208082,-19.887237304369243,-229.14340723394128,153.49143081191045,38.51031728752567,86.25735796119352,10.286205629926084,161.03474274321837,-140.3734843923043,"
",19.33754494769451,-51.88910507001811,-14.261763803930135,-164.32594941079455,110.07353604041387,27.61696060460008,61.85786626699137,7.376561806321495,115.48308244533588,-100.66624378730987,"
",23.63477715829329,-63.42001730779992,-17.431044649247944,-200.84282705763778,134.5343218271725,33.75406296117788,75.60405877076724,9.015797763281826,141.14598965541052,-123.03652018448985,"
",7.197863952752956,-19.31427799828452,-5.308545415907328,-61.165770058462414,40.97181619282072,10.279646447267808,23.024872443824567,2.7457202279085564,42.98536957687502,-37.47021296527645,"
",24.279361989883107,-65.14965414346719,-17.906436776045613,-206.32035870466427,138.2034396951863,34.674628314664545,77.6659876463336,9.261683156825876,144.9954257369217,-126.39206164406684,"
",18.263236895044813,-49.00637701057266,-13.469443592600683,-155.19672999908374,103.9583395937242,26.082685015455635,58.42131814104741,6.966752817081411,109.06735564281722,-95.07367468801488,"
",5.908694289573322,-15.85500432694998,-4.357761162311986,-50.210706764409444,33.633580456793126,8.43851574029447,18.90101469269181,2.2539494408204566,35.28649741385263,-30.75913004612246,"
",7.305294758017926,-19.602550804229065,-5.387777437040273,-62.0786919996335,41.583335837489685,10.433074006182252,23.36852725641896,2.7867011268325648,43.626942257126885,-38.02946987520595,"
",5.801263484308353,-15.566731521005433,-4.278529141179041,-49.297784823238366,33.02206081212416,8.285088181380024,18.55735988009741,2.212968541896448,34.64492473360076,-30.199873136192963,"
",1.504031273709573,-4.035819283223631,-1.1092482958612329,-12.780907176395132,8.561275025365523,2.1479858248022285,4.811167376321551,0.5737325849361162,8.982017523526125,-7.82959673901299,"
",0.6445848315898169,-1.7296368356672704,-0.4753921267976712,-5.477531647026485,3.6691178680137955,0.9205653534866693,2.061928875566379,0.2458853935440498,3.849436081511196,-3.3555414595769957,"
",15.684897568685546,-42.087829667903584,-11.567875085409998,-133.2866034109778,89.28186812166902,22.400423601508955,50.17360263878189,5.983211242905212,93.66961131677243,-81.6515088497069,"
",14.073435489711004,-37.7637375787354,-10.379394768415821,-119.5927742934116,80.10907345163453,20.099010217792284,45.01878044986594,5.368497759045088,84.04602111299444,-73.2626552007644,"
",26.96513212150734,-72.35647429208082,-19.887237304369243,-229.14340723394128,153.49143081191045,38.51031728752567,86.25735796119352,10.286205629926084,161.03474274321837,-140.3734843923043,"
",16.544344010805304,-44.394012115459944,-12.201731254473561,-140.58997894034644,94.17402527902075,23.627844072824516,52.92284113953706,6.311058434297278,98.80219275878736,-86.12556412914289,"
",20.734145416139114,-55.6366515472972,-15.291780078658423,-176.1939346460186,118.02329142111041,29.611518870487867,66.32537883071852,7.909313492333602,123.82352728861014,-107.93658361639336,"
",13.643712268651125,-36.610646354957225,-10.06246668388404,-115.94108652872727,77.66299487295868,19.485299982134503,43.64416119948836,5.204574163349054,81.47973039198698,-71.0256275610464,"
",1.1817388579146644,-3.171000865389996,-0.8715522324623972,-10.04214135288189,6.726716091358625,1.687703148058894,3.7802029385383618,0.4507898881640913,7.057299482770526,-6.151826009224492,"
",16.544344010805304,-44.394012115459944,-12.201731254473561,-140.58997894034644,94.17402527902075,23.627844072824516,52.92284113953706,6.311058434297278,98.80219275878736,-86.12556412914289,"
",14.718020321300822,-39.49337441440267,-10.854786895213492,-125.07030594043808,83.77819131964833,21.019575571278953,47.08070932543232,5.614383152589137,87.89545719450564,-76.6181966603414,"
",7.949879589607742,-21.332187639896336,-5.863169563837944,-67.55622364665999,45.25245370550348,11.353639359668923,25.43045613198534,3.0325865203766145,47.476378338638085,-41.385011334782945,"
",9.024187642257438,-24.214915699341788,-6.655489775167396,-76.6854430583708,51.367650152193136,12.887914948813371,28.867004257929306,3.4423955096166976,53.89210514115674,-46.977580434077936,"
",27.28742453730225,-73.22129270991445,-20.12493336776808,-231.88217305745454,155.32598974591735,38.970599964269006,87.28832239897672,10.409148326698109,162.95946078397395,-142.0512551220928,"
",20.626714610874142,-55.348378741352654,-15.212548057525478,-175.2810127048475,117.41177177644146,29.45809131157342,65.98172401812413,7.868332593409594,123.18195460835827,-107.37732670646386,"
",17.726082868719967,-47.565012980849936,-13.073283486935958,-150.63212029322833,100.90074137037938,25.31554722088341,56.70304407807542,6.76184832246137,105.85949224155789,-92.27739013836738,"
",12.247111800206522,-32.86309987767814,-9.032450409155752,-104.07310129350321,69.71323949226212,17.490741716246717,39.176648635761204,4.6718224773369466,73.13928554871272,-63.755287731962916,"
",20.734145416139114,-55.6366515472972,-15.291780078658423,-176.1939346460186,118.02329142111041,29.611518870487867,66.32537883071852,7.909313492333602,123.82352728861014,-107.93658361639336,"
",21.05643783193402,-56.50146996513084,-15.52947614205726,-178.93270046953185,119.85785035511732,30.0718015472312,67.35634326850172,8.032256189105627,125.74824532936573,-109.61435434618186,"
",1.0743080526496949,-2.8827280594454505,-0.792320211329452,-9.129219411710809,6.115196446689659,1.534275589144449,3.436548125943965,0.409808989240083,6.41572680251866,-5.592569099294993,"
",22.882761521438503,-61.4021076661881,-16.876420501317327,-194.4523734694402,130.25368431448973,32.68007004877676,73.19847508260645,8.728931470813768,136.65498089364746,-119.12172181498335,"
",6.44584831589817,-17.296368356672705,-4.753921267976712,-54.77531647026485,36.69117868013795,9.205653534866695,20.619288755663792,2.458853935440498,38.49436081511196,-33.55541459576996,"
",19.552406558224448,-52.465650681907206,-14.420227846196026,-166.1517932931367,111.29657532975179,27.923815722428973,62.54517589218016,7.458523604169511,116.7662278058396,-101.78475760716887,"
",17.726082868719967,-47.565012980849936,-13.073283486935958,-150.63212029322833,100.90074137037938,25.31554722088341,56.70304407807542,6.76184832246137,105.85949224155789,-92.27739013836738,"
",15.040312737095729,-40.35819283223631,-11.092482958612328,-127.80907176395132,85.61275025365522,21.479858248022285,48.111673763215514,5.737325849361162,89.82017523526123,-78.2959673901299,"
",8.594464421197559,-23.061824475563604,-6.338561690635616,-73.03375529368647,48.92157157351727,12.274204713155592,27.49238500755172,3.278471913920664,51.32581442014928,-44.74055279435994,"
",6.768140731693078,-18.16118677450634,-4.991617331375547,-57.514082293778095,38.52573761414485,9.66593621161003,21.65025319344698,2.581796632212523,40.419078855867554,-35.23318532555845,"
",18.048375284514876,-48.429831398683575,-13.310979550334793,-153.3708861167416,102.73530030438627,25.775829897626743,57.73400851585861,6.884791019233395,107.78421028231348,-93.95516086815587,"
",8.37960281066762,-22.485278863674516,-6.180097648369725,-71.2079114113443,47.69853228417934,11.967349595326702,26.80507538236293,3.1965101160726475,50.04266905964555,-43.622038974500946,"
",27.28742453730225,-73.22129270991445,-20.12493336776808,-231.88217305745454,155.32598974591735,38.970599964269006,87.28832239897672,10.409148326698109,162.95946078397395,-142.0512551220928,"
",13.536281463386157,-36.32237354901268,-9.983234662751094,-115.02816458755619,77.0514752282897,19.33187242322006,43.30050638689396,5.163593264425046,80.83815771173511,-70.4663706511169,"
",1.0743080526496949,-2.8827280594454505,-0.792320211329452,-9.129219411710809,6.115196446689659,1.534275589144449,3.436548125943965,0.409808989240083,6.41572680251866,-5.592569099294993,"
",19.552406558224448,-52.465650681907206,-14.420227846196026,-166.1517932931367,111.29657532975179,27.923815722428973,62.54517589218016,7.458523604169511,116.7662278058396,-101.78475760716887,"
",12.56940421600143,-33.72791829551177,-9.270146472554588,-106.81186711701646,71.54779842626901,17.951024392990053,40.207613073544394,4.794765174108972,75.06400358946831,-65.43305846175141,"
",14.395727905505913,-38.62855599656904,-10.617090831814656,-122.33154011692483,81.94363238564144,20.559292894535616,46.04974488764913,5.491440455817113,85.97073915375005,-74.9404259305529,"
",17.08149803713015,-45.835376145182664,-12.597891360138286,-145.15458864620186,97.23162350236558,24.39498186739674,54.64111520250904,6.51596292891732,102.01005616004669,-88.92184867879038,"
",6.660709926428109,-17.872913968561793,-4.912385310242602,-56.60116035260701,37.914217969475885,9.512508652695583,21.306598380852584,2.5408157332885146,39.77750617561569,-34.67392841562896,"
",9.883634084377194,-26.521098146898147,-7.289345944230958,-83.98881858773943,56.25980730954486,14.11533542012893,31.61624275868448,3.7702427010087636,59.02468658317167,-51.45163571351394,"
",0.1074308052649695,-0.2882728059445451,-0.0792320211329452,-0.9129219411710808,0.6115196446689659,0.1534275589144449,0.3436548125943965,0.0409808989240083,0.641572680251866,-0.5592569099294993,"
",25.3536700425328,-68.03238220291264,-18.698756987375067,-215.44957811637508,144.31863614187594,36.208903903808995,81.10253577227758,9.67149214606596,151.41115253944037,-131.98463074336183,"
",2.793200936889207,-7.495092954558172,-2.060032549456575,-23.735970470448102,15.899510761393113,3.9891165317755672,8.93502512745431,1.065503372024216,16.680889686548515,-14.540679658166981,"
",5.908694289573322,-15.85500432694998,-4.357761162311986,-50.210706764409444,33.633580456793126,8.43851574029447,18.90101469269181,2.2539494408204566,35.28649741385263,-30.75913004612246,"
",25.031377626737893,-67.167563785079,-18.46106092397623,-212.71081229286185,142.48407720786906,35.74862122706566,80.07157133449438,9.548549449293935,149.4864344986848,-130.30686001357333,"
",11.387665358086766,-30.55691743012178,-8.39859424009219,-96.76972576413456,64.82108233491039,16.26332124493116,36.42741013500603,4.34397528594488,68.0067041066978,-59.28123245252692,"
",25.99825487412262,-69.76201903857991,-19.17414911417274,-220.92710976340157,147.98775400988976,37.12946925729567,83.16446464784396,9.917377539610008,155.26058862095158,-135.34017220293882,"
",0.5371540263248474,-1.4413640297227253,-0.396160105664726,-4.564609705855404,3.0575982233448293,0.7671377945722245,1.7182740629719826,0.2049044946200415,3.20786340125933,-2.7962845496474964,"
",23.84963876882323,-63.996562919689005,-17.589508691513835,-202.66867093997993,135.75736111651042,34.06091807900677,76.29136839595603,9.097759561129843,142.42913501591426,-124.15503400434883,"
",24.494223600413044,-65.72619975535628,-18.064900818311504,-208.14620258700643,139.42647898452424,34.981483432493434,78.35329727152241,9.343644954673893,146.27857109742544,-127.51057546392583,"
",14.073435489711004,-37.7637375787354,-10.379394768415821,-119.5927742934116,80.10907345163453,20.099010217792284,45.01878044986594,5.368497759045088,84.04602111299444,-73.2626552007644,"
",15.470035958155608,-41.51128405601449,-11.409411043144107,-131.46075952863563,88.05882883233109,22.093568483680066,49.4862930135931,5.9012494450571955,92.3864659562687,-80.5329950298479,"
",20.196991389814265,-54.19528751757447,-14.895619972993696,-171.6293249401632,114.96569319776559,28.844381075915642,64.60710476774655,7.704408997713561,120.6156638873508,-105.14029906674587,"
",11.709957773881674,-31.421735847955414,-8.636290303491027,-99.50849158764781,66.65564126891728,16.723603921674496,37.45837457278922,4.466917982716905,69.93142214745339,-60.95900318231542,"
",14.288297100240943,-38.3402831906245,-10.537858810681712,-121.41861817575375,81.33211274097246,20.405865335621172,45.70609007505474,5.4504595568931045,85.32916647349818,-74.3811690206234,"
",13.643712268651125,-36.610646354957225,-10.06246668388404,-115.94108652872727,77.66299487295868,19.485299982134503,43.64416119948836,5.204574163349054,81.47973039198698,-71.0256275610464,"
",25.67596245832771,-68.89720062074628,-18.936453050773903,-218.1883439398883,146.15319507588285,36.66918658055233,82.13350021006076,9.794434842837985,153.33587058019597,-133.66240147315034,"
",4.2972322105987795,-11.530912237781802,-3.169280845317808,-36.516877646843234,24.460785786758635,6.137102356577796,13.74619250377586,1.639235956960332,25.66290721007464,-22.37027639717997,"
",12.89169663179634,-34.59273671334541,-9.507842535953424,-109.5506329405297,73.3823573602759,18.41130706973339,41.238577511327584,4.917707870880996,76.98872163022392,-67.11082919153992,"
",14.180866294975973,-38.05201038467995,-10.458626789548767,-120.50569623458267,80.7205930963035,20.252437776706728,45.36243526246034,5.409478657969096,84.68759379324631,-73.8219121106939,"
",26.535408900447464,-71.20338306830263,-19.570309219837462,-225.49171946925696,151.04535223323458,37.89660705186789,84.88273871081594,10.12228203423005,158.4684520222109,-138.13645675258633,"
",22.238176689848686,-59.67247083052083,-16.401028374519655,-188.97484182241374,126.58456644647595,31.759504695290094,71.13654620704008,8.48304607726972,132.80554481213625,-115.76618035540635,"
",17.08149803713015,-45.835376145182664,-12.597891360138286,-145.15458864620186,97.23162350236558,24.39498186739674,54.64111520250904,6.51596292891732,102.01005616004669,-88.92184867879038,"
",6.768140731693078,-18.16118677450634,-4.991617331375547,-57.514082293778095,38.52573761414485,9.66593621161003,21.65025319344698,2.581796632212523,40.419078855867554,-35.23318532555845,"
",20.411853000344205,-54.771833129463566,-15.054084015259587,-173.45516882250536,116.18873248710352,29.15123619374453,65.29441439293534,7.786370795561577,121.89880924785453,-106.25881288660486,"
",23.52734635302832,-63.13174450185537,-17.351812628115,-199.9299051164667,133.92280218250355,33.600635402263435,75.26040395817283,8.974816864357818,140.50441697515865,-122.47726327456034,"
